0.098,0.193,0.182,0.138,0.232,-0.112,0.030,0.174,0.130,-0.028,-0.161,0.148,-0.135,0.138,0.036,0.246,0.141,0.080,-0.046,-0.150,-0.008,-0.006,0.136,0.014,-0.124,0.044,0.036,-0.024,-0.114,0.016,0.028,0.109,0.115,0.179,0.052,0.084,0.228,0.241,-0.105,-0.055,0.134,0.271,-0.120,0.122,0.125,-0.100,-0.051,-0.122,-0.097,-0.194,0.105,0.059,0.020,-0.003,0.164,0.190,0.063,-0.018,-0.135,-0.103,-0.048,-0.146,-0.024,0.034,0.160,-0.105,0.238,0.066,-0.030,0.007,0.168,0.172,-0.209,-0.092,0.049,-0.101,0.268,0.083,0.112,-0.083,0.086,0.180,0.219,0.086
0.070,-0.083,0.099,0.072,0.013,0.065,0.234,0.176,0.126,0.157,0.042,0.115,0.130,0.023,-0.025,0.051,-0.063,-0.193,-0.065,0.194,0.288,0.004,0.119,0.058,-0.166,0.102,0.110,0.009,0.123,0.038,0.181,-0.100,-0.077,-0.147,0.050,0.033,-0.016,0.222,0.078,0.059,0.067,0.057,0.117,-0.043,-0.018,0.086,-0.001,-0.011,0.135,0.199,0.127,0.188,-0.061,-0.065,0.255,0.213,0.118,0.260,0.053,-0.223,-0.061,-0.188,-0.107,0.037,0.137,0.118,0.088,0.056,0.212,0.197,0.159,0.106,-0.056,-0.053,0.199,-0.156,-0.126,0.043,-0.107,-0.007,0.081,-0.105,0.259,0.059
0.158,0.068,0.191,0.349,-0.023,0.054,0.235,-0.102,-0.043,0.010,0.158,0.359,0.379,0.154,0.015,0.048,0.188,0.233,0.153,0.069,-0.112,0.083,0.037,0.178,0.278,0.322,0.205,0.324,-0.070,0.253,0.214,0.043,0.185,0.332,0.261,0.188,0.299,0.012,-0.122,0.144,-0.078,0.113,0.173,0.270,0.084,0.380,-0.009,-0.032,-0.037,0.013,0.212,0.197,0.018,0.172,0.369,0.228,0.082,0.005,0.057,-0.158,-0.125,-0.118,0.193,0.064,0.318,0.364,0.320,0.158,-0.132,0.040,0.009,0.092,-0.142,0.003,0.038,0.072,0.066,-0.022,0.046,-0.253,-0.027,0.035,0.085,-0.174
-0.068,0.021,-0.074,-0.218,-0.087,-0.118,-0.066,-0.030,0.084,-0.144,-0.020,0.051,-0.188,-0.163,0.165,-0.114,-0.203,0.332,-0.033,0.055,-0.025,-0.083,-0.133,-0.150,-0.132,0.073,-0.114,0.021,-0.124,-0.164,-0.003,0.015,-0.070,-0.171,-0.074,-0.070,-0.110,-0.297,-0.230,-0.032,-0.268,-0.012,0.009,-0.156,-0.104,-0.050,-0.181,-0.256,-0.130,-0.226,-0.028,-0.024,-0.135,-0.223,-0.124,0.109,-0.104,0.228,-0.343,0.274,-0.005,0.078,-0.076,-0.093,-0.233,-0.214,-0.039,-0.065,-0.177,-0.006,0.012,-0.242,-0.192,0.180,0.227,0.142,0.129,-0.317,0.033,-0.362,-0.099,-0.164,-0.156,-0.049
0.245,0.218,0.052,0.115,0.407,0.314,-0.092,0.174,0.120,-0.086,0.043,0.313,0.264,0.165,-0.097,-0.071,0.237,-0.230,-0.040,0.102,0.190,0.157,0.185,-0.110,0.120,0.251,0.100,-0.058,0.154,0.259,-0.143,0.128,0.254,-0.150,-0.042,0.069,0.122,-0.175,0.259,0.236,0.122,-0.147,-0.003,0.011,0.094,-0.076,-0.107,0.322,0.038,-0.109,-0.148,-0.145,0.109,0.005,0.059,0.188,0.175,0.070,0.069,-0.034,-0.046,0.106,-0.112,0.229,0.164,0.325,-0.004,-0.031,0.082,0.093,-0.201,-0.056,0.188,0.079,0.009,0.322,0.195,0.202,-0.149,-0.191,0.094,-0.104,0.231,0.334
0.100,0.089,0.166,0.055,0.173,0.186,0.223,0.247,0.052,-0.002,-0.147,-0.125,-0.099,0.016,0.104,0.058,0.115,0.355,-0.120,0.287,0.122,0.154,0.165,0.185,0.086,-0.043,0.048,0.144,0.132,0.145,-0.077,-0.025,0.088,0.148,0.078,0.128,0.158,0.155,0.287,0.049,0.262,0.080,0.212,0.148,-0.104,-0.122,0.085,-0.021,0.256,-0.076,0.354,-0.157,-0.178,-0.417,0.045,-0.070,0.136,0.219,0.039,0.380,0.055,0.321,0.201,0.308,0.105,-0.020,-0.021,0.239,0.106,-0.307,0.077,-0.058,0.139,-0.153,-0.320,-0.141,-0.041,0.268,0.156,0.329,0.366,0.217,0.102,0.210
-0.008,0.116,-0.190,-0.275,0.085,-0.087,-0.235,-0.060,-0.181,0.035,-0.075,-0.263,-0.184,-0.108,0.009,0.008,-0.024,0.044,-0.132,-0.114,-0.058,-0.170,-0.005,-0.141,0.033,-0.042,-0.100,-0.137,-0.089,-0.114,-0.188,0.145,-0.209,-0.216,-0.150,-0.000,0.019,0.060,0.057,0.072,-0.013,0.019,-0.184,-0.134,-0.145,-0.167,-0.077,-0.181,-0.082,-0.235,-0.221,0.206,-0.007,-0.176,-0.080,0.274,-0.030,-0.117,0.181,-0.296,-0.206,-0.130,0.080,-0.197,-0.136,-0.124,-0.156,-0.075,-0.010,-0.423,0.110,-0.163,-0.068,0.035,0.037,-0.074,0.039,0.105,-0.162,0.134,-0.319,-0.157,-0.167,-0.433
-0.063,-0.042,-0.178,-0.117,-0.173,-0.077,-0.032,-0.008,-0.018,0.253,0.039,0.266,0.085,-0.033,-0.080,-0.166,0.014,0.324,-0.072,0.141,0.101,0.028,0.130,0.040,0.193,0.081,0.033,-0.032,0.014,0.205,0.292,0.119,0.322,0.146,0.117,0.111,0.160,0.339,-0.135,-0.058,-0.093,0.053,0.204,0.061,-0.130,0.227,0.117,-0.013,-0.111,0.032,-0.022,0.294,0.083,-0.077,-0.023,-0.106,-0.158,0.399,0.060,0.077,0.061,0.086,0.158,0.128,0.112,0.177,0.323,0.191,0.055,-0.197,0.317,0.181,-0.017,-0.001,-0.195,-0.121,-0.166,0.418,0.374,0.269,0.336,-0.072,0.140,0.217
-0.020,0.104,-0.035,0.389,0.005,0.246,0.177,0.139,0.061,0.234,-0.152,0.543,0.445,0.111,0.206,0.083,-0.096,0.283,0.076,0.108,0.102,-0.137,0.067,0.133,0.131,0.134,0.249,0.136,0.108,0.146,0.112,-0.043,-0.067,0.342,0.222,0.037,0.212,0.150,-0.001,0.009,0.017,0.021,0.079,0.191,0.203,0.135,0.010,0.093,0.071,0.093,-0.099,0.155,-0.144,-0.249,-0.056,-0.026,-0.078,0.250,0.224,-0.231,-0.135,0.343,0.236,0.313,0.294,0.154,0.324,0.049,0.236,0.064,0.219,0.307,0.235,0.128,-0.218,-0.044,-0.012,-0.053,0.330,0.135,0.237,0.256,0.028,0.165
0.317,0.058,0.316,0.081,-0.043,0.182,0.171,-0.161,0.102,0.290,-0.053,0.198,-0.069,-0.156,0.156,0.169,0.135,0.041,-0.194,-0.006,0.168,0.088,-0.030,0.230,0.126,0.295,0.096,0.239,0.142,0.232,0.111,-0.009,0.190,0.155,0.166,0.049,0.262,0.268,0.092,0.042,0.043,0.046,-0.017,0.103,0.141,-0.019,0.169,-0.211,0.218,-0.177,0.154,0.247,-0.153,-0.088,0.322,-0.050,0.048,0.231,0.451,0.201,-0.001,0.205,0.421,0.260,0.323,0.220,-0.090,0.428,0.135,0.166,0.072,0.093,-0.077,0.101,-0.316,0.271,0.056,0.048,0.123,-0.092,0.243,0.253,0.415,-0.078
-0.286,0.203,-0.183,-0.224,-0.183,-0.262,-0.099,-0.273,-0.278,-0.021,-0.050,-0.069,-0.092,-0.242,-0.379,0.045,0.005,0.311,0.257,0.175,-0.218,-0.041,0.056,0.031,-0.031,-0.115,-0.057,0.051,0.078,0.093,-0.155,0.114,-0.072,-0.309,0.048,-0.030,0.046,0.033,0.114,0.081,0.124,-0.043,-0.010,-0.082,-0.079,0.003,-0.117,-0.261,-0.075,-0.136,-0.109,-0.008,-0.065,-0.098,-0.163,-0.291,-0.124,0.279,0.288,0.194,-0.019,-0.413,-0.239,-0.258,-0.076,-0.284,-0.140,-0.206,0.110,0.125,-0.047,-0.313,-0.169,0.069,-0.098,-0.068,-0.180,-0.295,-0.477,-0.156,-0.287,-0.185,-0.206,0.139
0.214,0.016,0.269,-0.169,0.254,0.143,0.331,-0.018,0.188,0.128,0.082,-0.142,-0.095,0.138,0.259,0.142,0.138,-0.046,-0.114,0.031,0.313,0.093,0.202,-0.009,0.020,-0.032,-0.028,0.026,-0.041,-0.038,-0.014,-0.002,0.035,0.264,-0.007,0.113,-0.013,0.008,0.307,0.201,0.289,0.066,0.154,-0.013,0.385,0.004,-0.088,-0.218,0.198,0.026,-0.111,-0.222,0.066,-0.080,-0.050,-0.336,0.236,0.294,0.126,0.318,0.102,0.279,0.253,-0.102,0.375,0.059,0.255,0.380,0.279,-0.246,-0.154,0.223,0.011,-0.035,-0.413,0.306,0.214,0.192,-0.116,0.266,-0.204,-0.112,0.175,-0.065
-0.024,0.130,0.100,0.232,0.023,0.119,0.225,0.042,-0.006,-0.226,0.143,0.374,-0.006,0.026,-0.156,0.216,0.274,0.082,0.150,0.137,-0.125,0.011,0.090,0.080,0.199,0.085,0.216,0.040,0.060,-0.104,0.177,-0.070,0.212,0.138,-0.098,-0.077,0.076,0.104,0.076,0.152,0.019,0.112,0.171,0.036,0.306,0.409,0.388,0.423,0.057,-0.067,0.099,-0.138,0.028,0.094,0.358,0.368,0.350,-0.230,-0.061,-0.319,0.343,-0.133,-0.096,0.266,0.021,0.161,0.087,0.407,-0.195,0.172,0.233,0.247,0.044,0.088,0.312,0.151,-0.114,0.006,-0.248,0.039,-0.026,0.121,-0.136,0.210
0.229,0.249,0.144,0.159,-0.032,0.152,0.092,0.401,0.097,0.203,0.006,-0.088,0.499,0.055,0.235,0.130,0.036,0.120,-0.183,0.155,0.113,0.021,0.142,0.035,0.049,0.194,0.269,0.287,0.070,0.121,0.226,-0.051,0.003,0.237,0.152,0.045,-0.011,0.113,0.184,0.200,0.107,0.068,0.468,-0.076,0.010,0.060,0.152,0.187,0.371,0.270,0.200,0.113,-0.176,-0.461,0.323,-0.101,0.272,0.246,0.204,0.128,0.354,-0.015,0.092,0.235,-0.097,-0.072,-0.023,0.055,0.060,-0.013,0.219,0.094,0.141,0.147,-0.220,-0.044,-0.207,0.339,0.241,0.312,0.304,0.219,0.122,0.171
0.107,0.204,0.066,0.091,0.128,0.320,-0.079,0.223,0.241,0.163,-0.087,0.337,0.157,0.344,0.110,-0.051,-0.076,0.127,0.078,-0.007,-0.012,0.055,-0.178,0.061,0.085,0.249,0.188,0.183,0.088,-0.006,0.282,0.040,-0.225,0.384,0.141,0.074,0.258,0.259,-0.037,0.080,-0.081,0.072,-0.179,0.257,-0.094,-0.024,0.142,-0.276,0.268,-0.016,-0.024,0.175,-0.143,-0.003,0.147,0.148,0.040,-0.158,0.211,-0.160,0.166,0.209,0.179,0.032,-0.126,-0.125,0.374,0.299,-0.046,0.120,-0.094,0.106,0.198,0.032,-0.195,0.359,0.288,0.076,0.088,-0.192,-0.198,0.303,0.040,0.104
0.091,0.174,0.214,-0.053,0.008,0.032,0.067,-0.088,0.032,-0.013,0.123,-0.248,0.004,-0.066,-0.152,-0.032,0.114,0.138,-0.037,-0.125,-0.077,-0.026,0.074,-0.080,-0.340,-0.164,0.082,-0.108,-0.171,-0.116,-0.170,-0.124,-0.047,-0.052,-0.271,-0.070,-0.201,-0.184,0.129,0.219,0.246,0.204,-0.108,0.013,-0.190,-0.007,-0.077,-0.191,-0.112,0.131,0.051,0.255,0.176,0.039,-0.120,-0.249,-0.049,-0.314,-0.116,-0.197,-0.017,0.114,-0.016,-0.160,-0.032,-0.140,-0.133,-0.186,0.017,-0.425,0.024,-0.078,-0.041,-0.103,-0.084,0.005,-0.219,0.043,0.095,0.049,-0.030,-0.035,-0.065,0.143
0.077,-0.245,-0.102,-0.149,0.092,-0.106,0.173,-0.088,-0.001,0.029,-0.057,-0.045,-0.078,0.158,-0.151,0.107,0.044,-0.186,-0.182,-0.157,-0.061,-0.092,-0.089,0.061,-0.056,0.042,0.128,0.069,-0.055,0.037,-0.048,0.052,-0.081,0.039,0.066,-0.122,-0.047,-0.095,0.022,-0.096,0.040,-0.148,-0.053,-0.108,0.043,-0.016,-0.125,-0.015,0.119,-0.063,-0.010,-0.218,-0.056,0.035,0.070,-0.063,-0.009,-0.301,-0.228,-0.222,0.021,-0.082,0.018,0.038,-0.141,-0.096,-0.112,0.058,-0.181,-0.199,-0.145,0.050,0.161,-0.139,-0.237,-0.003,-0.247,-0.136,-0.101,-0.088,0.041,-0.135,-0.145,0.203
-0.172,-0.068,0.149,-0.039,-0.193,-0.160,-0.163,-0.174,-0.009,0.163,0.111,0.092,-0.095,-0.159,0.101,0.237,-0.114,-0.141,-0.164,-0.014,0.073,-0.070,0.034,-0.123,-0.102,0.000,0.130,0.109,0.032,0.116,0.138,0.050,-0.085,0.093,0.149,-0.139,0.022,-0.062,-0.063,0.000,-0.093,-0.101,0.087,0.034,-0.141,-0.011,-0.022,0.031,0.164,0.087,0.013,0.257,0.091,-0.206,0.147,0.001,0.157,-0.085,0.209,-0.124,-0.036,-0.098,0.186,-0.094,-0.160,0.083,0.077,0.150,0.210,-0.044,-0.102,0.149,-0.179,0.085,-0.230,-0.134,-0.155,-0.148,-0.054,0.057,0.064,0.105,-0.161,0.193
-0.279,-0.158,-0.295,-0.360,-0.078,-0.173,-0.184,-0.144,-0.362,-0.115,-0.178,-0.427,-0.153,-0.233,0.124,0.163,0.144,0.029,0.055,0.103,-0.170,-0.033,-0.193,0.138,0.154,-0.035,-0.167,-0.216,0.052,-0.052,-0.207,-0.084,-0.101,0.014,-0.097,-0.049,0.116,-0.126,-0.116,-0.197,-0.035,-0.014,-0.155,-0.045,-0.167,-0.184,-0.133,-0.027,-0.078,-0.090,-0.226,0.316,0.002,-0.300,-0.237,0.218,-0.118,0.298,0.276,-0.323,-0.246,-0.450,-0.411,0.021,-0.158,-0.134,-0.115,-0.193,-0.167,-0.264,-0.272,-0.066,0.047,0.174,0.048,-0.087,0.415,-0.099,-0.304,-0.064,-0.282,-0.210,-0.099,-0.421
0.062,0.320,0.073,-0.108,-0.017,0.124,0.003,0.111,0.031,0.081,0.163,0.300,-0.078,0.075,0.013,0.230,0.323,-0.144,0.107,0.368,-0.064,-0.042,-0.141,0.068,0.066,0.099,-0.162,0.220,0.187,0.151,-0.149,0.158,0.342,0.213,-0.141,-0.115,0.279,0.196,-0.129,-0.196,-0.045,-0.204,0.134,-0.021,-0.027,0.108,-0.104,0.078,-0.074,-0.133,-0.065,-0.280,0.108,0.101,0.080,-0.126,0.296,-0.031,0.048,0.109,0.294,0.165,-0.005,0.293,0.036,0.136,0.329,0.086,0.018,-0.115,0.099,0.037,-0.035,-0.125,0.346,0.158,0.125,0.192,0.316,0.309,0.004,0.090,-0.085,0.008
0.058,0.044,0.102,-0.052,0.025,0.208,0.175,0.103,0.091,0.264,0.158,0.049,0.175,0.014,-0.173,0.052,-0.211,0.236,-0.019,0.197,-0.091,0.184,0.198,0.105,0.057,0.140,0.150,-0.016,0.097,0.174,0.173,0.013,-0.008,0.322,0.143,-0.015,-0.033,0.175,-0.075,0.044,-0.296,-0.062,-0.128,0.206,0.343,-0.083,-0.048,-0.025,0.239,0.361,0.047,0.149,0.141,-0.021,0.296,0.307,-0.169,-0.057,0.039,-0.297,0.040,0.216,0.165,0.027,0.263,0.062,0.123,0.020,0.108,0.190,-0.056,0.301,0.048,0.132,-0.031,0.114,-0.193,0.211,-0.136,-0.134,0.160,0.125,0.132,0.133
0.227,0.121,0.253,0.030,0.014,-0.082,0.126,-0.008,0.170,-0.001,0.151,0.336,0.339,-0.192,0.137,-0.136,-0.039,0.140,-0.228,0.132,0.107,0.045,0.032,0.030,-0.022,-0.166,-0.017,0.143,0.151,0.140,-0.078,0.094,0.120,0.125,0.107,-0.117,0.186,0.082,0.188,0.291,0.327,-0.188,-0.130,-0.009,-0.102,0.224,-0.057,0.054,-0.080,-0.005,-0.138,0.009,0.027,-0.144,-0.084,-0.099,0.289,0.128,0.315,-0.144,0.262,0.240,0.032,0.280,-0.004,0.327,0.187,-0.149,0.076,0.190,0.038,-0.052,0.124,0.038,-0.140,-0.128,0.176,-0.160,0.064,-0.140,-0.152,0.165,0.132,0.291
0.181,0.095,0.061,0.340,0.093,-0.054,0.085,0.217,0.162,0.315,0.031,0.342,0.248,0.227,0.055,0.031,-0.195,0.072,0.195,0.187,0.030,0.142,0.020,0.052,-0.060,0.105,0.213,0.063,0.057,0.209,0.136,0.129,-0.032,0.185,0.285,0.039,0.239,0.152,-0.079,0.154,-0.304,0.092,-0.012,0.248,0.130,-0.007,-0.009,0.297,0.113,0.484,-0.171,0.366,0.173,0.045,0.265,0.256,-0.145,-0.235,-0.107,-0.357,0.189,-0.188,0.087,-0.023,-0.074,-0.076,0.430,-0.085,0.109,0.139,0.130,0.247,-0.063,-0.110,0.134,0.318,-0.346,0.157,-0.117,-0.363,0.105,0.148,-0.151,0.184
-0.111,-0.116,-0.209,-0.381,0.020,-0.078,-0.016,-0.335,-0.014,0.093,-0.139,-0.102,-0.263,0.051,0.221,-0.010,0.232,-0.166,-0.215,-0.024,0.177,-0.275,0.046,-0.080,0.029,-0.067,0.041,-0.142,0.019,0.053,0.051,0.014,-0.233,-0.113,-0.001,-0.025,-0.015,-0.162,-0.189,-0.011,-0.029,0.075,-0.380,-0.109,-0.136,-0.251,-0.309,-0.285,-0.214,-0.207,-0.130,0.076,-0.066,-0.409,-0.269,0.203,-0.260,0.151,0.227,0.011,-0.170,0.013,0.013,-0.091,-0.181,-0.189,-0.205,-0.216,-0.046,0.055,-0.148,-0.213,-0.035,-0.096,0.221,-0.235,0.192,0.106,-0.164,-0.317,-0.181,-0.157,-0.062,-0.541
0.013,0.114,-0.029,0.198,0.063,-0.020,0.137,-0.037,0.079,0.235,-0.135,0.131,-0.029,-0.183,-0.035,-0.154,-0.114,-0.119,-0.010,-0.091,0.042,0.126,-0.144,0.135,0.164,0.093,-0.172,0.084,-0.104,0.107,0.065,0.173,-0.124,0.178,-0.021,0.086,0.277,0.161,0.082,-0.000,0.043,-0.146,-0.171,0.016,0.081,-0.087,-0.157,-0.132,-0.052,0.192,0.254,-0.130,0.020,0.109,-0.118,-0.044,-0.160,0.063,0.053,-0.089,0.057,0.068,-0.107,0.053,-0.096,-0.113,-0.122,0.015,-0.187,-0.117,0.016,-0.034,0.003,-0.112,0.175,-0.171,0.242,-0.060,-0.124,-0.129,0.148,-0.149,-0.024,-0.006
-0.192,-0.115,-0.135,0.107,-0.157,0.110,-0.046,0.007,-0.159,0.094,0.174,-0.097,0.084,0.187,0.200,0.146,0.199,0.015,-0.091,0.054,0.150,-0.036,-0.120,0.090,0.092,0.121,0.026,0.056,0.119,-0.302,0.105,-0.019,-0.145,0.116,0.021,0.043,0.185,0.151,-0.044,-0.112,0.258,-0.024,0.014,0.099,0.072,0.063,-0.069,0.026,-0.153,0.058,0.155,0.253,-0.067,-0.027,-0.098,-0.225,-0.162,-0.387,0.033,0.047,-0.158,0.090,-0.088,0.265,-0.198,0.178,0.062,-0.150,0.022,0.184,0.067,-0.056,0.056,-0.024,0.254,-0.083,-0.203,-0.162,0.286,-0.080,-0.120,0.141,-0.042,-0.136
0.057,-0.206,0.159,-0.103,-0.035,0.141,-0.106,-0.110,0.058,0.017,-0.024,0.214,0.050,0.115,0.276,0.068,-0.011,-0.192,0.215,-0.072,0.202,0.022,0.028,-0.076,-0.086,0.213,0.077,0.148,-0.165,-0.113,-0.085,0.011,-0.112,0.037,-0.065,0.090,0.143,-0.009,-0.001,0.117,0.091,0.034,-0.217,0.149,0.211,-0.137,-0.128,0.154,0.132,-0.145,0.164,0.297,0.121,0.032,0.220,-0.054,-0.101,-0.087,0.063,0.109,-0.091,0.180,0.042,0.218,0.065,0.068,0.083,0.076,0.237,0.271,0.162,0.083,0.091,-0.113,-0.241,0.047,0.236,-0.206,0.236,-0.044,-0.184,-0.153,-0.111,-0.029
0.072,0.266,0.079,0.312,-0.164,0.138,0.047,-0.098,0.074,0.166,0.168,0.250,0.080,0.212,0.241,-0.005,0.026,-0.103,-0.199,-0.085,0.309,0.215,0.129,0.091,0.049,0.070,0.110,0.033,0.083,0.065,0.091,0.004,0.019,0.057,0.046,0.055,0.089,0.073,0.123,0.038,0.143,0.140,0.051,-0.038,-0.042,-0.095,-0.129,-0.048,-0.018,0.067,0.067,0.183,-0.086,-0.290,-0.105,-0.388,-0.055,0.370,0.307,0.105,-0.039,0.361,-0.113,0.156,-0.098,-0.146,-0.002,0.133,-0.096,-0.250,0.192,0.220,0.206,-0.042,-0.490,-0.095,-0.069,0.058,0.342,0.154,0.192,-0.052,0.226,0.108
0.189,0.240,0.168,-0.059,-0.099,-0.000,0.084,0.313,0.041,-0.252,0.116,0.092,-0.089,-0.146,-0.305,0.161,0.103,0.009,0.314,0.106,-0.194,-0.140,0.203,-0.099,0.038,0.218,0.278,0.059,0.027,-0.020,-0.074,0.104,-0.175,0.313,0.024,-0.090,-0.072,-0.043,0.254,0.053,0.137,-0.112,0.176,-0.097,-0.108,0.080,-0.118,0.315,-0.062,0.050,-0.123,-0.161,-0.073,-0.288,-0.009,0.206,0.133,0.114,-0.111,-0.032,0.006,0.226,-0.039,-0.158,-0.169,0.034,-0.126,0.037,0.042,0.134,0.108,0.210,-0.234,0.059,-0.205,0.191,0.032,0.000,0.167,0.236,-0.045,-0.069,-0.151,-0.055
-0.143,-0.091,-0.175,-0.328,0.018,-0.057,-0.145,-0.224,0.012,-0.146,0.179,-0.064,-0.243,-0.068,-0.191,0.044,0.099,-0.178,0.109,0.248,-0.169,0.044,-0.107,-0.021,0.055,-0.164,-0.098,-0.100,-0.055,-0.045,-0.052,0.032,-0.159,-0.210,-0.070,-0.023,0.007,-0.191,-0.267,-0.111,-0.168,0.002,-0.253,-0.275,-0.272,-0.250,-0.124,-0.157,-0.270,-0.226,-0.062,0.330,0.143,-0.542,-0.225,-0.094,-0.204,0.173,0.173,-0.004,-0.152,0.027,-0.039,-0.149,-0.099,-0.178,0.086,0.052,-0.145,0.015,-0.315,-0.007,-0.026,-0.154,0.343,-0.075,0.283,-0.147,-0.438,-0.251,-0.317,-0.156,-0.088,-0.101
-0.305,-0.011,-0.292,-0.216,-0.214,-0.018,0.139,-0.104,-0.231,0.274,0.073,-0.115,-0.245,-0.110,0.172,-0.125,-0.026,-0.072,0.046,-0.032,0.319,-0.142,-0.130,-0.020,0.061,-0.122,-0.007,0.095,0.045,-0.061,-0.190,0.084,-0.126,-0.002,-0.074,-0.251,-0.014,-0.150,-0.081,-0.018,-0.169,-0.217,-0.093,-0.018,-0.169,-0.118,-0.206,-0.090,-0.054,-0.095,-0.165,0.175,0.140,-0.257,-0.115,0.082,-0.244,-0.186,-0.020,0.234,-0.121,-0.123,-0.073,-0.054,-0.064,-0.042,-0.045,-0.209,-0.169,-0.370,-0.050,-0.135,-0.113,-0.069,0.129,-0.211,0.171,-0.008,-0.060,-0.064,-0.270,-0.122,-0.145,0.141
0.177,-0.117,0.077,-0.070,0.281,0.224,0.094,0.077,0.126,0.179,0.089,0.227,-0.118,-0.022,-0.252,-0.072,0.055,-0.032,0.185,0.129,-0.260,0.078,-0.214,0.125,0.076,0.201,-0.091,0.087,0.064,0.093,0.224,-0.129,0.205,0.106,-0.034,0.041,0.272,0.113,-0.074,0.180,0.105,-0.107,-0.076,0.059,0.052,0.044,0.101,0.269,0.121,-0.050,0.060,-0.057,-0.053,0.134,0.012,0.133,-0.030,-0.357,-0.048,0.194,0.080,-0.271,-0.062,0.276,0.209,-0.167,0.312,0.126,0.241,0.333,-0.153,-0.160,0.283,-0.110,0.392,0.155,0.004,-0.189,0.132,-0.147,-0.014,0.082,-0.090,-0.173
0.156,0.142,0.112,0.026,0.028,0.258,0.014,0.164,0.018,-0.058,0.116,0.004,0.203,0.207,0.058,-0.109,-0.188,0.005,0.259,-0.186,0.083,-0.030,-0.066,-0.033,0.226,-0.139,0.019,-0.015,-0.049,0.157,-0.010,0.016,0.090,0.089,0.013,0.003,-0.139,-0.123,-0.083,0.064,-0.065,0.028,0.008,-0.110,0.257,0.020,-0.134,0.299,-0.056,0.298,-0.152,-0.166,0.131,-0.176,0.201,0.238,-0.161,-0.046,0.109,-0.189,0.121,-0.074,0.039,0.022,0.055,-0.068,-0.072,0.146,-0.001,0.179,0.258,-0.121,0.359,-0.086,0.079,0.030,-0.085,-0.158,0.265,-0.292,0.143,0.036,0.048,-0.157
0.292,0.011,0.221,0.355,0.222,0.181,0.116,0.361,0.188,0.145,-0.042,0.328,-0.061,0.167,0.158,-0.136,-0.131,-0.204,-0.058,-0.139,-0.009,0.093,0.001,0.113,0.091,0.129,0.088,0.012,0.176,0.011,0.040,0.097,0.142,-0.061,0.129,0.183,0.096,0.042,0.020,0.021,-0.000,0.154,-0.159,0.340,0.000,0.131,0.011,-0.139,0.278,0.222,0.423,-0.201,0.066,0.180,0.112,0.285,0.199,0.098,0.255,-0.041,0.183,0.045,-0.129,0.058,0.318,-0.001,0.000,0.038,0.016,0.074,0.149,0.358,0.215,0.013,0.060,0.215,0.250,-0.123,-0.376,-0.371,-0.162,-0.058,0.060,0.333
-0.294,-0.128,-0.249,-0.193,0.002,0.058,-0.168,-0.148,-0.095,-0.241,0.088,-0.144,-0.213,-0.018,-0.092,0.102,-0.149,0.020,0.280,0.231,0.144,-0.093,0.010,0.011,0.133,-0.208,-0.121,0.077,-0.162,-0.120,0.007,-0.022,-0.121,-0.026,-0.060,-0.147,-0.179,0.037,-0.164,-0.077,-0.143,-0.090,0.007,-0.175,-0.113,-0.067,-0.151,-0.163,-0.091,-0.307,-0.019,0.140,-0.075,-0.038,-0.161,0.103,-0.070,0.150,0.231,0.106,-0.121,-0.234,-0.131,-0.080,-0.270,-0.213,-0.231,-0.110,0.204,-0.010,-0.246,-0.131,-0.237,0.146,-0.066,-0.114,0.087,-0.255,-0.347,-0.261,-0.008,0.070,-0.149,-0.181
-0.337,-0.008,-0.255,-0.271,-0.321,-0.229,-0.061,-0.075,-0.304,0.098,0.089,-0.250,-0.158,-0.131,0.126,0.153,-0.155,0.174,0.015,0.021,0.008,0.098,0.044,-0.012,-0.120,-0.051,-0.036,-0.070,0.077,-0.063,-0.023,0.139,-0.138,-0.112,-0.028,0.166,-0.055,-0.108,-0.153,-0.047,-0.040,-0.046,-0.241,-0.179,-0.251,-0.272,-0.157,0.014,-0.185,-0.127,-0.006,-0.161,-0.161,0.086,-0.227,0.288,-0.038,-0.084,-0.061,0.019,-0.072,-0.445,-0.325,-0.232,-0.210,-0.180,-0.266,-0.220,0.080,0.072,-0.219,-0.105,0.201,-0.150,-0.213,-0.245,0.000,-0.306,-0.105,-0.153,0.065,-0.140,-0.065,0.254
0.172,0.124,0.260,-0.040,0.129,0.216,0.145,-0.017,0.044,0.142,0.014,0.228,-0.019,-0.033,-0.070,-0.010,0.229,0.222,0.044,-0.231,-0.043,-0.041,0.148,0.035,0.147,0.097,-0.032,0.206,-0.105,-0.038,0.141,0.158,0.189,0.368,-0.050,-0.100,0.084,0.174,0.082,-0.090,0.115,-0.132,-0.082,-0.079,0.262,0.185,0.301,0.362,-0.105,0.079,0.189,0.095,0.023,0.008,0.291,0.144,-0.069,-0.093,0.207,-0.220,0.175,-0.043,0.042,-0.048,0.106,-0.055,-0.022,0.208,0.212,0.284,-0.033,-0.007,-0.048,0.175,0.244,0.362,-0.250,-0.178,0.101,0.084,0.237,-0.114,0.211,0.085
0.029,-0.154,0.064,0.085,0.160,0.256,-0.129,-0.010,0.200,0.255,0.042,-0.082,-0.123,0.130,-0.217,0.094,0.260,0.077,0.109,0.018,-0.160,-0.088,0.131,0.074,-0.196,0.057,-0.082,0.206,-0.079,0.140,0.024,-0.085,0.241,-0.173,0.039,0.033,0.195,0.043,0.129,-0.005,0.093,-0.045,-0.116,0.021,0.132,0.124,-0.168,0.123,0.090,-0.071,0.107,0.010,-0.164,-0.211,0.148,0.011,0.068,-0.062,-0.008,-0.071,-0.123,0.257,-0.134,0.009,-0.145,-0.130,-0.156,-0.126,0.325,-0.138,-0.145,-0.095,0.174,-0.135,-0.254,-0.095,-0.115,-0.153,0.272,0.030,0.256,-0.105,-0.068,-0.059
0.283,-0.122,0.320,0.331,0.062,0.231,0.267,0.078,0.151,-0.047,0.039,0.071,0.217,0.093,-0.148,0.122,0.034,-0.047,-0.004,0.021,-0.199,0.125,0.130,0.150,0.153,0.082,0.055,0.051,0.157,0.082,-0.022,-0.024,0.019,0.387,0.078,0.145,0.143,0.039,0.181,0.038,-0.125,0.163,0.002,0.301,0.229,-0.039,-0.169,0.043,-0.145,-0.032,-0.056,-0.264,-0.122,0.113,-0.162,0.409,0.297,0.025,-0.037,-0.131,-0.136,0.262,0.102,-0.037,0.218,0.232,-0.069,0.182,0.061,0.122,0.267,0.274,-0.104,-0.069,0.133,0.046,0.061,0.312,-0.305,-0.177,0.084,0.164,0.166,0.242
-0.101,-0.225,0.081,-0.220,-0.265,-0.104,-0.159,-0.018,0.104,-0.341,0.175,-0.368,-0.382,-0.230,-0.045,0.097,0.025,0.054,-0.118,-0.097,0.124,-0.008,0.213,-0.206,-0.197,-0.083,0.139,-0.054,0.078,-0.004,0.162,-0.023,-0.077,-0.075,0.130,0.085,-0.120,-0.200,-0.087,-0.037,0.151,0.091,-0.089,-0.271,-0.104,-0.138,-0.204,-0.248,-0.202,-0.216,-0.152,0.182,-0.098,0.115,-0.133,-0.187,-0.187,0.152,-0.024,-0.045,-0.153,0.133,-0.222,-0.372,-0.318,-0.344,-0.218,-0.340,-0.163,0.023,-0.188,-0.103,0.144,0.114,-0.108,-0.113,0.114,-0.176,0.002,-0.173,0.056,-0.107,-0.246,0.045
-0.258,-0.158,0.106,-0.088,0.045,-0.115,-0.361,-0.131,0.038,-0.291,0.057,-0.244,-0.185,0.043,-0.323,-0.039,0.054,0.084,0.115,0.096,-0.034,0.118,-0.105,0.034,-0.303,-0.039,0.237,-0.062,-0.130,0.043,0.101,0.152,-0.286,-0.239,0.054,0.131,0.066,0.046,-0.180,0.036,-0.120,0.041,-0.032,-0.154,-0.150,-0.132,-0.064,-0.179,-0.190,-0.173,-0.249,0.082,-0.003,-0.053,-0.227,-0.122,-0.219,0.115,0.089,-0.087,-0.086,-0.084,-0.365,-0.218,-0.259,-0.073,-0.085,-0.046,-0.087,0.134,-0.299,-0.204,0.120,-0.072,-0.002,0.028,0.022,-0.227,-0.216,0.118,-0.144,-0.302,-0.043,-0.132
-0.093,-0.197,-0.168,0.149,-0.114,0.016,0.028,-0.142,0.201,0.215,0.082,-0.070,0.007,0.173,0.109,0.029,-0.198,0.117,-0.122,-0.139,0.153,0.027,-0.156,0.043,-0.123,-0.146,-0.019,-0.162,0.001,0.198,0.219,-0.145,-0.127,-0.113,-0.069,0.231,-0.063,0.212,0.081,0.156,-0.033,-0.086,0.098,0.060,-0.083,0.184,0.144,-0.059,0.085,0.007,0.039,0.214,0.032,-0.007,0.064,-0.069,-0.124,-0.155,-0.069,-0.158,0.133,-0.065,-0.125,0.030,-0.118,0.148,0.233,0.019,0.078,0.100,-0.103,-0.184,0.063,-0.100,-0.079,-0.107,-0.041,-0.035,-0.095,-0.131,-0.027,0.146,0.053,0.075
0.201,-0.213,0.201,0.232,0.086,0.158,0.220,0.252,0.228,0.089,0.074,-0.051,-0.047,0.007,0.206,0.006,0.032,-0.022,0.053,-0.129,0.232,0.113,0.042,-0.030,-0.165,0.165,0.069,0.274,0.009,-0.059,0.198,0.175,-0.117,0.448,0.144,0.152,0.197,0.250,0.179,0.118,0.216,0.136,0.334,0.113,0.052,0.316,-0.042,0.311,-0.123,0.370,0.245,-0.055,0.135,-0.419,-0.084,0.040,0.301,0.244,0.235,0.116,-0.064,-0.126,-0.017,0.063,0.214,0.034,0.357,0.069,-0.092,-0.144,0.154,0.191,0.010,0.175,-0.034,-0.145,-0.194,0.232,0.160,0.219,0.413,0.093,0.335,0.147
-0.125,-0.258,-0.041,0.008,-0.127,-0.155,-0.302,-0.060,-0.136,0.048,-0.086,0.010,-0.268,0.146,-0.147,-0.174,-0.166,-0.161,0.303,0.149,-0.246,0.038,0.011,-0.151,-0.255,-0.102,-0.007,-0.322,0.002,-0.028,-0.021,-0.116,-0.128,-0.355,-0.002,0.173,0.029,-0.032,0.044,-0.061,0.013,0.001,-0.038,0.011,-0.149,-0.115,-0.061,-0.206,-0.052,-0.240,-0.133,-0.101,-0.022,0.222,-0.020,-0.192,-0.183,0.295,0.090,0.180,-0.125,0.040,-0.309,-0.232,-0.200,-0.288,-0.095,-0.288,-0.366,0.260,-0.353,-0.283,-0.215,-0.067,-0.166,-0.217,-0.280,0.055,0.018,0.128,0.047,-0.187,-0.187,0.006
-0.066,0.091,-0.045,0.026,0.161,0.029,0.136,0.214,-0.078,-0.118,-0.008,-0.106,0.378,-0.083,0.266,0.034,-0.026,0.269,-0.087,0.222,0.171,0.074,-0.015,0.258,0.279,0.096,-0.028,0.014,0.160,0.213,-0.175,-0.006,0.196,0.349,0.028,0.056,0.097,0.009,0.048,-0.076,0.111,0.129,0.240,0.200,0.139,0.084,-0.090,0.184,0.211,0.256,0.252,0.061,0.056,-0.037,0.319,-0.130,0.147,-0.112,0.160,0.360,0.258,0.277,0.077,-0.041,0.005,0.234,0.000,0.045,-0.025,-0.154,0.122,0.150,0.130,-0.011,-0.099,0.202,-0.053,0.056,0.237,0.025,0.145,0.268,0.264,-0.177
-0.182,-0.108,-0.183,-0.165,-0.376,0.060,-0.056,-0.033,-0.186,-0.092,-0.113,-0.077,-0.084,0.075,0.082,0.022,0.103,-0.306,-0.304,-0.269,0.084,0.043,-0.012,-0.056,-0.117,-0.039,-0.007,-0.073,0.045,-0.021,0.005,-0.056,-0.042,-0.133,0.055,0.004,-0.087,-0.028,-0.122,-0.064,-0.339,-0.291,-0.210,-0.103,0.000,-0.032,0.006,0.062,-0.158,0.023,-0.068,0.153,-0.014,-0.357,-0.096,0.172,-0.021,-0.303,-0.010,0.098,-0.020,0.131,-0.256,0.084,-0.084,-0.112,-0.061,-0.056,0.188,-0.238,-0.194,0.025,-0.008,0.167,0.207,-0.096,0.172,-0.224,0.041,-0.096,-0.226,-0.022,-0.045,-0.245
-0.304,0.041,-0.399,-0.106,-0.320,-0.050,-0.430,-0.301,-0.069,0.285,-0.033,0.075,-0.229,0.092,0.050,-0.279,-0.116,0.192,0.169,0.132,0.103,-0.125,-0.048,-0.111,-0.094,-0.182,-0.022,-0.114,0.026,-0.055,-0.026,-0.064,-0.193,-0.332,-0.053,0.111,-0.111,-0.110,0.019,0.034,0.050,-0.084,0.044,-0.017,-0.147,-0.079,-0.047,-0.250,-0.076,-0.216,-0.118,-0.409,-0.142,0.024,-0.208,0.179,0.027,0.048,0.280,0.263,-0.081,-0.293,0.038,-0.215,-0.031,-0.264,-0.070,-0.213,0.164,0.198,0.058,-0.066,-0.061,-0.107,-0.080,-0.241,-0.111,-0.351,-0.228,-0.081,0.028,0.051,-0.209,-0.246
0.108,0.089,0.196,0.271,0.372,0.171,0.227,0.380,0.228,-0.125,-0.023,-0.141,0.341,-0.005,-0.010,0.108,0.070,-0.006,0.028,-0.090,-0.255,0.276,-0.006,0.152,0.288,0.036,-0.022,0.163,0.347,0.036,-0.191,0.002,-0.075,0.009,0.083,0.289,0.246,0.108,0.080,0.056,0.074,0.237,0.340,0.150,0.357,-0.090,0.103,-0.154,0.344,0.042,0.019,-0.369,-0.119,0.088,0.153,0.325,0.188,-0.150,-0.201,0.143,-0.061,0.125,0.023,0.128,0.057,0.191,0.313,-0.151,0.202,0.014,0.103,0.301,0.258,0.038,0.238,0.100,0.293,0.291,-0.232,-0.121,0.097,0.234,0.069,0.027
0.352,0.136,-0.062,-0.103,-0.060,-0.054,-0.066,-0.113,-0.093,-0.073,-0.069,-0.193,0.245,-0.138,0.132,0.142,0.212,0.245,0.179,0.191,-0.019,0.064,0.086,0.167,0.084,-0.017,0.132,0.177,0.017,0.156,0.066,0.076,0.264,-0.091,0.011,0.065,0.051,0.214,0.140,-0.017,-0.012,-0.052,-0.107,0.029,0.420,-0.019,0.345,-0.087,-0.174,-0.151,0.381,0.160,0.178,-0.211,-0.091,-0.147,0.039,-0.070,-0.077,0.268,0.169,0.210,0.336,0.472,0.250,-0.104,0.079,0.474,0.082,0.038,-0.019,0.366,-0.077,0.022,-0.173,0.160,-0.005,-0.158,0.226,0.432,0.163,0.297,-0.097,-0.397
0.146,0.016,0.147,-0.187,-0.177,0.017,-0.019,0.016,0.009,-0.112,-0.064,-0.254,-0.197,-0.236,0.075,0.045,0.156,0.141,-0.296,-0.037,-0.046,-0.057,-0.154,-0.007,-0.194,-0.069,-0.003,-0.041,-0.109,-0.164,-0.163,0.010,-0.162,-0.317,-0.145,-0.057,-0.155,-0.050,0.037,0.042,0.023,-0.010,-0.239,-0.054,-0.119,-0.105,-0.126,0.271,0.022,-0.156,-0.126,0.120,0.011,0.290,-0.098,-0.209,-0.201,-0.110,-0.376,-0.386,-0.114,-0.247,-0.138,-0.242,-0.145,-0.374,-0.216,-0.216,-0.063,-0.207,-0.061,-0.026,0.222,-0.051,-0.446,-0.313,-0.006,-0.094,-0.141,0.018,0.104,-0.010,-0.286,-0.034
-0.143,-0.109,-0.338,0.061,0.002,0.104,0.144,-0.162,-0.103,0.047,-0.011,-0.182,-0.107,-0.155,0.173,0.110,-0.154,0.202,0.104,-0.242,0.047,-0.128,0.039,-0.133,0.049,-0.306,-0.037,0.009,-0.001,-0.054,-0.111,0.038,-0.176,-0.118,-0.193,-0.079,0.008,-0.197,0.251,-0.123,0.087,-0.157,-0.113,-0.214,-0.100,-0.048,-0.058,-0.016,-0.029,-0.153,-0.089,0.040,0.110,0.208,-0.104,0.131,-0.095,-0.226,0.196,-0.217,-0.142,-0.319,-0.084,-0.037,-0.002,-0.172,-0.029,0.033,0.089,-0.269,0.061,-0.055,0.100,0.054,-0.212,-0.250,0.047,0.013,0.089,0.088,-0.122,0.105,-0.197,-0.116
0.202,0.084,0.235,0.283,-0.066,0.223,0.215,0.234,0.130,0.060,-0.092,-0.065,0.392,0.207,-0.286,0.019,0.009,-0.029,0.171,-0.184,-0.009,0.171,0.012,0.197,0.033,0.210,0.159,0.010,0.193,0.022,-0.029,-0.033,0.259,-0.002,0.223,0.298,0.081,-0.037,-0.048,0.135,-0.019,0.109,0.194,0.349,-0.115,0.149,0.410,-0.026,0.116,0.073,0.236,-0.431,0.108,0.103,0.117,0.179,0.338,0.299,-0.108,-0.049,0.189,-0.150,0.222,0.100,-0.032,0.196,0.353,0.000,0.235,0.039,-0.081,-0.037,-0.085,-0.053,0.157,-0.179,0.367,0.114,-0.128,-0.338,0.183,-0.051,0.281,0.058
0.198,0.137,0.148,0.386,0.147,0.068,-0.019,0.367,-0.112,0.230,0.110,0.149,0.081,0.219,0.122,-0.059,-0.085,-0.006,0.146,-0.142,0.145,0.100,0.063,0.166,-0.124,0.223,0.264,0.177,0.199,0.238,0.193,0.140,0.069,0.149,-0.132,0.181,-0.099,0.265,0.038,0.144,0.063,0.216,0.210,0.101,-0.120,0.309,-0.126,0.115,0.295,0.088,0.329,0.089,0.163,0.001,0.381,0.099,-0.144,0.055,0.107,-0.205,-0.141,0.032,-0.197,0.334,-0.045,0.243,0.339,0.369,0.159,0.048,0.155,0.181,-0.070,-0.080,0.115,-0.011,-0.120,0.071,-0.181,-0.278,-0.226,0.240,-0.026,0.078
-0.055,0.244,-0.028,-0.090,0.072,0.138,0.077,-0.127,0.073,-0.136,-0.133,-0.103,0.428,-0.104,0.028,0.328,-0.008,0.240,0.369,0.287,-0.038,0.180,0.119,0.090,0.225,0.126,0.096,0.180,0.187,0.149,0.051,-0.117,0.236,0.298,0.142,0.112,0.103,0.013,-0.134,-0.009,-0.076,0.130,-0.139,-0.045,-0.081,0.420,0.136,0.241,-0.023,0.264,0.419,0.061,0.073,-0.051,0.212,0.126,0.334,-0.168,-0.122,-0.099,0.230,0.155,0.102,0.302,0.228,0.417,0.387,-0.024,-0.178,-0.119,0.403,0.386,-0.013,0.048,-0.057,0.018,-0.209,0.156,0.168,0.167,0.224,0.353,0.408,-0.058
-0.214,0.021,-0.165,-0.355,-0.329,-0.076,-0.040,-0.156,-0.347,0.007,-0.062,-0.015,-0.325,-0.428,0.009,-0.186,0.014,0.018,0.069,0.051,0.160,0.064,-0.168,0.027,-0.082,-0.028,-0.016,-0.107,0.127,0.065,-0.071,0.102,-0.249,-0.058,0.132,0.136,-0.203,-0.047,0.123,-0.120,0.046,0.065,-0.093,-0.065,-0.177,-0.095,-0.185,0.093,-0.166,-0.236,-0.120,0.171,-0.097,0.115,-0.176,0.320,-0.079,-0.211,0.010,0.236,-0.105,-0.203,-0.137,-0.325,-0.155,-0.123,-0.252,-0.196,0.089,0.106,0.007,-0.212,0.158,0.141,-0.188,-0.237,0.020,-0.130,0.048,0.151,-0.334,-0.298,-0.066,0.235
0.134,0.259,0.134,0.336,-0.124,0.137,0.057,0.203,0.146,0.224,0.083,0.135,0.298,0.110,0.171,-0.321,-0.114,0.168,-0.077,0.104,0.104,0.016,-0.099,0.042,-0.059,0.242,0.066,0.019,0.020,0.008,0.128,-0.037,0.317,0.273,0.065,-0.176,-0.049,-0.007,0.156,-0.063,-0.208,0.092,-0.003,0.249,-0.151,-0.136,-0.088,0.010,0.253,0.294,0.089,0.236,-0.168,0.152,-0.040,-0.193,0.042,-0.157,0.369,-0.245,0.007,-0.142,-0.064,0.096,-0.080,0.151,-0.096,0.082,-0.015,0.248,-0.016,-0.005,-0.029,-0.166,0.222,0.497,-0.092,-0.013,-0.078,-0.015,-0.177,-0.098,0.063,-0.015
-0.062,-0.217,-0.075,-0.073,-0.049,-0.002,0.031,-0.013,0.128,-0.433,-0.065,-0.117,-0.092,-0.259,0.143,-0.041,-0.050,-0.095,-0.300,0.073,0.235,-0.090,-0.123,0.031,-0.111,0.031,-0.141,-0.116,-0.135,0.072,0.086,0.017,0.036,0.035,-0.016,-0.222,0.012,0.138,0.073,-0.131,-0.203,-0.273,-0.031,0.019,-0.198,-0.162,-0.069,0.059,-0.055,0.064,-0.020,0.196,-0.090,0.111,-0.162,-0.005,-0.015,0.063,-0.329,-0.208,-0.206,-0.036,0.028,-0.136,-0.188,-0.013,-0.062,-0.153,-0.053,0.076,0.055,-0.110,0.110,0.139,0.049,-0.223,0.047,0.165,0.069,0.106,0.054,-0.022,-0.145,-0.031
-0.126,-0.371,-0.006,-0.041,0.179,0.069,-0.197,-0.193,-0.099,-0.072,-0.083,-0.023,-0.036,-0.014,0.079,-0.016,-0.123,-0.047,0.031,-0.156,-0.058,-0.171,-0.198,-0.084,0.023,-0.052,-0.000,-0.023,0.050,-0.136,0.091,0.019,-0.186,-0.282,-0.080,-0.195,-0.044,-0.067,-0.062,0.086,0.127,-0.130,-0.240,-0.142,0.032,0.064,0.004,-0.261,-0.026,-0.166,0.023,-0.084,-0.146,0.075,-0.093,0.020,-0.155,0.205,0.031,-0.113,-0.200,0.252,0.025,-0.176,-0.060,-0.122,-0.047,-0.216,-0.193,-0.083,-0.153,-0.052,-0.083,0.166,0.139,-0.003,-0.269,0.054,0.107,0.125,0.065,-0.238,-0.033,-0.200
-0.213,-0.141,-0.263,-0.243,-0.013,-0.172,-0.151,-0.348,-0.045,0.053,-0.065,-0.276,-0.200,-0.102,0.228,0.085,0.081,-0.028,0.173,0.106,0.017,0.012,0.054,0.041,0.169,0.026,0.152,-0.192,0.159,-0.073,-0.195,0.123,-0.217,-0.402,-0.131,0.109,-0.113,-0.081,-0.440,-0.290,-0.381,0.096,-0.072,-0.182,-0.158,-0.231,-0.337,0.049,-0.267,-0.113,-0.248,-0.021,-0.149,-0.226,-0.233,0.069,-0.193,0.253,0.046,0.161,-0.248,-0.112,-0.470,-0.108,-0.161,-0.197,-0.107,-0.115,-0.157,0.145,-0.211,-0.161,-0.032,0.156,0.127,-0.076,0.220,-0.054,-0.224,-0.131,-0.305,-0.264,-0.177,-0.232
0.196,-0.026,0.218,0.297,-0.090,0.255,0.262,-0.050,-0.024,-0.148,-0.013,0.026,0.005,-0.144,0.042,0.024,0.097,-0.106,-0.049,0.073,0.018,-0.102,-0.036,0.271,-0.183,0.328,-0.093,0.135,0.149,0.160,-0.205,0.142,0.106,-0.002,-0.042,0.249,0.072,0.196,-0.003,-0.001,-0.017,-0.027,0.112,0.110,0.202,0.008,0.177,0.095,-0.058,0.072,0.323,-0.349,0.021,-0.008,0.117,-0.061,0.229,0.112,0.222,0.044,0.256,0.222,0.244,0.164,-0.021,-0.154,-0.017,-0.132,0.216,0.006,0.127,-0.102,0.067,-0.172,0.043,0.134,0.236,0.249,0.194,-0.023,0.277,-0.033,0.004,-0.088
0.037,0.145,0.173,0.163,0.199,0.047,0.244,-0.150,0.093,-0.099,-0.011,-0.060,0.345,-0.083,0.216,0.096,0.097,0.279,-0.344,0.074,0.262,0.061,0.200,0.193,0.129,-0.034,-0.003,0.111,0.131,-0.023,0.167,0.160,-0.015,0.157,0.148,-0.063,-0.132,-0.021,0.337,0.219,0.250,0.052,0.468,-0.057,-0.118,0.120,0.087,-0.011,-0.082,0.056,-0.010,0.178,-0.070,-0.342,0.232,0.021,-0.143,-0.140,0.355,0.052,-0.103,-0.055,-0.221,0.247,0.311,0.285,-0.128,-0.144,-0.329,0.098,-0.023,0.276,0.250,0.063,-0.030,0.349,-0.210,-0.061,-0.022,0.168,0.242,0.025,0.065,0.131
0.103,0.024,0.248,-0.013,0.266,0.241,0.265,0.091,0.295,0.125,-0.165,0.207,0.403,0.002,0.199,-0.308,0.072,-0.131,0.067,-0.121,0.234,0.143,0.019,0.095,-0.032,-0.048,-0.026,0.195,0.112,0.111,0.099,0.056,0.083,0.023,0.121,0.136,0.016,0.377,0.272,0.160,0.310,0.126,-0.001,0.317,0.289,0.279,0.280,-0.059,0.193,-0.003,-0.120,0.137,-0.168,-0.339,-0.049,-0.103,0.232,0.087,0.184,0.076,-0.048,0.107,0.015,-0.097,0.169,-0.071,-0.072,-0.157,0.299,0.295,0.265,-0.065,0.088,-0.067,-0.204,0.220,0.006,-0.093,0.031,0.055,0.314,0.182,0.257,0.096
-0.086,0.070,-0.127,0.161,0.121,0.272,-0.125,0.170,0.184,0.192,-0.070,0.305,0.168,0.282,-0.247,-0.144,0.194,0.020,0.132,0.267,0.062,0.025,-0.023,-0.070,0.217,0.258,0.066,0.174,0.029,-0.027,0.175,-0.149,0.323,-0.041,0.093,-0.026,0.396,0.116,-0.001,0.001,-0.169,0.025,0.136,0.366,0.087,0.020,0.422,0.019,-0.107,0.282,0.002,0.121,-0.098,0.135,0.136,0.076,-0.036,-0.338,-0.163,-0.377,-0.017,-0.069,0.107,0.319,0.306,0.013,0.330,0.235,0.213,0.260,0.002,-0.035,0.047,-0.116,0.109,0.512,0.152,0.131,0.132,-0.157,-0.143,-0.165,0.181,0.148
-0.182,-0.137,-0.074,-0.008,-0.065,-0.089,-0.032,-0.248,-0.139,-0.199,-0.076,-0.185,-0.171,0.004,0.160,0.081,-0.091,0.039,-0.055,-0.109,0.201,0.102,0.013,0.082,0.022,-0.162,0.156,-0.030,-0.004,-0.048,0.148,-0.126,-0.080,-0.125,-0.015,0.145,-0.069,-0.144,-0.338,-0.250,-0.272,-0.225,-0.030,0.023,-0.097,0.027,-0.037,0.046,-0.002,-0.114,0.004,0.098,-0.175,-0.073,-0.165,-0.034,-0.223,-0.057,-0.166,0.215,-0.025,0.090,-0.029,-0.218,-0.145,-0.039,-0.054,-0.040,-0.099,0.033,-0.182,-0.260,-0.092,0.162,0.156,0.005,0.180,-0.171,-0.138,0.002,0.049,-0.195,-0.179,0.182
-0.049,-0.190,-0.087,-0.071,0.029,-0.101,-0.052,-0.148,-0.048,-0.146,0.032,-0.130,-0.168,-0.308,0.113,-0.156,0.101,0.244,-0.108,0.109,-0.052,-0.055,-0.048,0.019,0.078,-0.098,-0.216,-0.215,-0.210,-0.174,-0.015,0.014,-0.059,-0.277,0.100,-0.090,0.039,0.062,0.149,-0.046,0.015,-0.066,-0.051,-0.154,0.070,-0.043,-0.131,0.075,0.100,0.091,-0.028,0.130,0.061,0.141,-0.160,0.033,0.088,0.001,-0.105,-0.169,0.002,-0.258,-0.035,-0.144,-0.229,-0.036,-0.100,-0.184,-0.048,-0.059,0.062,-0.157,0.167,0.162,-0.228,-0.220,-0.176,0.107,0.078,-0.007,-0.109,0.031,-0.250,0.070
0.189,0.019,0.181,0.274,-0.008,0.078,0.124,0.323,0.128,0.231,0.141,0.051,0.365,-0.010,0.105,0.014,0.113,0.111,0.027,0.049,0.065,-0.020,0.160,0.198,-0.144,0.245,0.109,0.134,0.040,0.116,0.231,0.179,-0.046,0.122,0.121,-0.028,-0.045,0.132,0.097,-0.002,-0.112,0.129,0.063,0.156,-0.094,0.247,0.155,-0.109,0.183,0.132,0.060,0.078,0.149,-0.241,0.003,0.032,-0.116,0.211,0.266,0.160,0.167,0.071,0.168,0.076,0.297,0.244,0.215,0.005,0.243,0.098,0.222,0.341,0.155,0.049,-0.204,-0.128,0.106,0.256,0.084,0.145,0.186,0.046,-0.036,0.130
0.182,-0.044,0.130,0.064,0.181,0.129,0.131,0.278,0.111,-0.171,-0.126,0.183,0.084,0.043,0.083,-0.133,-0.207,-0.004,-0.287,0.141,0.064,0.009,-0.047,0.123,0.259,-0.164,-0.131,-0.106,0.271,0.247,-0.128,0.004,-0.096,0.129,0.099,0.164,0.160,-0.015,0.301,0.041,0.221,0.015,0.068,0.032,-0.144,0.192,0.202,-0.193,0.037,0.151,-0.096,-0.219,-0.084,-0.012,0.284,-0.176,0.008,0.092,0.134,0.145,0.157,0.217,-0.014,0.344,0.138,-0.079,-0.146,0.275,0.253,0.077,-0.179,-0.170,0.175,0.123,-0.083,0.188,0.310,-0.005,-0.101,-0.047,-0.034,0.050,0.126,0.093
0.101,-0.098,0.173,-0.235,0.254,-0.222,-0.094,-0.273,0.152,0.157,0.008,-0.066,-0.093,-0.035,-0.075,0.359,-0.098,-0.141,0.028,-0.143,-0.218,-0.009,-0.039,0.029,-0.083,-0.160,0.033,-0.217,-0.177,0.002,-0.139,0.157,-0.187,-0.287,0.062,0.022,-0.050,-0.012,-0.023,0.084,-0.127,0.012,-0.194,-0.055,-0.102,-0.210,-0.204,-0.368,-0.076,-0.171,-0.219,-0.062,-0.157,-0.251,-0.107,-0.351,-0.024,0.293,0.120,0.173,-0.077,0.130,-0.016,-0.109,-0.038,-0.076,-0.159,-0.114,-0.241,-0.057,-0.267,-0.143,0.257,-0.018,0.166,-0.082,-0.252,0.135,0.095,-0.373,-0.277,-0.102,-0.072,0.252
0.102,-0.236,-0.086,-0.268,0.026,-0.080,0.128,-0.020,-0.188,0.167,-0.040,-0.276,-0.070,0.218,0.072,-0.122,-0.149,-0.103,0.023,-0.301,0.031,0.027,0.028,-0.097,-0.056,-0.030,0.172,-0.240,0.050,-0.064,-0.052,-0.018,0.121,-0.019,0.103,-0.034,-0.288,-0.273,0.012,0.077,0.336,-0.135,-0.216,-0.042,-0.065,-0.223,-0.191,-0.345,-0.206,-0.192,-0.172,0.078,-0.029,-0.017,-0.058,0.049,-0.054,-0.130,0.034,-0.153,-0.104,-0.018,0.108,-0.171,-0.055,-0.173,-0.180,-0.274,-0.470,-0.445,-0.152,-0.006,0.094,0.082,0.014,-0.279,-0.091,0.147,0.088,-0.113,0.197,-0.076,0.015,-0.138
0.076,0.317,0.009,0.173,-0.108,0.222,0.116,0.044,-0.156,0.009,-0.076,0.194,-0.137,-0.091,0.085,0.136,0.151,0.263,-0.029,-0.180,0.245,0.168,0.080,0.088,0.089,-0.086,0.039,0.088,0.094,-0.056,0.049,-0.147,0.067,0.001,-0.074,0.177,0.244,-0.047,0.032,0.153,0.132,0.121,-0.037,0.151,0.040,0.109,0.236,-0.270,0.174,-0.245,0.227,0.020,-0.011,-0.162,0.059,-0.089,0.077,0.173,-0.038,0.218,0.170,0.023,0.160,0.107,0.249,-0.123,0.072,-0.109,-0.099,-0.128,-0.092,-0.153,-0.238,-0.035,-0.294,-0.121,0.243,0.120,0.117,0.223,0.123,-0.030,0.146,0.157
-0.015,-0.090,-0.306,-0.310,-0.323,-0.110,-0.083,-0.058,-0.218,-0.262,0.021,-0.241,-0.318,-0.146,-0.154,0.165,0.010,-0.039,0.006,0.160,-0.106,0.057,0.186,-0.043,-0.248,-0.224,0.032,-0.238,0.031,0.048,-0.086,0.009,-0.252,-0.139,-0.032,0.028,0.017,-0.225,0.007,0.056,-0.024,0.024,-0.312,-0.273,-0.218,-0.238,-0.253,-0.058,-0.124,-0.013,-0.187,0.188,-0.016,0.094,-0.143,-0.187,-0.072,0.047,0.288,0.045,-0.107,-0.314,-0.288,-0.242,-0.291,-0.300,-0.194,-0.188,0.011,0.098,-0.035,-0.348,-0.009,0.126,-0.026,-0.261,-0.039,0.054,-0.108,-0.161,0.109,-0.057,-0.154,0.013
0.039,-0.143,0.010,-0.157,-0.097,-0.174,-0.070,-0.124,0.128,0.121,0.031,-0.085,-0.190,-0.136,-0.165,0.153,-0.273,0.127,0.150,0.018,0.217,-0.051,0.064,0.053,-0.110,0.053,0.088,-0.026,-0.299,-0.188,-0.090,0.081,-0.226,-0.165,0.016,0.111,-0.060,-0.144,0.074,-0.082,-0.211,-0.004,-0.114,-0.193,-0.267,-0.251,-0.264,-0.072,-0.263,-0.319,-0.191,0.199,0.035,-0.002,-0.245,0.032,-0.275,0.032,0.022,0.132,-0.237,0.160,-0.331,-0.197,-0.256,-0.263,-0.209,-0.267,-0.446,-0.187,-0.121,-0.374,0.047,-0.030,-0.041,-0.091,0.035,-0.237,-0.110,0.151,-0.283,-0.054,-0.059,0.122
0.074,0.087,0.163,0.205,0.102,0.051,0.161,0.051,0.039,-0.138,-0.096,-0.148,0.111,0.015,0.290,0.042,-0.046,0.377,-0.040,0.189,0.037,0.048,0.030,0.077,0.141,0.082,0.166,0.169,0.034,0.075,0.072,-0.053,0.204,0.385,0.180,0.018,-0.137,0.052,0.257,0.233,0.297,0.195,0.301,0.312,-0.024,-0.119,0.263,0.310,-0.021,0.287,0.089,0.091,-0.025,-0.385,0.178,-0.160,0.135,0.032,0.219,0.254,0.179,0.142,-0.133,0.325,-0.137,0.358,0.354,-0.110,-0.034,0.054,0.040,-0.009,0.340,-0.021,-0.220,0.141,-0.154,0.013,0.218,0.287,0.184,0.437,0.375,-0.058
0.047,0.191,-0.126,-0.218,-0.122,-0.048,0.184,-0.030,-0.009,-0.187,-0.033,-0.027,-0.157,-0.193,-0.055,-0.154,0.042,0.132,0.146,0.120,-0.169,-0.069,0.063,-0.056,-0.294,-0.102,-0.089,-0.019,-0.065,-0.079,-0.021,0.144,-0.164,-0.226,-0.102,-0.058,0.048,-0.133,0.171,-0.127,-0.099,-0.070,0.058,-0.162,-0.002,0.002,-0.063,-0.215,0.004,-0.056,-0.002,-0.224,-0.041,0.105,-0.064,-0.293,-0.052,-0.011,-0.300,-0.065,-0.003,-0.237,-0.165,-0.097,-0.188,-0.142,-0.194,-0.032,0.077,-0.013,0.088,-0.235,0.195,0.040,-0.314,-0.077,-0.285,-0.342,0.036,-0.074,-0.131,-0.031,-0.122,0.275
-0.173,-0.134,-0.118,-0.317,-0.153,-0.295,-0.230,-0.177,0.006,-0.050,-0.158,-0.112,-0.067,-0.022,-0.357,0.206,0.334,0.044,0.099,0.009,-0.128,0.084,-0.159,0.025,-0.048,-0.044,-0.207,0.044,0.031,-0.072,-0.196,-0.032,-0.280,0.032,-0.101,-0.118,-0.110,-0.157,-0.273,-0.040,-0.291,-0.054,-0.223,-0.182,-0.086,-0.165,-0.171,-0.256,-0.152,-0.132,-0.194,0.015,-0.077,-0.339,-0.053,0.054,-0.020,0.143,0.230,0.202,-0.128,0.145,-0.433,0.009,-0.129,-0.075,-0.145,0.012,-0.114,0.218,-0.195,-0.214,-0.130,-0.047,0.135,-0.155,0.216,0.013,-0.207,-0.395,-0.336,-0.208,-0.067,0.057
-0.019,-0.204,-0.054,-0.358,-0.229,-0.169,-0.147,-0.373,-0.131,-0.245,-0.126,-0.234,-0.295,-0.187,0.146,0.050,-0.153,0.022,-0.152,-0.162,0.277,-0.112,-0.179,-0.200,-0.102,0.023,-0.008,-0.042,-0.214,-0.116,-0.102,-0.176,0.077,-0.029,-0.033,0.112,-0.047,-0.093,0.018,0.137,-0.144,-0.077,-0.238,-0.218,-0.114,-0.213,-0.251,-0.147,-0.238,-0.251,-0.111,0.116,-0.167,-0.021,-0.213,0.254,-0.218,0.209,-0.317,0.191,-0.182,0.167,0.075,-0.251,-0.212,-0.237,-0.208,-0.215,-0.184,-0.391,-0.296,-0.130,-0.018,0.041,0.100,-0.136,0.056,-0.204,-0.126,-0.299,0.214,-0.136,-0.097,0.205
0.170,-0.089,0.362,0.003,-0.016,0.211,0.130,0.324,-0.109,0.133,0.096,-0.008,-0.114,0.101,0.183,0.112,0.083,-0.196,-0.043,-0.283,0.124,0.090,0.152,0.251,0.030,0.014,-0.034,-0.223,0.121,0.137,0.077,-0.149,0.079,-0.091,-0.170,0.106,-0.004,0.065,0.215,0.178,0.230,0.201,0.025,0.174,-0.130,0.128,0.008,-0.160,0.004,-0.002,0.169,0.070,0.029,-0.203,0.063,0.067,0.258,0.107,0.013,0.289,-0.096,0.087,-0.017,0.024,0.126,0.030,0.049,-0.029,0.442,0.209,0.130,-0.020,-0.012,-0.109,-0.271,-0.102,0.108,-0.161,-0.238,0.144,0.005,0.101,0.269,0.105
-0.222,-0.043,-0.081,-0.070,-0.091,0.042,0.062,0.018,-0.152,0.170,-0.098,-0.062,-0.225,-0.074,0.200,0.010,-0.025,0.194,-0.076,0.199,-0.120,-0.076,0.163,-0.086,0.051,-0.112,-0.106,-0.013,0.002,-0.021,-0.153,-0.036,-0.205,0.025,-0.092,-0.106,-0.172,0.084,0.049,-0.194,0.042,-0.051,0.108,-0.092,-0.154,-0.107,-0.164,0.101,-0.155,-0.035,-0.187,0.140,-0.037,-0.090,-0.104,0.189,0.076,-0.221,-0.186,-0.172,-0.085,-0.351,0.013,-0.148,-0.101,0.042,0.005,-0.118,0.174,-0.171,-0.003,-0.027,0.168,0.008,-0.081,-0.225,0.101,-0.271,0.016,-0.084,0.210,-0.067,-0.250,0.002
0.165,-0.067,0.150,-0.040,-0.043,-0.170,0.177,-0.082,-0.045,-0.185,0.126,0.006,-0.027,-0.109,0.038,-0.035,0.222,-0.134,-0.028,0.116,-0.114,0.091,0.089,-0.031,-0.202,-0.174,-0.071,-0.063,0.007,0.097,0.148,-0.140,-0.106,-0.130,-0.140,-0.156,-0.083,-0.009,-0.057,-0.130,0.065,-0.078,0.019,0.011,0.117,0.108,-0.150,-0.017,0.004,-0.025,0.134,-0.005,-0.021,-0.171,-0.041,0.247,-0.076,-0.370,0.052,-0.360,-0.133,-0.010,0.036,-0.157,-0.158,-0.022,-0.056,-0.023,0.074,-0.168,-0.186,0.027,0.134,-0.017,-0.232,-0.169,0.136,0.186,0.265,0.286,-0.040,-0.146,-0.074,-0.130
0.316,0.207,0.221,0.376,-0.058,0.275,0.145,-0.030,0.201,-0.189,0.099,-0.051,0.051,-0.008,0.167,0.083,0.090,0.121,-0.085,0.186,0.235,0.112,0.220,0.257,0.195,0.206,0.271,0.258,0.291,0.099,-0.119,0.098,0.342,-0.145,-0.025,0.074,0.081,0.348,0.217,0.007,0.099,0.073,0.187,0.331,0.388,0.331,-0.049,0.117,0.305,0.020,0.002,-0.070,0.137,-0.341,0.240,-0.109,0.073,0.059,0.089,0.117,0.349,0.135,0.228,-0.049,0.364,-0.120,0.322,0.088,0.159,0.137,0.251,0.051,0.041,-0.142,-0.044,0.074,0.082,0.273,0.232,0.263,0.382,0.109,0.141,0.266
-0.080,0.031,-0.016,-0.238,-0.166,0.000,-0.127,-0.065,-0.147,-0.032,-0.145,-0.353,-0.146,-0.328,0.128,0.060,0.033,-0.233,-0.389,0.058,-0.045,-0.055,0.037,-0.028,-0.221,-0.118,-0.080,-0.286,-0.058,-0.207,-0.077,-0.132,-0.266,-0.040,-0.074,0.044,-0.235,-0.010,-0.036,-0.042,-0.025,0.050,-0.276,0.002,-0.064,-0.195,-0.182,0.112,-0.164,0.099,-0.004,0.103,0.154,0.272,-0.102,0.231,-0.023,-0.333,-0.146,-0.361,-0.145,-0.368,-0.270,-0.222,-0.296,-0.174,-0.177,-0.210,0.178,-0.167,-0.289,-0.073,0.144,-0.038,-0.502,-0.352,-0.027,-0.110,0.138,0.181,0.223,-0.153,-0.256,-0.075
0.082,0.129,0.119,-0.115,0.269,0.148,0.199,0.264,0.090,0.036,0.178,0.342,0.412,0.156,-0.002,0.227,0.225,0.060,0.131,-0.069,0.012,0.039,-0.042,-0.056,0.101,0.151,0.087,0.064,0.060,0.158,-0.194,-0.123,-0.003,0.066,0.055,0.113,0.241,-0.110,-0.090,0.069,0.170,0.152,-0.077,0.103,0.173,0.089,0.172,0.018,0.194,0.147,0.149,-0.245,0.057,0.185,-0.127,0.151,-0.009,-0.103,-0.116,-0.206,-0.010,0.177,0.013,-0.118,0.232,0.053,0.368,0.050,0.030,0.181,-0.058,0.001,-0.070,0.179,0.204,0.050,0.239,0.251,-0.107,-0.023,0.002,0.071,-0.026,0.184
-0.220,-0.108,-0.225,-0.217,-0.264,0.019,0.043,-0.020,0.031,-0.184,0.135,-0.189,-0.030,-0.233,0.025,-0.117,0.132,-0.162,0.203,0.020,0.123,0.042,0.144,-0.025,-0.039,-0.231,-0.005,0.031,-0.036,-0.029,0.122,0.126,-0.167,-0.092,-0.018,-0.297,0.043,-0.105,0.026,0.061,-0.332,0.184,-0.135,-0.158,0.045,-0.086,-0.205,-0.024,0.066,-0.158,-0.084,0.036,-0.054,-0.195,0.047,0.111,-0.141,-0.167,0.046,0.037,-0.166,0.092,-0.077,-0.049,-0.126,-0.049,-0.156,0.067,0.190,-0.051,-0.251,-0.145,0.101,-0.076,0.191,-0.152,0.145,-0.088,0.083,-0.126,-0.065,-0.192,0.003,0.080
-0.218,-0.092,0.024,-0.069,0.086,-0.166,-0.084,-0.037,-0.212,-0.148,0.096,-0.186,-0.035,0.045,0.140,-0.160,-0.026,0.248,-0.032,0.172,0.174,-0.182,0.073,-0.128,-0.105,-0.196,-0.142,-0.331,-0.161,0.064,0.245,-0.163,0.002,-0.152,-0.080,-0.170,-0.124,0.066,-0.004,0.193,0.079,-0.147,-0.181,-0.149,-0.191,0.068,-0.085,-0.229,0.003,0.065,-0.029,-0.403,-0.060,0.257,-0.038,-0.087,-0.190,0.229,0.255,-0.283,0.019,0.045,0.219,-0.159,-0.091,-0.117,-0.175,-0.250,0.082,-0.014,0.076,0.065,-0.176,-0.180,-0.188,-0.029,-0.330,-0.022,0.066,0.102,0.016,-0.141,-0.155,0.031
0.010,-0.133,-0.187,0.248,-0.179,0.144,0.124,0.105,0.016,0.169,0.164,0.268,0.461,0.149,0.066,0.180,0.156,0.097,-0.107,0.357,0.129,0.039,0.077,0.075,0.124,0.062,0.069,0.054,0.058,0.215,0.123,-0.151,0.165,0.285,0.155,0.215,0.265,0.082,-0.042,-0.096,-0.149,0.294,0.269,-0.023,0.258,0.340,-0.036,-0.148,0.074,0.025,-0.088,0.177,-0.003,0.051,0.028,-0.303,0.179,0.326,-0.154,0.052,0.280,0.060,0.205,0.015,0.256,0.143,0.271,0.266,0.161,-0.326,0.061,0.290,0.089,-0.051,-0.022,0.170,-0.031,0.253,0.259,-0.026,-0.136,0.286,0.358,-0.164
0.028,0.042,0.003,-0.081,0.079,0.080,0.108,-0.046,0.251,0.306,0.171,-0.155,-0.118,0.158,0.249,0.055,0.016,0.114,-0.062,0.028,0.173,-0.015,-0.073,0.223,-0.058,0.108,0.112,-0.011,-0.001,0.259,0.178,0.086,-0.034,0.168,0.248,0.100,0.132,0.261,-0.059,-0.021,-0.290,0.020,-0.096,0.177,-0.026,-0.153,0.146,0.120,-0.095,-0.146,0.057,0.395,-0.077,0.034,0.237,0.193,0.295,0.023,0.118,-0.095,0.189,0.167,0.165,0.229,-0.044,0.409,0.053,-0.067,0.043,0.045,0.081,0.286,-0.266,-0.053,-0.188,0.330,-0.432,0.219,-0.121,-0.209,0.199,0.201,0.207,0.220
0.170,0.024,0.262,0.169,0.147,0.020,0.295,0.328,0.109,-0.276,0.030,0.110,0.330,-0.047,-0.115,-0.127,-0.000,-0.058,0.026,0.231,-0.206,-0.156,-0.174,-0.045,0.130,-0.049,0.190,-0.150,0.113,-0.068,0.005,-0.015,0.174,0.260,-0.033,0.097,0.179,-0.143,0.167,0.108,0.117,0.097,0.216,0.151,0.127,0.059,-0.102,0.360,0.300,0.239,0.155,-0.160,0.123,0.008,0.292,0.261,-0.008,-0.097,0.257,-0.072,0.190,-0.037,-0.136,-0.165,-0.158,-0.135,-0.126,-0.044,-0.037,0.417,0.039,-0.023,0.101,-0.126,0.256,0.120,0.101,-0.094,-0.064,0.059,0.221,0.281,0.022,0.105
0.126,0.009,0.039,-0.128,0.071,-0.050,0.089,-0.246,0.179,-0.071,-0.092,-0.133,-0.172,0.129,-0.149,-0.140,0.072,-0.024,0.060,-0.151,-0.265,0.109,0.016,0.032,-0.321,-0.188,-0.062,-0.136,0.020,-0.022,0.005,-0.074,-0.427,-0.107,0.032,-0.121,-0.281,0.102,0.103,0.203,0.275,0.014,-0.225,0.018,-0.236,-0.095,-0.054,-0.296,-0.025,-0.199,-0.179,0.103,0.029,0.003,-0.164,-0.536,-0.127,0.254,-0.171,0.226,-0.083,-0.098,-0.029,-0.085,-0.133,-0.274,-0.078,-0.225,-0.425,0.222,-0.141,0.056,0.058,0.050,0.044,-0.254,-0.311,-0.196,0.000,0.071,-0.041,-0.037,-0.070,0.167
0.031,0.234,0.007,-0.019,-0.193,0.011,0.083,0.377,-0.018,-0.177,0.148,0.192,0.105,0.079,0.236,0.281,0.296,0.153,0.184,0.112,0.025,0.188,0.146,0.177,0.348,0.259,0.064,0.024,-0.053,0.142,0.045,0.164,0.224,0.280,0.175,0.206,0.075,0.221,-0.050,-0.079,-0.022,0.232,-0.095,0.151,0.395,-0.088,-0.177,-0.055,0.158,-0.109,0.111,-0.061,0.034,-0.026,-0.097,0.116,0.108,0.290,-0.017,0.128,0.100,0.006,0.337,0.205,0.371,0.453,0.454,0.096,-0.095,-0.126,0.310,0.331,-0.430,0.059,-0.082,0.320,-0.091,0.221,0.258,0.181,0.161,0.367,0.123,0.064
0.084,0.238,0.082,-0.019,0.127,0.214,0.064,0.137,0.163,-0.029,-0.166,-0.097,-0.086,0.124,-0.062,0.191,0.316,0.181,0.137,0.164,0.018,0.041,0.182,0.085,0.023,0.347,0.230,0.089,-0.121,0.234,0.198,0.020,-0.046,0.461,0.274,0.069,0.278,0.075,0.165,-0.058,-0.062,0.150,0.284,0.152,-0.078,0.388,0.436,0.384,0.301,-0.071,0.063,-0.042,0.056,-0.165,0.032,0.250,0.404,-0.263,-0.015,-0.299,0.116,-0.125,0.025,0.046,-0.097,0.329,-0.018,-0.001,-0.196,0.116,0.184,0.080,-0.002,-0.081,0.016,0.222,-0.287,0.104,-0.011,-0.021,0.284,0.064,0.350,0.132
-0.024,0.213,-0.029,-0.033,0.008,0.030,-0.016,0.273,0.006,0.215,-0.157,0.006,-0.001,0.303,0.045,-0.100,0.021,0.129,-0.126,-0.155,0.099,0.099,0.165,0.051,0.297,0.121,0.130,0.087,0.024,0.074,-0.057,-0.006,0.177,0.199,0.045,0.078,0.184,0.002,0.002,0.000,-0.028,-0.025,-0.106,0.105,0.092,0.021,0.234,-0.103,0.225,0.073,0.081,0.062,0.038,-0.064,-0.125,-0.048,0.077,0.316,0.263,0.193,0.024,0.343,0.404,-0.119,-0.154,-0.121,0.046,-0.139,0.124,-0.110,0.032,0.228,0.092,-0.069,-0.405,-0.051,0.001,0.307,0.344,0.255,-0.096,0.135,0.165,0.201
0.298,0.167,0.096,-0.075,-0.054,-0.106,0.135,-0.134,-0.075,0.220,0.041,0.129,-0.047,0.025,-0.095,-0.188,0.012,-0.153,-0.239,-0.056,0.072,0.118,-0.038,-0.067,0.262,0.324,0.060,-0.060,-0.130,-0.074,-0.005,0.063,0.212,-0.106,-0.048,-0.004,0.266,-0.075,0.203,0.191,-0.092,0.130,-0.158,-0.109,0.227,-0.038,-0.031,0.174,-0.064,-0.107,0.045,0.029,0.171,0.086,-0.100,-0.119,0.119,-0.172,0.068,-0.109,-0.049,-0.146,0.055,0.011,0.191,-0.015,-0.167,0.140,0.066,0.418,-0.141,0.011,0.096,0.149,0.186,-0.129,0.316,0.016,-0.019,0.119,-0.063,-0.131,-0.055,0.038
-0.113,0.081,-0.077,-0.070,-0.001,-0.132,-0.114,-0.006,-0.031,-0.255,-0.143,-0.317,-0.260,0.120,0.033,-0.001,0.068,0.002,-0.050,-0.034,-0.232,0.107,-0.191,0.091,0.051,0.011,-0.240,0.024,0.054,0.028,-0.249,0.179,-0.215,-0.223,-0.074,0.124,0.016,0.078,-0.240,-0.242,-0.210,0.128,-0.076,-0.172,-0.161,-0.162,0.037,0.085,-0.071,-0.054,-0.132,0.256,-0.044,-0.034,-0.146,-0.126,0.039,0.188,-0.033,-0.447,-0.073,-0.063,-0.275,-0.195,0.002,-0.100,-0.206,0.029,0.197,0.015,-0.267,-0.176,0.162,0.165,-0.165,0.057,0.207,-0.058,-0.355,0.058,-0.132,-0.272,-0.008,-0.246
-0.011,0.237,0.189,0.336,-0.167,0.010,-0.075,-0.036,0.037,0.035,0.146,0.465,-0.067,-0.006,0.059,0.209,0.042,0.128,0.170,0.243,0.082,-0.116,0.064,-0.060,0.300,0.106,0.135,0.004,0.237,0.325,0.230,0.169,0.189,0.135,0.175,-0.127,-0.170,0.042,-0.173,-0.079,-0.056,0.201,-0.166,0.224,-0.158,0.238,0.102,0.154,-0.103,0.064,0.020,0.224,-0.139,0.033,-0.163,0.093,0.061,0.312,0.009,-0.019,0.230,0.035,0.375,0.040,0.149,0.074,0.236,-0.016,0.008,-0.134,0.270,0.176,0.029,0.158,-0.187,-0.022,-0.053,0.237,-0.167,0.189,0.081,0.119,0.160,0.053
0.038,-0.243,-0.179,-0.274,-0.055,-0.111,-0.020,-0.249,-0.018,0.132,0.079,-0.319,-0.073,-0.014,-0.155,0.181,-0.202,0.168,-0.046,-0.038,0.064,-0.072,-0.159,-0.062,-0.050,0.028,0.136,-0.092,-0.006,0.116,-0.261,-0.163,-0.159,0.007,-0.058,0.008,-0.010,-0.017,-0.346,-0.010,0.045,-0.002,-0.114,-0.121,-0.183,0.032,-0.067,0.142,-0.057,-0.250,-0.036,0.275,0.140,0.035,-0.108,0.090,0.015,0.151,-0.045,0.077,-0.060,-0.038,-0.241,-0.212,-0.067,-0.213,-0.174,-0.267,-0.381,0.135,-0.104,-0.156,0.128,-0.132,-0.036,-0.168,0.104,-0.233,-0.186,0.054,-0.188,-0.182,-0.134,-0.074
0.082,0.098,-0.052,0.010,-0.042,0.110,0.056,-0.185,0.038,-0.127,0.157,-0.290,-0.248,-0.058,-0.055,0.125,-0.153,-0.001,-0.231,0.086,0.011,-0.118,0.090,-0.088,-0.120,-0.089,0.011,-0.113,-0.245,-0.125,-0.025,0.166,-0.087,0.083,0.097,0.079,-0.140,-0.025,0.096,0.041,0.120,0.164,0.026,-0.112,-0.068,0.097,0.051,-0.160,-0.168,-0.116,0.112,0.100,0.106,0.075,-0.098,0.196,0.047,-0.083,0.063,-0.122,-0.070,0.168,0.160,-0.031,0.002,-0.110,-0.148,-0.215,-0.053,-0.199,0.008,0.037,0.036,-0.021,-0.029,-0.145,0.027,0.091,0.061,0.153,0.099,0.014,-0.279,-0.108
0.128,-0.133,0.136,0.071,-0.066,-0.009,-0.008,-0.098,-0.065,0.052,0.121,-0.059,-0.158,-0.010,-0.075,0.005,-0.185,-0.352,-0.344,-0.014,-0.145,-0.117,-0.030,-0.098,-0.213,-0.186,0.071,-0.155,-0.074,-0.086,0.084,-0.003,-0.203,-0.249,-0.115,-0.027,-0.145,-0.109,-0.077,-0.022,-0.074,-0.029,-0.134,0.122,-0.176,0.037,-0.077,-0.021,0.061,0.099,-0.116,-0.371,0.155,0.264,-0.008,-0.152,0.004,0.103,-0.226,0.085,-0.133,0.268,-0.166,-0.011,-0.120,0.022,0.016,-0.062,-0.480,0.230,-0.157,-0.022,-0.160,0.143,-0.320,0.137,-0.475,-0.020,0.265,0.067,0.117,0.048,-0.134,0.023
0.129,0.063,0.162,0.314,-0.031,0.031,0.143,-0.087,-0.064,0.115,0.079,0.304,0.084,0.021,0.223,0.209,0.127,0.077,0.270,0.150,0.089,0.045,0.167,0.077,0.094,0.131,0.156,0.109,0.038,0.057,0.170,0.058,0.105,0.052,0.181,0.031,0.361,0.147,0.070,-0.008,0.177,0.221,0.044,0.249,0.182,0.426,0.214,0.043,0.153,0.068,0.335,0.239,-0.058,-0.318,0.221,0.077,0.058,0.215,0.045,0.103,0.278,0.233,0.247,0.043,0.070,0.406,0.390,0.468,0.081,0.114,0.371,0.057,0.357,-0.176,-0.328,0.276,-0.074,0.017,0.140,0.190,0.188,0.306,0.011,0.156
-0.018,0.255,-0.145,-0.075,-0.056,0.234,0.072,0.194,-0.016,-0.159,-0.153,0.265,0.409,0.088,-0.012,-0.018,-0.073,0.239,0.168,0.271,0.106,0.180,0.199,0.111,0.202,0.103,0.145,0.072,0.166,0.200,0.146,-0.119,-0.081,-0.031,0.166,0.155,0.046,0.070,0.086,0.056,0.084,0.073,-0.093,0.317,0.080,0.170,0.353,0.257,0.362,0.258,0.366,-0.056,0.017,-0.270,-0.079,-0.084,0.336,0.219,-0.005,-0.074,0.276,0.243,0.166,-0.068,-0.089,-0.025,-0.121,0.385,0.014,-0.277,0.079,-0.121,0.295,0.099,-0.163,-0.164,-0.121,0.302,0.267,0.318,0.327,0.100,0.240,0.374
0.167,0.085,-0.256,-0.050,-0.193,-0.017,0.198,-0.107,-0.215,-0.113,-0.167,-0.337,-0.128,-0.328,0.056,-0.135,0.000,-0.204,-0.309,-0.069,0.183,-0.106,0.058,-0.119,-0.025,0.073,-0.116,0.031,0.134,-0.148,0.046,-0.061,-0.028,0.068,-0.195,0.005,0.031,0.061,0.066,0.021,-0.033,-0.033,-0.206,-0.024,-0.129,0.000,-0.040,0.028,-0.167,-0.170,-0.052,0.255,0.136,0.071,-0.123,0.238,-0.131,-0.467,-0.344,-0.378,-0.185,-0.031,-0.088,-0.112,-0.171,-0.057,-0.244,-0.153,0.229,-0.471,-0.056,-0.242,0.003,-0.137,-0.247,-0.214,0.033,0.169,0.106,0.359,-0.198,0.017,-0.246,-0.511
