0.291,0.438,0.641,0.729,-0.148,0.548,0.545,0.534,0.200,-0.760,0.000,0.513,0.384,0.138,-0.011,-0.057,0.102,-0.466,-0.555,-1.067,0.047,0.671,-0.388,-0.023,-0.055,0.176,-0.207,-0.180,-0.155,-0.443,-0.147,-0.000,-0.283,-0.362,0.082,0.812,0.664,0.490,-0.054,-0.466,-0.382,0.492,-0.117,0.172,0.179,0.055,0.331,0.346,0.330,0.204,0.392,-1.063,-0.000,0.183,0.364,0.288,0.443,0.121,-0.235,0.258,0.818,-0.506,0.117,0.410,-0.801,0.890,-0.397,0.210,0.362,0.050,0.357,-0.106,0.076,-0.000,0.249,0.577,0.687,0.091,-0.644,-1.016,0.020,0.688,-0.409,-0.140
0.002,0.589,-0.241,-0.462,-0.260,-0.084,0.190,-0.326,-0.261,0.592,0.000,0.090,0.101,-0.422,-0.101,-0.465,0.311,0.615,-0.671,0.945,0.438,-0.097,-0.271,-0.051,0.708,0.410,-0.276,0.348,-0.123,0.154,-0.154,0.000,0.867,0.279,-0.025,0.499,0.636,0.108,0.193,-0.286,0.119,-0.387,-0.582,0.228,0.021,-0.282,0.140,0.318,0.255,-0.190,0.080,0.146,-0.000,0.575,0.249,-1.305,-0.104,-0.013,-0.168,0.034,0.567,0.114,0.070,0.266,-0.273,0.087,-0.031,0.343,0.753,0.361,-0.892,-0.254,-0.487,0.000,0.364,0.861,0.571,-0.034,0.028,-0.354,0.295,0.022,0.126,-1.124
0.350,0.328,0.869,0.341,0.300,0.042,0.394,0.571,-0.001,-1.671,0.000,0.792,0.365,-0.324,-0.350,-0.223,0.350,-0.135,0.071,0.343,-0.695,-0.285,-0.198,0.117,0.437,0.174,0.437,-0.314,0.232,-0.154,-0.403,-0.000,0.195,0.754,0.092,0.209,0.081,-0.467,0.172,0.106,0.237,0.353,0.331,0.213,0.422,0.196,-0.145,0.451,0.323,0.335,0.483,-0.742,0.000,-0.071,0.347,0.658,0.367,-0.497,0.304,-0.652,0.210,0.293,0.164,0.212,1.033,0.941,-1.130,0.354,-0.516,0.636,-0.005,0.113,0.137,0.000,0.575,0.034,0.321,-0.641,-0.554,-0.108,0.332,0.224,-0.350,0.512
-0.168,-0.550,0.524,-0.919,0.456,-1.066,-0.005,-1.316,0.102,0.156,-0.000,-0.683,-0.887,-0.022,0.625,0.691,0.275,0.198,-0.148,0.085,0.503,0.523,-0.237,0.436,-0.225,-0.032,0.487,-0.244,0.361,-0.208,0.216,-0.000,-0.379,-0.380,0.219,0.452,-0.401,-0.097,-0.100,-0.397,-0.080,0.517,-0.103,-0.678,-0.619,-0.401,-0.924,0.274,-0.253,-0.259,-0.695,-0.112,0.000,-0.130,-0.271,0.427,-0.280,0.639,0.542,0.693,-1.005,0.270,0.528,-0.312,-0.600,-0.403,-0.981,-0.283,-0.620,0.307,-1.163,-0.560,0.613,-0.000,0.244,-0.055,0.352,0.266,0.254,0.207,0.010,-1.169,-0.783,0.288
0.253,-0.062,0.291,-0.159,0.820,0.025,0.501,0.548,0.796,0.655,0.000,-0.617,-0.726,-1.029,-0.442,0.400,0.131,-0.076,0.079,-0.641,0.460,-0.035,0.145,0.673,-0.479,0.074,0.095,-0.123,0.024,0.484,0.454,0.000,-0.464,0.486,-0.107,0.085,-0.067,0.622,0.622,-0.050,-0.020,-0.470,0.252,0.347,0.491,0.425,0.615,0.197,0.278,0.237,0.396,-0.064,-0.000,-0.826,0.303,-0.126,0.290,0.436,-0.289,0.338,0.297,0.009,-0.433,0.393,-0.038,-0.137,-0.470,0.093,1.013,0.627,0.287,0.406,-0.281,0.000,-0.571,-0.724,0.081,0.252,-0.184,-0.123,1.156,-0.135,-0.241,-0.488
-0.075,0.146,-0.235,-0.229,-0.183,0.103,0.290,0.032,-0.121,-0.473,-0.000,-0.505,-0.631,-0.188,0.407,0.726,0.559,0.802,0.161,0.030,0.435,0.104,0.110,0.179,0.734,0.087,0.037,0.414,0.180,0.035,-0.742,-0.000,-0.645,-0.061,0.684,0.331,0.059,0.464,0.008,-0.508,0.217,0.300,0.431,0.139,0.223,0.609,0.483,0.532,0.437,0.323,0.086,-0.691,-0.000,-0.519,0.483,-0.853,0.520,0.191,0.323,0.622,0.325,0.379,0.394,0.594,0.251,0.784,-0.086,0.586,-0.242,-0.839,0.427,0.691,0.047,0.000,-0.129,0.416,-0.017,0.538,0.953,0.477,0.552,0.115,0.559,-0.431
-0.136,0.488,-1.030,-0.358,-0.498,0.284,-0.403,0.344,0.428,0.450,0.000,-0.021,0.432,-0.075,-0.497,-0.141,0.407,0.391,0.373,0.137,-0.666,0.177,0.087,0.000,0.699,-0.067,0.001,0.137,-0.129,0.446,0.641,0.000,0.568,0.603,0.349,-0.253,-0.358,0.131,-0.505,-0.462,-1.335,-0.334,-0.676,-0.665,-0.753,-0.489,-0.159,-0.067,0.300,-0.695,-0.740,-0.104,-0.000,0.491,0.294,0.285,-0.040,0.574,-0.333,-0.321,-0.002,0.376,0.470,0.134,-0.249,-0.445,0.661,0.058,0.269,-1.009,-0.023,0.435,0.486,0.000,0.203,0.371,-0.264,0.487,-0.110,-0.126,-0.373,-0.409,0.297,0.047
0.041,-0.703,0.245,-0.095,0.524,-0.399,-0.769,0.225,-0.554,0.671,0.000,-0.572,-0.621,0.053,0.682,0.573,0.377,0.404,-0.335,-0.192,0.177,0.071,0.349,0.395,-0.136,-0.334,0.109,-0.039,-0.337,0.363,0.360,0.000,0.151,0.026,-0.010,0.392,-0.088,0.507,-0.080,-0.270,0.143,0.100,0.271,-0.640,0.073,0.310,-0.144,-0.856,0.178,-0.177,-0.203,0.644,0.000,-0.527,0.152,-0.041,0.009,0.012,0.225,0.460,0.348,0.288,0.064,0.276,0.812,-0.052,0.284,0.255,0.862,-0.241,0.199,0.564,-0.140,0.000,-0.783,-0.391,-0.432,-0.065,0.610,0.167,0.061,0.365,0.506,-0.331
-0.594,0.253,-0.401,-0.491,0.259,0.198,-0.316,-0.320,0.015,-0.675,-0.000,-0.823,-1.030,-0.160,-2.129,0.786,1.237,0.145,0.480,0.622,-0.742,0.188,-0.331,0.874,0.576,-0.230,0.528,0.739,-0.112,0.349,-0.659,-0.000,-0.825,-0.949,-0.183,0.045,-0.163,0.209,-0.276,0.114,0.054,0.280,0.027,-0.937,-0.724,-0.385,-0.877,-0.303,-0.320,-0.178,-0.696,0.762,0.000,-1.079,-0.331,-0.426,-0.321,0.592,1.147,0.431,-0.372,-0.384,-0.963,-0.189,-1.477,-0.098,-0.885,-0.113,-0.787,0.785,-0.761,-0.381,-0.010,0.000,0.100,-0.099,0.778,0.678,-1.450,-0.118,-1.910,-0.305,-1.101,0.435
-0.060,0.076,-0.203,-0.087,-0.251,0.323,-0.254,-0.087,-0.541,0.533,-0.000,1.042,1.049,0.180,-0.525,-0.038,-0.186,-0.037,0.522,-0.006,0.008,-0.200,0.253,-0.641,-0.070,0.282,0.434,0.079,-0.294,-0.195,0.614,0.000,-1.116,-0.519,0.876,0.040,0.041,-0.063,-0.358,-0.364,-0.061,0.357,-0.713,0.293,0.141,0.240,0.254,0.645,0.251,0.568,0.685,0.418,0.000,-0.867,0.363,0.085,0.619,0.569,0.054,-1.042,0.064,-0.299,0.267,0.148,-0.171,0.037,-1.592,0.092,0.125,0.239,0.766,0.028,0.084,-0.000,-0.107,0.044,-0.245,-0.251,-0.156,-0.115,0.472,0.029,0.049,0.955
0.276,0.901,0.394,-0.656,-0.228,-0.209,-0.534,-0.419,-0.217,-1.168,0.000,-0.731,-0.616,-0.727,0.273,-0.047,0.545,0.674,-0.569,0.509,0.098,0.064,-0.024,-0.268,-0.256,0.104,-0.946,0.029,-0.608,0.088,0.026,0.000,0.267,-0.270,0.385,0.368,0.531,-0.121,0.378,-0.103,0.267,0.478,-0.916,-0.422,-0.374,-0.332,0.243,-0.031,-0.140,-0.398,-0.432,0.973,0.000,-0.119,-0.178,0.022,-0.160,-0.843,0.655,-0.596,-0.660,0.906,0.008,-0.190,-0.762,-0.382,-0.862,-0.265,0.227,-0.250,0.152,0.115,0.368,0.000,0.249,-0.357,-0.046,0.668,-0.820,0.064,-0.048,-0.344,-0.585,0.570
0.082,-0.709,0.297,0.379,-0.648,0.274,0.808,-0.020,0.104,0.599,0.000,0.788,0.334,0.370,0.275,0.001,0.615,-0.032,-0.528,-0.622,-0.120,-0.345,-0.229,0.196,-0.060,0.370,0.221,0.481,-0.668,0.101,-0.002,-0.000,0.420,0.453,0.280,0.426,0.447,0.367,-0.097,-0.313,-0.083,0.682,0.256,-0.243,-0.271,-0.276,-0.481,-0.675,0.193,-0.638,-0.420,0.770,-0.000,-0.506,0.195,0.070,0.025,0.627,0.807,-0.273,0.360,0.097,0.575,0.109,-0.365,-0.027,-0.638,0.069,0.895,0.376,-0.053,0.147,-0.068,0.000,-0.647,-0.033,-0.069,0.025,0.519,-0.232,0.343,0.579,0.097,-0.241
-0.462,-0.455,-0.721,-0.319,0.194,-0.264,0.044,0.063,-0.761,0.507,0.000,-1.048,-0.921,-0.210,0.132,0.338,0.337,-0.024,0.290,-0.099,0.461,0.736,-0.315,0.388,0.058,0.271,0.067,0.031,0.246,0.078,-0.384,-0.000,-1.047,-0.217,0.223,0.240,0.360,-0.079,0.046,-0.778,-0.412,0.317,-0.040,-0.876,-0.725,-0.390,-0.761,-0.024,-0.316,-0.092,-0.643,1.037,-0.000,-0.553,-0.345,0.613,-0.354,-0.909,0.774,-0.718,-0.869,-1.882,-0.730,-0.104,-0.335,-0.111,-0.779,-0.059,0.188,-1.265,-0.334,-0.028,-0.321,-0.000,0.053,-0.588,0.974,0.593,0.089,0.268,-0.171,-0.040,-0.376,-0.909
-0.171,0.232,0.291,0.015,0.345,-0.005,0.156,-0.042,0.226,0.364,0.000,-0.167,0.163,0.207,0.464,-0.255,-0.463,-0.344,-0.625,-0.110,0.507,-0.048,-0.001,-0.244,0.000,-0.019,-0.011,-0.244,0.403,-0.062,0.054,-0.000,-0.349,-0.488,0.054,0.733,0.270,-0.516,0.180,0.409,0.036,0.345,0.232,0.113,-0.211,0.132,-0.092,-0.014,0.133,0.098,-0.192,0.306,-0.000,0.424,0.131,-0.215,0.099,-0.122,0.038,-0.541,-0.403,0.074,-0.256,0.134,-0.278,0.069,-0.146,0.185,-0.061,0.065,-0.024,-0.009,0.372,0.000,0.390,0.079,0.216,0.198,-0.483,-0.596,-0.345,0.020,0.045,0.429
0.155,-0.548,0.318,0.796,-0.235,-0.730,0.132,0.243,0.251,0.779,0.000,-0.144,-0.182,0.011,0.277,0.603,-0.695,-0.024,-0.446,-0.324,0.591,-0.236,0.640,-0.308,-0.227,-0.294,0.220,0.021,-0.442,0.076,0.427,-0.000,-0.412,0.222,0.295,-0.226,-0.135,0.189,0.482,0.643,-0.033,0.133,0.687,0.028,0.557,0.214,0.067,0.114,0.116,0.630,-0.256,0.588,0.000,-0.589,0.115,0.213,0.262,0.270,-0.037,-0.434,-0.125,-0.880,-0.046,0.395,0.383,-0.652,-0.697,0.219,0.991,0.628,-0.119,-0.052,0.360,0.000,-0.198,0.463,-0.581,-0.409,-0.612,-0.143,0.093,-0.851,0.181,-0.199
-0.406,0.273,-0.020,-0.117,0.246,-0.112,-0.573,0.037,-0.311,0.128,-0.000,-0.088,0.285,-0.311,-0.198,0.258,0.496,0.283,0.332,0.137,0.122,0.271,0.111,-0.062,0.006,-0.502,0.414,0.275,0.268,0.482,-0.111,0.000,-0.188,-0.452,-0.257,-0.276,0.254,0.080,-0.371,-0.084,0.429,0.334,0.154,-0.310,-0.357,0.196,0.346,0.506,0.168,-0.067,0.363,0.230,0.000,0.274,0.158,-0.417,0.102,-0.127,-0.898,0.144,0.026,0.195,-0.260,0.187,-0.092,0.063,-0.127,0.164,0.132,0.252,0.187,0.136,-0.153,0.000,0.371,0.182,0.135,0.456,-0.088,0.365,-0.366,-0.508,0.165,-0.410
-0.060,0.264,-0.271,0.429,-0.299,-0.216,-0.217,-0.159,0.079,0.855,0.000,0.604,-0.043,-0.029,-0.995,0.037,0.500,0.641,0.158,-0.064,-0.164,0.327,-0.017,0.030,-0.156,-0.234,0.884,0.349,0.293,-0.035,0.474,0.000,-0.222,-0.295,0.121,0.211,0.176,0.364,-0.802,-0.711,-0.722,0.482,0.602,-1.083,-0.626,0.081,-0.477,0.133,0.121,-0.425,-0.441,1.040,-0.000,-0.027,0.004,0.484,-0.116,-0.035,0.272,-1.203,-1.384,-0.218,0.652,0.155,0.652,-0.210,0.712,0.398,-0.295,-0.396,0.596,0.746,-0.334,-0.000,-0.582,-0.162,-1.146,0.315,0.052,-0.177,0.790,0.312,0.924,0.233
0.442,-0.046,0.388,0.849,-0.433,0.187,0.935,0.391,-0.311,-0.600,-0.000,0.223,-0.288,0.092,0.235,0.475,-0.780,0.528,-0.037,-0.413,0.085,-0.121,-0.502,0.596,0.212,0.107,0.114,0.147,-0.435,0.149,-0.045,0.000,-0.559,0.556,0.436,-0.270,-0.044,0.307,0.043,0.366,-0.420,0.560,0.004,-0.272,0.725,0.360,0.364,0.338,0.083,0.877,-0.464,-0.200,-0.000,-0.966,0.106,-0.055,0.117,0.479,0.482,-0.291,0.041,-0.033,0.579,0.130,-0.798,0.449,-0.620,0.070,0.731,0.284,-0.308,0.044,0.667,-0.000,-0.606,0.120,-0.235,0.021,-0.084,-0.070,0.352,1.023,-0.163,-0.127
-0.300,-0.326,-0.161,-0.555,-0.165,-0.084,0.074,-0.380,0.437,-0.054,0.000,-0.328,-1.218,0.034,-0.369,0.896,0.336,-0.027,0.509,0.720,-0.139,0.603,0.236,0.146,0.228,0.061,0.604,0.305,0.605,0.426,0.166,-0.000,-0.446,-0.327,0.370,-0.145,0.137,-0.689,-0.465,-0.347,-0.459,0.112,-0.270,-0.862,-0.791,-0.557,-0.730,-0.376,-0.342,-0.383,-0.920,0.902,0.000,-0.958,-0.364,-0.581,-0.367,0.614,0.574,0.740,-0.525,0.296,0.433,-0.145,0.286,-0.096,-0.639,-0.084,-0.605,0.311,-0.638,-0.043,0.327,0.000,0.770,-0.131,0.602,0.188,-2.100,-1.004,0.116,-0.495,0.365,-0.055
-0.304,0.829,-0.439,-0.760,-0.018,-0.474,-0.517,-0.848,-0.021,0.048,0.000,-0.408,-0.146,0.051,0.788,0.047,0.111,0.893,-0.756,0.687,0.382,0.608,0.245,0.068,0.023,0.133,0.378,-0.038,0.072,-0.089,0.345,-0.000,-0.213,0.361,0.080,-0.236,-0.037,-0.135,0.177,0.022,-0.035,-0.222,0.454,0.786,0.063,-0.067,-0.378,-0.751,0.281,0.137,-0.186,0.528,-0.000,-0.579,0.278,-0.557,0.239,0.220,0.200,0.341,-1.185,0.567,0.206,0.450,0.661,0.276,-0.226,0.449,-0.512,-0.602,-0.007,0.598,0.237,-0.000,-0.784,-0.262,-0.299,0.182,0.907,0.610,-0.359,0.401,0.846,-0.051
0.071,0.604,0.082,-0.572,0.379,0.739,0.498,0.108,0.232,-0.359,0.000,-0.485,-0.045,-0.113,0.262,-0.239,-0.001,0.130,-0.743,0.830,0.276,0.161,0.051,0.394,0.397,-0.175,0.003,0.094,0.515,0.272,-0.416,-0.000,-0.042,-0.391,0.276,0.361,0.417,-0.033,0.494,-0.201,0.180,0.158,0.192,0.088,-0.296,-0.068,-0.405,-0.401,0.189,0.022,0.119,-0.065,-0.000,-0.956,0.070,-0.453,-0.284,0.469,0.214,0.866,-0.252,0.878,0.235,0.012,-0.829,0.536,0.161,0.036,0.004,-0.360,-0.318,0.764,0.411,-0.000,-1.008,0.050,-0.301,0.396,0.524,0.793,0.703,0.257,-0.030,0.144
0.648,-0.458,0.818,0.625,0.192,0.233,0.368,0.685,0.289,0.018,-0.000,-0.083,-0.423,0.020,0.081,0.466,0.134,-0.669,-0.574,-0.708,0.293,-0.233,-0.144,0.425,-0.012,0.164,0.274,0.076,0.085,-0.022,-0.201,-0.000,0.211,-0.032,-0.130,0.147,0.168,0.470,0.319,-0.053,0.133,0.146,0.263,-0.677,0.194,0.251,-0.585,-0.623,0.209,0.222,0.025,0.294,-0.000,-0.729,0.193,-0.121,0.247,0.625,0.555,0.566,-0.001,-0.061,0.800,0.364,-0.791,0.468,-0.311,0.126,0.948,0.581,0.818,0.005,-0.437,0.000,-1.054,0.896,0.231,-0.003,-0.487,-0.029,-0.010,-0.018,0.078,-0.021
0.547,-0.787,0.233,0.052,1.014,0.131,0.660,0.577,0.265,-0.281,-0.000,-0.700,0.611,-0.762,0.650,-0.009,0.296,-0.189,-0.543,-0.542,-0.719,0.141,0.235,0.356,0.220,0.059,-0.054,0.356,-0.484,0.215,-0.948,-0.000,-0.606,0.663,-0.407,0.470,0.017,0.315,0.302,0.076,0.784,-0.098,1.051,-0.378,-0.255,-0.047,-0.195,0.012,0.104,-0.579,0.097,0.047,0.000,-0.649,0.233,0.243,0.163,0.129,0.444,0.024,0.227,0.108,-0.890,0.262,-1.087,0.626,-1.041,0.434,1.131,0.174,0.632,-0.485,-0.634,-0.000,-0.069,-0.302,-0.435,-0.338,-0.434,0.398,0.918,0.675,0.425,0.084
0.357,0.232,0.025,-1.161,0.302,-0.644,0.399,-1.074,0.464,-0.087,-0.000,-0.240,-0.757,0.486,0.414,-1.026,-0.563,0.542,-0.357,0.849,0.697,-0.179,-0.024,0.060,-0.828,0.185,0.447,0.473,-0.035,-0.305,-0.483,0.000,-1.342,-0.321,0.066,0.317,0.293,-0.101,0.888,0.315,0.376,-0.028,-0.665,-0.362,-0.669,-0.314,-0.655,-1.417,-0.106,-0.633,-0.635,0.126,-0.000,-0.098,-0.102,0.917,-0.118,0.163,-0.491,0.831,-1.202,0.502,0.542,-0.232,0.307,-0.234,-0.638,-0.372,-0.838,-0.104,0.551,0.103,0.464,0.000,0.592,-0.090,-0.008,-0.645,0.530,0.567,-0.306,-0.610,-0.991,0.110
0.263,-0.273,-0.442,-0.552,-0.065,-0.078,0.571,-0.323,0.251,0.638,0.000,-0.181,-0.487,0.245,0.884,0.457,-0.508,-0.499,-0.152,-0.198,0.277,0.315,-0.871,0.070,-0.283,-0.079,0.255,0.097,0.347,0.144,0.135,-0.000,-0.817,0.058,0.166,0.519,0.182,0.651,-0.501,-0.272,-0.099,0.460,-0.763,0.079,-0.366,0.267,0.050,-0.921,0.284,0.557,-0.358,0.204,-0.000,-0.689,0.165,-0.513,-0.014,0.612,0.580,0.470,-0.836,0.388,0.996,0.350,-0.072,0.186,0.235,0.195,0.643,-1.145,0.770,0.127,0.175,0.000,-0.513,0.167,-0.332,0.081,0.431,-0.024,0.356,0.914,-0.084,-0.230
0.239,0.014,0.134,-0.009,-0.236,-0.268,-0.445,-0.149,0.522,0.770,-0.000,-0.585,-0.618,-0.675,0.256,0.445,0.438,0.750,-0.697,-0.043,0.156,0.386,-0.091,-0.470,0.155,0.024,-0.161,-0.371,-0.143,-0.387,0.187,0.000,-1.225,-1.265,-0.367,0.204,0.238,0.709,0.664,0.196,0.324,0.735,-0.404,-0.344,-0.360,-0.127,-0.283,-0.455,-0.043,-0.294,-0.314,-0.115,0.000,1.028,-0.073,0.451,-0.056,0.003,0.273,-1.515,0.034,-0.453,-0.044,-0.326,0.529,-0.116,-0.637,-0.362,0.270,0.243,0.281,0.082,0.287,-0.000,-1.440,0.076,-0.751,-0.093,0.469,0.620,0.567,0.124,0.163,-0.837
-0.762,-0.033,-0.430,-1.107,-0.339,-0.308,0.045,-0.710,-0.830,-0.014,-0.000,-0.379,-0.251,-0.432,0.528,0.830,1.059,0.371,-0.119,0.137,0.005,0.388,-0.015,0.506,-0.287,0.847,-0.405,0.550,-0.276,-0.431,0.151,0.000,0.246,0.756,0.005,-0.218,0.534,0.156,-0.255,-0.466,0.291,0.180,0.862,0.256,-0.088,-0.452,-0.272,0.579,0.222,-0.162,0.034,0.905,0.000,-0.177,0.259,-0.028,0.416,-1.674,-0.617,0.184,-0.748,0.013,0.014,0.343,0.566,0.456,0.191,0.395,-0.204,-0.202,0.359,0.720,-0.391,0.000,0.333,0.406,-1.131,-0.577,0.606,0.545,0.079,0.519,0.260,-1.376
-0.173,-0.327,-0.181,0.424,-0.170,0.094,0.025,0.028,0.427,0.316,-0.000,-0.438,-0.079,-0.965,0.535,0.642,-0.982,0.345,-0.320,-0.275,0.758,0.551,-0.206,0.283,-0.240,-0.046,0.446,-0.135,0.075,-0.113,0.050,0.000,-0.258,0.183,0.584,0.663,-0.167,0.121,-0.556,-0.436,-0.975,0.750,-0.656,0.519,0.236,0.345,-0.175,-0.408,0.319,0.596,0.500,0.572,0.000,-0.223,0.121,0.137,0.101,-1.093,0.497,-0.339,0.241,-1.384,0.166,0.286,0.700,0.291,0.017,0.141,0.664,0.088,0.630,0.299,-1.006,-0.000,-0.190,-0.803,-0.666,0.179,0.101,-0.193,0.574,0.310,-0.928,-0.149
0.125,0.728,0.200,-0.291,0.251,-0.168,0.195,-0.409,0.308,0.750,-0.000,-0.050,0.058,-0.819,0.123,0.355,0.649,-0.268,-0.209,-0.444,-0.269,0.259,-1.257,-0.287,-0.500,0.088,-0.012,0.345,-0.430,0.012,0.566,0.000,0.395,-0.383,0.038,0.636,-0.266,0.024,0.084,0.440,0.498,0.023,0.168,-0.216,-0.233,-0.164,-0.073,-0.474,0.173,0.143,-0.068,-0.396,0.000,0.084,0.181,-0.166,-0.018,0.181,0.584,0.651,0.141,-0.942,-0.011,0.286,-0.063,0.306,0.045,0.321,0.126,0.284,-0.254,-0.529,-0.453,0.000,0.082,0.260,0.344,-0.574,-0.707,0.558,-0.051,0.733,0.142,-0.132
0.001,0.141,-0.048,0.177,0.797,-0.538,-0.430,0.487,0.474,-0.528,-0.000,0.455,0.398,0.098,-0.468,0.121,0.436,-0.356,0.564,0.049,-0.829,0.158,0.808,0.169,0.155,-0.001,0.146,0.263,-0.090,0.332,-0.711,0.000,0.100,0.551,0.334,-0.031,0.518,0.229,-0.596,-0.601,0.199,-0.097,0.220,0.114,-0.265,0.168,-0.092,-0.012,0.277,-0.523,0.398,-1.393,-0.000,0.317,0.257,0.171,0.157,0.316,-0.713,-0.038,-0.345,0.102,0.569,0.219,-0.485,-0.090,-0.941,0.187,0.261,-0.761,0.524,0.577,-0.166,0.000,0.211,0.072,0.127,0.304,-0.329,0.235,0.206,0.400,0.348,0.309
-0.385,0.061,-0.231,-1.104,-0.450,-0.526,-0.550,0.192,-0.616,-0.842,-0.000,-1.201,-1.196,-1.191,0.284,0.366,-0.102,0.876,1.005,0.866,-0.153,0.188,0.637,-0.196,0.291,-0.337,-0.195,-0.426,-0.027,-0.345,0.251,0.000,-0.284,-0.280,-0.346,0.150,0.034,0.506,0.492,-0.423,-0.034,0.155,-0.001,-0.974,-0.717,-0.632,-1.051,-0.148,-0.406,-0.475,-0.696,0.675,0.000,0.419,-0.429,0.322,-0.452,0.495,0.745,-0.914,-1.437,-1.780,-1.696,-0.424,-1.437,-0.691,-1.223,-0.429,0.646,0.101,-0.652,-0.889,0.706,-0.000,-0.019,-0.219,0.884,0.111,0.754,-0.841,0.051,0.184,-0.859,-1.461
-0.333,0.761,-0.013,-0.025,-0.444,-0.152,-0.641,0.172,-0.090,-0.226,-0.000,-0.287,-0.194,0.061,0.187,0.213,0.146,0.825,-0.686,0.658,0.198,0.089,-0.023,0.170,-0.013,0.019,0.494,0.172,0.455,0.055,-0.456,0.000,-0.006,-0.142,0.042,0.260,-0.037,-0.034,0.228,-0.047,-0.232,0.277,0.395,-0.060,0.089,0.077,-0.574,-0.738,0.154,-0.448,0.331,0.217,-0.000,-0.577,0.110,-0.298,0.035,0.376,-0.275,0.659,-1.221,0.804,1.101,0.056,0.891,0.697,-0.024,0.386,-0.321,-0.658,-0.576,0.606,0.034,-0.000,-1.207,-0.344,-0.104,0.589,0.919,0.354,0.009,0.501,1.138,0.246
-0.318,0.752,-0.433,-0.152,-0.354,0.557,-0.360,0.589,-0.470,-0.398,-0.000,0.156,0.293,0.199,-0.413,-0.256,-0.639,0.891,1.124,0.354,-0.265,0.191,-0.265,-0.045,0.804,0.386,0.105,0.253,0.054,0.102,-0.025,-0.000,-0.269,0.665,-0.048,-0.014,0.331,0.147,0.163,-0.101,-0.545,0.154,0.013,0.227,-0.200,-0.238,-0.548,-0.067,0.234,0.537,-0.171,0.341,0.000,-0.726,0.169,-0.294,0.053,0.498,0.427,0.397,-0.192,0.429,1.216,0.168,-0.625,0.235,-0.653,0.306,-0.347,-0.228,-0.554,-0.010,0.337,-0.000,-1.028,-0.356,-0.121,1.048,0.763,0.477,0.009,-0.013,-0.107,0.933
0.375,0.571,0.427,-0.017,0.423,-0.385,0.378,0.658,0.070,0.398,-0.000,0.545,-0.101,-0.447,-0.730,0.150,0.031,-0.300,-0.444,-0.104,-0.570,0.294,-0.640,0.182,-0.174,0.247,0.326,-0.423,0.390,-0.040,-0.560,-0.000,0.538,0.127,0.031,0.024,-0.120,0.352,0.172,0.136,-0.357,0.501,0.151,0.393,0.295,0.247,0.094,0.121,0.159,0.267,0.408,-0.076,0.000,-0.029,0.197,0.287,0.192,0.567,-0.253,-0.622,-0.029,-0.245,-0.284,0.164,0.209,-0.213,-0.797,0.035,-0.272,0.298,0.474,0.140,-0.767,0.000,0.344,0.209,0.768,0.395,-0.976,-0.122,0.324,-0.215,-0.616,-0.199
0.529,0.444,0.543,0.660,0.027,0.521,0.556,0.159,0.712,-0.698,-0.000,0.182,-0.080,0.610,-0.534,0.107,-0.088,-0.360,-1.006,-0.269,-0.066,0.423,0.416,0.156,0.235,-0.708,0.527,-0.306,0.533,-0.069,0.368,-0.000,-0.524,0.431,0.295,-0.263,-0.642,-0.713,-0.106,0.392,-0.621,0.442,1.132,0.016,0.127,0.291,-0.030,0.829,0.128,0.007,-0.774,-0.556,-0.000,-0.920,0.080,0.599,0.242,0.996,0.110,-0.106,0.071,-0.909,0.450,0.117,-0.001,0.054,-0.057,0.046,-0.428,-0.647,1.303,0.036,-0.024,-0.000,0.049,0.299,-0.888,0.518,-0.417,0.384,0.461,-0.177,-0.676,0.414
0.019,0.087,-0.176,-1.216,0.070,0.363,0.374,-0.035,0.106,0.289,-0.000,-0.490,-0.968,0.028,0.404,0.094,-0.209,0.475,0.397,0.524,0.171,0.180,0.329,-0.121,0.021,-0.247,0.230,0.412,-0.166,-0.430,0.231,-0.000,-0.343,-0.290,0.339,0.294,-0.055,-0.030,0.115,0.436,0.134,0.406,-0.143,-0.533,-0.465,-0.322,-0.810,0.130,-0.190,-1.023,-0.650,0.504,-0.000,0.401,-0.205,0.388,-0.212,0.445,0.323,0.688,-0.573,0.031,0.305,-0.290,0.415,-0.104,-1.289,-0.285,0.173,0.279,0.220,0.120,0.338,-0.000,0.181,-0.266,0.425,-0.004,0.031,0.028,0.524,0.176,-0.642,0.182
-0.736,0.347,-0.510,-0.244,-0.216,-0.097,0.268,-0.112,-0.753,-0.119,-0.000,-0.188,-0.645,0.040,0.264,0.628,0.129,0.530,0.488,0.390,-0.221,0.256,0.237,0.415,0.663,-0.208,0.395,-0.116,-0.043,-0.160,0.303,-0.000,0.144,-0.237,0.341,0.487,0.061,0.181,-0.362,-0.521,-0.035,0.604,-0.945,-0.454,-0.596,0.216,-0.251,-0.849,0.353,-0.327,-0.417,0.147,-0.000,-0.234,0.326,0.214,0.218,0.383,-0.823,0.531,-0.055,0.852,0.476,0.279,0.014,0.483,0.724,0.283,-0.415,-0.289,0.495,0.206,-0.390,0.000,-0.706,0.294,-0.206,0.872,0.417,0.563,0.239,0.359,0.253,-0.039
0.155,-0.305,0.048,-1.152,-0.991,-0.138,0.020,-0.536,-0.782,0.069,-0.000,-0.895,-0.872,-1.515,0.397,0.430,0.096,0.462,0.304,0.638,0.936,0.472,-0.202,-0.339,-0.280,-0.397,0.325,-0.379,0.307,-0.326,-0.112,-0.000,0.377,-0.191,0.258,0.447,0.596,-0.458,-0.482,0.320,-0.618,0.415,-0.176,-0.741,-0.691,-0.507,0.123,0.497,-0.310,-0.841,-0.719,0.365,-0.000,-0.272,-0.334,0.685,-0.341,-0.035,0.473,0.504,0.314,-0.036,-0.998,-0.341,-0.919,-0.479,-1.166,-0.201,0.306,-0.808,0.259,-0.432,0.284,-0.000,0.246,-0.065,0.301,0.041,0.134,-0.254,0.034,-0.734,0.306,0.984
0.071,0.233,-0.003,-1.444,0.450,0.357,0.321,-0.367,0.528,0.014,0.000,-0.056,-1.106,-0.286,-0.663,0.731,0.663,-0.049,0.200,-0.080,-0.382,0.545,-0.038,0.509,0.660,-0.126,0.187,-0.119,0.544,0.113,-0.262,-0.000,-0.681,0.212,0.377,0.353,0.229,-0.154,-0.473,-0.203,-0.935,0.531,-0.062,-0.670,-0.586,-0.308,-0.478,-0.079,-0.229,-0.387,-0.575,0.367,-0.000,-1.854,-0.250,-0.723,-0.245,0.768,0.554,0.987,-1.508,0.576,-1.047,-0.135,-1.418,-0.069,-0.577,-0.079,-0.507,-0.169,-0.300,-0.031,0.795,0.000,0.554,0.067,0.604,-0.234,-1.795,-0.738,-0.033,-0.031,-0.922,0.162
-0.213,0.644,-0.497,-0.050,-0.506,0.385,0.034,0.035,-0.268,-0.121,-0.000,-0.150,-0.356,0.143,0.356,-0.169,-0.493,0.716,0.846,0.307,-0.236,0.501,-0.484,0.397,0.351,0.184,-0.009,0.231,0.375,0.083,-0.054,0.000,-0.108,0.139,0.085,0.201,0.048,0.247,-0.973,-0.091,-0.716,0.289,-0.147,-0.021,-0.308,0.369,-0.484,-1.082,0.272,0.215,-0.758,0.292,0.000,-0.440,0.166,-0.011,-0.092,0.521,0.680,0.149,-1.439,0.607,0.927,0.220,0.264,0.452,0.480,0.317,-0.656,-0.474,0.773,0.040,0.016,0.000,-0.829,-0.743,-0.302,1.219,0.469,0.116,-0.048,0.239,-0.055,0.575
-0.494,-0.393,-0.597,0.609,-0.928,-0.254,0.538,0.076,-0.005,-0.584,-0.000,0.135,1.123,0.595,0.823,0.439,0.378,0.037,-1.851,-0.975,-0.026,-0.403,0.907,0.235,0.193,0.708,-0.321,-0.039,0.159,0.366,0.046,-0.000,0.938,0.783,-0.323,0.095,-0.176,0.337,-0.330,-0.978,-0.529,-0.327,0.863,0.956,1.121,0.258,-0.083,0.591,-0.433,0.686,1.093,-0.194,-0.000,-1.575,-0.374,0.798,-0.142,-2.275,-0.004,-0.366,-0.890,-0.662,-1.026,-0.006,-1.039,-0.000,1.209,-0.007,0.717,-1.208,-0.384,-0.323,-0.309,0.000,-0.297,-0.323,0.944,-0.079,0.051,-0.693,-1.363,-0.189,-0.123,-1.295
-0.251,0.102,-0.562,0.245,-0.280,0.239,-0.044,-0.379,-0.399,0.238,-0.000,0.634,0.827,-0.613,-0.445,0.783,0.346,0.281,0.147,0.352,-0.293,0.157,0.242,-0.083,0.206,0.223,-0.368,0.539,0.017,0.131,0.477,-0.000,-0.388,0.215,0.291,0.021,0.553,0.204,-0.285,-0.377,-1.705,0.070,0.005,-0.241,-0.385,0.009,-0.470,0.207,0.276,-0.337,-0.253,0.078,-0.000,0.312,0.080,0.729,-0.019,-0.598,0.183,-1.160,-0.362,0.639,0.349,0.094,0.498,-0.133,-0.514,0.026,-0.576,0.140,0.148,1.010,0.116,0.000,0.624,-0.237,-0.552,0.241,-0.215,-0.435,0.445,-0.152,-0.390,0.662
0.572,0.448,0.517,0.143,-0.227,0.257,0.670,0.061,-0.251,0.729,0.000,-0.767,-0.826,-0.367,0.365,0.345,0.236,0.214,-1.147,-0.638,-0.130,0.228,-0.182,-0.217,-1.564,-0.633,0.667,0.118,-0.180,-0.584,0.286,-0.000,-1.221,-0.897,-0.090,0.366,-0.613,-0.556,0.544,0.093,1.059,0.549,-0.000,-0.057,-0.001,-0.000,-0.429,-0.703,-0.000,-0.360,-0.016,0.202,-0.000,1.219,0.000,-0.055,-0.000,-1.001,-0.482,-1.156,-0.903,-0.652,-0.064,-0.482,-0.032,-0.077,-2.442,-0.568,0.951,-0.724,0.566,0.207,0.580,-0.000,-1.912,-0.508,-1.584,0.298,0.530,0.605,0.845,-0.598,-0.861,-0.189
-0.731,-0.409,-0.348,-0.042,-0.076,-0.512,-0.720,-0.938,0.390,-0.236,-0.000,0.145,-0.468,0.521,-0.640,0.557,-0.500,0.815,1.008,0.678,-0.901,-0.176,0.158,-0.058,0.269,0.154,0.144,-0.071,-0.275,0.340,0.024,-0.000,-0.662,-1.631,0.181,0.339,0.302,0.151,-0.157,0.217,0.141,0.198,0.142,-0.424,-0.442,-0.420,-0.495,-1.094,-0.290,-0.973,-0.531,-0.598,-0.000,-1.439,-0.276,-0.516,-0.306,1.084,1.046,0.476,0.411,-0.025,0.513,-0.164,0.845,-0.086,-0.561,-0.099,-0.848,0.670,-0.385,-0.038,-0.661,0.000,0.717,0.520,-0.215,0.280,-0.943,-1.925,-0.868,-0.034,0.658,-0.003
0.275,0.228,0.349,0.278,0.381,0.458,0.045,-0.322,0.461,0.381,0.000,-0.455,-0.365,-0.214,-0.029,-0.054,0.050,-0.155,-0.335,-0.352,0.194,0.299,-0.154,0.146,-0.134,-0.350,0.203,0.721,0.273,-0.423,0.397,0.000,0.175,-0.331,0.186,-0.507,0.028,0.992,0.205,-0.329,-0.425,-0.125,0.370,0.158,-0.057,0.076,-0.288,-0.592,0.031,0.014,-0.082,0.168,-0.000,-0.987,0.005,0.095,0.088,0.256,0.270,0.472,-0.259,0.313,-0.046,0.070,-1.200,0.007,0.357,0.013,0.379,0.354,-0.146,0.469,-0.027,0.000,-0.642,0.288,-0.537,0.452,-0.129,0.278,0.623,0.471,-0.165,0.199
0.467,0.740,0.321,0.856,0.185,0.103,-0.053,0.355,-0.050,0.097,-0.000,0.106,-0.594,-0.106,-0.028,-0.102,0.351,0.414,-0.385,0.414,-0.392,-0.198,0.099,-0.070,0.042,0.163,0.188,0.382,0.222,-0.204,-0.217,-0.000,0.104,0.210,0.121,-0.210,0.370,0.599,0.566,-0.126,-0.545,0.278,0.262,0.055,0.210,0.073,0.208,0.163,0.156,-0.313,-0.072,-0.130,-0.000,-0.269,0.169,0.801,0.175,-0.343,0.336,-0.688,0.061,0.023,-0.200,0.025,-0.333,-0.038,-0.215,0.160,0.281,0.113,-0.290,0.470,-0.192,0.000,0.507,0.556,0.595,-0.398,-0.517,-0.811,0.114,0.301,0.225,-0.213
-0.400,0.788,-0.383,-1.505,-0.056,-0.135,-0.151,-0.449,-0.225,-0.523,0.000,-0.379,-1.110,-0.333,0.165,-0.051,0.340,1.208,0.848,0.804,-0.218,0.362,-0.167,0.565,0.043,-0.074,-0.212,0.107,0.405,0.319,-0.732,0.000,-0.321,-0.065,0.015,0.521,0.479,0.323,-0.495,-0.059,-0.025,0.044,-0.218,-0.829,-0.778,-0.575,-0.733,-0.148,-0.352,-0.192,-0.713,0.157,0.000,-0.658,-0.378,0.344,-0.382,0.801,0.771,0.886,-2.024,0.324,0.225,-0.172,-0.034,-0.217,-0.853,-0.287,0.809,0.550,-0.145,-0.157,-0.453,-0.000,0.707,0.461,0.823,-0.251,-1.745,0.275,-1.364,-0.674,-1.457,-0.733
0.380,0.059,0.165,0.130,-0.436,0.018,0.250,0.500,-0.366,-0.046,0.000,0.254,0.424,0.464,0.011,-0.179,0.468,0.249,0.422,-0.116,-0.862,-0.195,-0.415,0.237,0.415,0.190,0.025,0.804,-0.608,0.193,-0.246,-0.000,0.134,0.128,0.023,0.395,0.540,0.365,0.500,-0.023,-0.901,-0.454,-0.335,0.029,0.112,-0.106,-0.174,-0.200,0.217,-0.127,-0.429,0.018,-0.000,0.309,0.200,0.360,0.164,-0.502,0.270,-0.327,0.236,-0.009,0.210,0.120,-0.561,-0.002,-0.167,0.115,-0.088,0.557,-0.741,0.040,-0.240,0.000,0.407,0.614,0.281,0.335,0.020,-0.861,0.191,0.362,0.142,-0.164
0.443,0.406,1.003,0.796,0.442,0.081,0.398,0.444,-0.032,-0.444,0.000,-0.117,-0.051,-0.764,-0.175,0.019,-0.495,-0.587,0.176,-0.037,0.300,0.671,0.126,0.206,-0.358,-0.696,-0.075,-0.294,0.709,0.168,-0.685,0.000,-0.343,-0.334,-0.362,0.152,0.370,0.173,0.444,0.648,0.017,0.734,0.203,-0.081,-0.015,0.340,0.355,0.307,0.319,0.170,-0.111,-0.732,0.000,0.336,0.301,0.707,0.180,-0.212,-0.127,-0.204,-0.199,0.179,0.015,0.379,0.409,0.044,-0.119,0.375,0.614,-0.090,0.188,0.093,0.215,-0.000,0.004,-0.065,0.273,0.262,-1.639,-0.721,0.485,-0.514,-0.382,-0.032
0.753,-0.521,0.190,0.323,0.092,1.074,0.320,0.594,0.105,-0.353,-0.000,-0.931,-1.028,-0.496,0.552,-0.113,0.326,-0.740,-0.688,0.203,0.206,0.237,0.489,-0.059,0.026,0.108,0.241,-0.209,0.388,-0.331,-0.316,0.000,-0.929,-0.155,-0.732,0.003,-0.340,0.153,0.162,0.609,0.152,0.153,-0.222,-0.597,-0.356,-0.313,-0.761,0.364,-0.218,0.057,-0.412,0.833,-0.000,0.191,-0.207,0.594,-0.216,-0.886,-0.601,-0.861,-0.238,-0.426,-0.841,-0.295,-0.760,-0.069,-1.265,-0.195,-0.253,-1.146,-0.450,-0.465,0.487,0.000,-0.899,-0.429,0.293,0.400,0.457,0.780,0.545,0.360,0.259,-1.514
0.020,-0.174,0.005,0.083,0.140,-0.436,-0.710,0.581,-0.734,-0.159,0.000,0.216,0.448,0.659,-0.235,0.157,-0.137,0.133,0.534,-0.165,-0.340,-0.236,0.108,-0.257,0.555,0.314,-0.243,0.689,-0.318,0.172,-0.104,-0.000,0.607,-0.327,0.057,-0.027,0.624,0.123,0.315,-0.170,-0.187,-0.184,0.248,0.202,0.139,-0.078,0.028,-0.099,0.257,0.032,0.171,0.403,0.000,0.555,0.228,-0.194,0.156,-0.835,-0.286,0.262,-0.044,-0.748,-0.053,0.233,0.218,0.087,-0.685,0.288,0.136,0.449,0.182,0.099,-0.063,0.000,0.613,0.544,0.280,-0.160,0.277,-0.302,-1.075,-0.351,0.120,-0.401
0.169,0.629,0.663,-0.408,0.683,0.904,0.222,0.034,0.473,-0.369,0.000,-1.061,-0.626,0.081,0.407,-0.398,-0.094,0.166,0.107,-0.470,-0.116,0.262,0.103,-0.122,-0.657,-0.172,0.284,0.491,0.424,-0.022,-0.044,-0.000,0.054,0.707,-0.021,-0.119,-0.460,0.046,0.473,0.251,0.422,-0.271,1.021,0.130,-0.174,-0.159,-0.465,0.897,0.085,0.313,-0.612,-0.285,-0.000,-1.201,0.113,0.315,0.105,0.021,0.684,0.529,-0.885,0.140,-0.656,0.126,-0.160,0.458,0.082,0.082,0.326,0.095,0.445,0.053,0.166,0.000,-0.184,0.197,-0.741,0.256,0.116,0.059,0.480,0.617,-0.123,0.268
0.490,0.429,1.085,0.567,-0.873,-0.144,-0.294,-0.150,0.263,-0.193,-0.000,-0.554,-0.945,-0.452,-0.360,0.618,0.250,0.721,-0.023,0.224,-0.396,-0.014,0.110,0.023,0.349,-0.408,-0.010,0.156,0.023,0.007,0.656,0.000,0.410,0.786,-0.421,0.015,-0.462,0.231,-0.270,0.032,-0.184,0.281,0.085,0.731,1.234,0.553,0.636,0.799,0.123,-0.178,0.627,0.121,-0.000,-0.699,0.124,-0.098,0.380,-0.599,0.249,0.328,-0.015,-1.003,0.327,0.074,0.803,0.543,-0.468,0.296,-1.296,0.308,-0.005,0.562,0.203,0.000,-0.042,0.049,-0.572,-0.407,-0.445,0.486,0.887,0.669,0.932,-0.771
0.524,-0.010,0.531,0.597,0.463,0.283,1.094,0.273,0.324,-0.207,-0.000,0.266,0.401,0.185,0.033,-0.224,0.056,-0.664,-0.744,0.224,-0.297,0.201,-0.080,0.267,-0.608,0.250,-0.185,0.140,-0.269,0.452,-0.982,0.000,-0.478,-0.153,-0.006,-0.253,0.572,0.682,0.709,0.323,0.481,-0.382,0.760,0.409,0.526,0.287,0.460,0.146,0.145,-0.266,0.052,0.088,-0.000,-1.797,0.159,-0.446,0.171,0.389,0.217,0.112,0.641,0.385,0.467,0.000,-0.995,0.000,-1.452,0.000,-0.317,-0.076,0.357,0.869,0.280,0.000,-0.663,-0.149,0.400,0.163,0.758,0.776,1.062,0.996,0.117,0.258
0.392,-0.208,0.555,-0.860,0.574,0.179,0.304,0.044,0.099,-0.513,-0.000,-1.200,-0.603,-0.731,0.938,0.271,0.127,0.179,-1.263,-1.083,-0.001,-0.026,-0.754,-0.401,0.764,-0.149,0.477,0.235,-0.079,-1.083,0.381,0.000,-0.013,0.140,-0.345,-0.674,0.224,0.022,0.351,0.937,-0.107,-0.561,-0.418,-0.425,-0.457,-0.396,-0.450,-0.772,-0.153,-1.277,-0.486,0.779,-0.000,-0.952,-0.140,0.792,-0.151,0.173,-0.491,-1.160,-1.194,0.397,1.239,-0.086,0.497,-0.375,-1.179,-0.105,-0.014,-1.859,-0.453,0.548,-0.056,0.000,0.507,-0.567,0.256,0.113,0.165,-0.536,0.670,-0.401,0.649,-1.782
0.802,0.291,0.581,-0.119,0.100,0.440,-0.025,0.412,-0.352,-0.188,-0.000,0.346,0.193,0.353,0.276,0.394,0.406,-0.325,-0.794,-0.480,-0.249,0.086,-0.048,0.028,0.015,0.198,0.679,0.526,0.078,0.259,-0.048,-0.000,-0.078,-0.142,0.374,-0.419,0.420,0.490,0.162,-0.113,-0.405,-0.232,-0.087,0.132,-0.112,0.089,-0.001,-1.225,0.249,-0.062,-0.051,0.385,-0.000,-0.581,0.217,0.236,0.093,-0.102,0.578,-0.163,-0.385,0.331,0.895,0.006,-0.472,0.609,-0.385,0.045,0.652,-0.040,0.138,-0.242,-0.216,0.000,-0.949,1.000,0.633,-0.015,0.033,-0.260,-0.317,0.636,0.738,0.119
-0.429,0.496,-0.241,-0.389,-0.116,-0.400,-0.201,-0.570,-0.149,0.481,-0.000,-0.793,-0.846,0.184,0.241,0.048,-0.168,1.054,0.849,-0.349,-0.273,0.019,0.430,0.142,0.198,-0.639,0.468,-0.057,-0.017,-0.078,0.582,0.000,0.018,0.168,0.106,0.228,-0.209,0.144,0.112,0.100,-0.374,-0.030,-0.354,0.145,-0.373,0.062,-0.324,0.181,0.244,0.303,-0.320,0.747,-0.000,-0.572,0.166,0.286,0.225,0.014,0.331,0.239,-0.281,0.322,0.033,0.183,0.147,-0.145,0.620,0.308,-0.517,-0.156,-0.566,0.721,0.473,0.000,-0.781,-0.301,-0.766,0.493,0.527,0.686,0.181,0.545,0.030,0.425
0.424,0.717,0.178,-0.067,-0.062,-0.464,-0.021,0.549,-0.255,0.140,0.000,0.179,-0.429,-0.094,-0.416,-0.183,0.174,0.583,0.486,0.598,-0.532,-0.280,-0.576,0.091,0.550,0.355,0.075,0.765,-0.166,-0.237,-0.003,0.000,0.457,0.299,0.224,0.106,0.696,0.340,-0.095,0.070,-1.040,-0.328,0.295,0.316,0.283,0.066,0.619,0.274,0.213,-0.132,0.203,0.036,-0.000,0.543,0.236,-0.107,0.293,-0.553,-0.145,-0.484,0.127,-0.534,0.159,0.163,0.122,-0.061,0.004,0.376,0.263,0.320,-0.541,0.261,-0.274,0.000,0.600,0.951,0.636,-0.360,0.322,-0.624,0.062,-0.684,-0.531,-0.759
0.533,0.645,0.459,-0.371,-0.201,-0.130,0.352,0.490,0.616,-0.703,0.000,0.478,0.833,-0.998,-0.615,-0.402,-0.142,0.041,-1.027,-0.423,0.844,0.346,0.174,-0.022,0.326,0.467,0.074,0.295,-0.074,-0.386,0.187,-0.000,-0.337,0.215,0.091,-0.466,0.576,0.136,0.367,-0.561,0.360,-0.355,1.114,-0.058,-0.345,-0.394,-0.523,0.423,0.088,0.173,0.293,-0.363,0.000,-0.544,0.103,0.508,0.222,0.100,0.979,-0.820,-0.346,-0.769,-0.351,0.209,0.100,0.328,-0.889,0.389,-0.737,-0.162,-0.683,0.182,-0.727,-0.000,-0.241,0.918,-0.313,0.406,0.649,0.342,0.461,-0.722,0.751,0.584
0.149,-0.274,-0.623,0.680,0.161,-0.186,0.003,0.055,0.450,0.372,0.000,0.733,-0.242,0.051,-0.146,-0.770,0.073,0.499,-0.104,0.412,0.231,0.211,-1.067,-0.127,0.072,0.669,0.298,-0.064,-0.513,0.484,0.333,0.000,0.394,1.071,-0.051,-0.017,0.138,0.724,-0.862,-0.480,-1.151,0.106,0.596,-0.585,-0.097,-0.168,-0.164,0.292,0.002,0.155,-0.673,0.430,0.000,-0.070,0.007,0.362,0.004,-1.071,0.284,-0.732,0.285,-0.636,0.188,0.017,0.938,0.038,-0.771,0.002,-0.012,0.302,0.522,0.947,-0.201,0.000,-0.022,1.479,-0.931,-0.078,0.127,-0.608,0.182,0.011,0.485,-0.621
-0.081,0.186,-0.016,-1.024,-0.095,-0.044,0.201,-0.472,0.097,-0.275,0.000,-0.250,-0.562,0.113,0.343,0.378,0.265,0.411,0.208,0.312,-0.299,0.158,-0.697,0.130,-0.153,-0.161,0.251,0.350,0.507,-0.067,0.194,-0.000,-0.466,-0.797,0.458,0.228,-0.027,0.058,0.020,0.007,0.067,0.338,-0.111,-0.254,-0.250,-0.106,-0.182,0.239,-0.064,-0.016,-0.325,0.300,-0.000,0.235,-0.089,0.498,-0.100,0.031,0.393,0.459,0.177,0.080,0.089,-0.153,0.016,-0.196,-0.868,-0.170,0.248,0.249,0.223,0.137,0.311,-0.000,-0.028,-0.285,0.167,-0.226,0.057,0.097,0.562,-1.198,0.204,0.243
0.243,0.119,0.028,0.071,-0.083,0.183,0.880,0.106,0.387,0.453,-0.000,0.168,-0.750,0.329,-0.556,0.082,-0.700,0.700,-0.482,-0.397,0.100,0.480,0.823,-0.220,-0.695,-0.522,0.682,0.093,-0.498,-0.247,0.034,-0.000,-0.371,-0.687,0.247,-0.185,-1.445,-0.067,0.656,0.410,0.371,-0.305,-0.024,-0.101,-0.084,-0.219,0.700,-0.265,-0.075,-0.404,-0.268,-0.132,0.000,0.564,-0.066,-1.081,-0.060,-0.115,-0.341,0.671,-0.030,0.122,0.912,-0.364,-0.218,-0.078,-1.909,-0.428,-1.741,0.556,0.403,0.232,0.473,0.000,-0.051,0.301,-1.507,-0.661,-0.131,0.010,0.616,0.454,-0.052,0.863
0.411,0.366,0.063,-0.373,-0.027,0.543,-0.035,0.442,0.012,-0.566,0.000,0.276,-0.504,-0.394,-1.686,0.095,0.492,0.333,0.728,0.339,-0.638,0.183,0.071,-0.012,0.497,0.739,-0.035,0.119,-0.235,0.236,-0.405,-0.000,0.514,0.634,0.395,-0.155,0.540,0.073,-0.112,-0.852,0.079,-0.496,-0.719,-0.249,-0.067,0.163,0.202,0.528,0.282,-0.173,-0.128,-0.658,-0.000,-0.897,0.293,0.545,0.298,0.836,0.263,0.348,0.415,0.508,0.945,0.176,0.099,0.099,-0.521,0.336,-0.163,-0.705,0.172,-0.112,0.830,-0.000,-0.497,0.173,-0.138,0.763,0.549,0.269,0.813,0.207,-0.583,-0.671
0.422,0.284,-0.048,-0.097,0.344,0.435,0.279,0.057,-0.408,0.239,-0.000,-0.118,-0.782,-0.181,-0.194,-0.231,-1.089,0.469,0.402,0.482,0.083,-0.099,0.170,-0.405,0.363,0.423,0.190,-0.081,0.106,-0.215,0.359,-0.000,0.251,-0.675,0.430,0.127,-0.499,-0.048,0.502,-0.074,-0.033,-0.317,-0.089,-0.490,-0.369,-0.260,-0.055,0.443,-0.157,-1.006,-0.559,0.053,-0.000,0.511,-0.154,0.368,-0.173,-0.594,0.298,0.518,0.185,-0.012,0.037,-0.201,-0.785,-0.090,-0.414,-0.257,0.182,-0.471,0.213,0.043,0.009,-0.000,0.239,-0.565,0.621,0.177,0.128,0.310,0.503,0.246,0.249,0.439
-0.715,-0.277,-0.232,0.003,-0.117,0.624,0.663,0.233,-0.674,-1.088,0.000,-0.111,-0.589,-0.618,0.487,-0.028,0.385,0.180,0.420,-0.172,0.250,-0.371,-0.389,-0.749,-0.534,0.366,0.272,-0.073,-0.921,-0.750,-0.154,-0.000,0.521,0.717,-0.268,0.612,0.482,-0.308,0.308,0.009,0.282,0.632,0.303,-0.299,0.360,0.090,-1.407,0.884,0.224,0.456,-0.117,-0.442,-0.000,-0.923,0.250,0.566,0.284,0.306,0.569,-0.081,0.077,0.199,-0.713,0.171,-0.837,0.992,-0.342,0.154,-0.506,0.353,-0.107,-0.077,-0.194,-0.000,-0.149,-0.244,-0.667,0.560,0.157,0.929,0.440,0.508,0.263,0.454
0.024,0.328,-0.033,-0.029,-0.508,0.378,0.404,-0.331,-0.375,-0.276,0.000,-0.980,-0.559,0.366,0.104,0.415,-0.321,0.487,0.442,0.323,0.239,0.013,0.344,-0.245,0.247,-0.004,0.220,-0.657,0.151,-0.017,0.219,0.000,-0.351,-0.001,0.440,0.226,0.046,-0.163,0.004,0.350,0.206,-0.027,-0.035,-0.315,-0.319,-0.224,0.111,-0.986,-0.136,-0.875,-0.471,0.124,0.000,0.589,-0.132,0.430,-0.150,0.629,0.446,-0.008,0.168,-0.007,-0.462,-0.239,0.412,-0.088,-1.401,-0.237,-0.175,-0.418,0.187,0.021,0.538,-0.000,0.230,-0.178,-0.007,0.222,0.302,0.070,0.460,0.057,0.266,0.259
0.249,-0.481,0.037,-0.126,0.223,-0.140,0.317,0.346,0.071,-0.319,-0.000,-0.611,0.177,-0.235,0.177,-0.033,0.126,0.781,-0.737,0.830,0.178,0.021,0.264,0.465,0.232,-0.073,-0.015,-0.087,0.470,0.387,-0.339,-0.000,-0.097,-0.555,0.260,0.304,0.125,0.583,0.252,-0.168,0.286,0.213,0.445,0.163,0.265,0.462,-0.585,-0.587,0.107,-0.262,0.089,0.036,0.000,-0.839,0.111,-0.315,0.153,0.545,0.054,0.971,-1.074,0.596,0.093,0.049,-0.617,0.143,-0.845,0.281,-0.228,-0.862,0.460,0.718,0.280,0.000,-0.637,-0.220,-0.149,0.445,0.098,0.637,0.579,-0.200,0.900,0.484
-0.068,-0.053,-0.200,-0.534,-0.193,0.151,-0.037,-0.329,0.283,0.575,0.000,-1.278,-1.126,0.504,0.438,-0.781,0.258,-0.465,0.142,-0.522,0.578,-0.154,-0.282,0.132,0.342,-0.419,0.436,-0.453,-0.147,-0.302,-0.010,0.000,-0.341,0.209,0.554,0.542,-0.384,-0.640,-0.192,0.481,-0.284,0.852,0.506,-0.508,-0.496,-0.458,-0.628,-0.299,-0.258,-0.140,-0.884,1.072,0.000,-0.964,-0.317,0.213,-0.350,-0.385,-0.076,-0.376,-0.922,0.486,0.310,-0.139,-0.691,-0.052,-0.644,-0.135,-0.507,-0.824,-0.505,-0.028,-0.381,-0.000,1.126,-0.410,0.279,0.889,-0.069,0.350,-1.672,-0.088,-0.563,-1.146
0.376,0.363,0.308,0.301,-0.486,0.621,0.276,0.371,-0.095,-0.206,-0.000,-0.381,-0.073,-0.178,0.253,-0.346,-0.083,0.383,-0.591,0.717,0.017,0.121,0.506,-0.023,0.067,-0.012,-0.454,0.281,0.333,0.244,-0.252,0.000,0.171,0.752,0.437,0.179,-0.093,0.129,0.009,-0.302,0.140,0.156,0.562,0.259,0.740,0.242,-0.284,-0.467,0.331,0.608,0.167,-0.574,-0.000,-1.186,0.328,-0.550,0.567,0.366,0.840,0.492,1.109,0.490,0.110,0.011,-0.931,0.052,-0.760,0.003,0.332,-0.302,0.493,0.819,0.594,0.000,-0.547,0.530,-0.014,-0.528,0.539,0.857,0.963,-0.006,-1.077,-0.017
0.333,-0.467,0.143,0.641,1.054,-1.437,0.369,0.397,-0.182,-1.220,0.000,-0.055,0.884,0.007,0.147,0.418,0.058,0.314,-0.862,0.264,-0.862,0.187,-0.595,0.917,-0.603,0.823,-0.622,0.006,0.046,0.710,-0.111,0.000,-0.454,0.901,-0.450,-0.039,0.503,0.592,-0.332,-0.800,0.119,0.076,-0.837,0.766,0.974,0.260,-0.325,-0.277,-0.273,0.685,0.909,1.043,-0.000,-0.512,-0.213,-0.224,-0.025,0.316,-1.683,-1.345,-0.772,-0.640,-0.247,-0.110,0.708,-0.137,0.857,-0.172,-1.019,0.788,-0.829,-0.725,0.508,-0.000,-0.114,0.694,0.206,-0.070,-0.244,-0.474,-0.691,-0.262,-0.297,-0.338
-1.185,0.653,-0.849,-1.063,-0.499,-0.725,-0.466,-0.027,-1.159,-0.045,0.000,-0.828,-0.766,0.228,-0.397,0.510,0.272,0.952,0.495,0.602,0.296,-0.458,-0.032,0.387,0.350,-0.733,0.334,0.115,0.989,-0.404,-0.671,-0.000,-1.051,-0.118,-0.118,0.561,0.290,0.414,-0.066,-0.445,0.196,-0.094,-0.011,-0.732,-0.541,-0.338,-0.789,-0.153,-0.262,-1.054,-0.565,0.143,-0.000,-0.164,-0.284,0.769,-0.303,0.383,0.817,0.435,0.423,-2.069,-1.065,-0.367,-1.464,-0.460,-1.033,-0.307,0.588,0.297,0.682,-0.122,0.324,0.000,-0.317,-0.037,0.454,-0.599,-0.806,0.440,0.460,0.242,-0.098,-0.208
0.302,-0.302,0.238,-0.803,0.702,-1.037,-0.844,-0.082,-0.180,0.203,-0.000,-0.911,-0.549,-0.904,0.285,0.080,0.628,0.103,-0.178,0.302,0.508,0.169,-0.406,0.455,0.471,-0.384,-0.046,0.011,-0.533,-0.198,0.176,-0.000,0.182,-0.788,0.584,-0.213,0.024,0.401,-0.393,-0.037,-0.024,0.595,0.024,-0.387,-0.389,-0.195,-0.085,0.432,-0.122,-0.302,-0.404,-0.246,0.000,0.487,-0.180,0.463,-0.166,0.689,0.577,-0.947,-0.387,0.322,0.381,-0.337,-0.662,-0.069,-0.822,-0.333,0.333,0.359,-0.577,0.005,0.414,0.000,-0.034,-0.191,0.094,-0.036,0.488,-0.312,0.542,0.621,-0.952,-0.425
0.036,0.594,0.115,0.094,-0.514,0.148,0.167,0.647,-0.118,-0.734,0.000,0.387,0.591,-0.063,0.196,-0.021,-0.103,0.845,-0.692,0.458,0.471,0.113,0.061,0.090,0.274,0.492,0.109,0.232,0.152,0.167,-0.561,-0.000,0.079,0.403,-0.001,-0.060,-0.012,-0.059,0.536,-0.061,-0.054,0.382,0.390,0.302,0.163,-0.230,-0.473,0.343,0.180,0.226,0.583,-0.169,0.000,-0.906,0.159,-0.554,0.119,0.617,0.533,0.197,0.004,0.246,0.382,0.116,0.768,0.327,-1.144,0.343,-0.254,-0.124,-0.388,0.550,0.529,0.000,-0.509,-0.143,-0.216,0.604,0.239,0.422,0.434,-0.125,0.534,0.267
0.540,0.840,1.310,0.642,-0.926,0.020,0.668,0.326,0.276,-0.482,-0.000,-0.029,-0.548,-0.069,-0.827,-0.310,-0.386,0.379,0.338,0.511,-0.745,-0.752,-0.040,-0.294,0.051,0.137,0.508,0.171,0.506,0.152,0.230,-0.000,0.564,1.367,0.703,-0.397,0.199,-0.230,0.145,-0.245,0.080,-0.699,1.071,-0.091,0.687,-0.114,-0.112,0.989,0.026,0.708,-0.101,-0.202,0.000,-1.324,0.029,0.685,0.006,-0.229,-0.040,-0.247,-0.512,-0.058,0.128,0.032,0.758,0.036,-0.815,0.047,0.284,0.592,0.708,0.887,-0.076,0.000,-0.006,0.997,-0.466,-0.324,0.270,-0.195,0.190,0.844,-0.417,-0.427
-0.514,-0.276,-0.169,0.623,0.705,0.050,0.308,0.370,0.479,-0.368,0.000,0.480,0.596,0.633,0.002,-0.447,-0.467,-0.441,-0.535,0.516,0.347,0.387,-1.153,0.473,0.036,-0.132,-0.124,0.396,0.358,-0.398,-0.207,-0.000,-0.398,-0.373,0.160,0.383,0.713,0.388,-0.160,0.146,-0.033,0.219,-0.090,-0.140,-0.219,0.029,-0.031,-0.236,0.214,0.558,-0.292,-0.306,0.000,0.729,0.231,-0.248,0.046,-0.719,0.628,-0.495,-0.249,0.430,-0.213,0.288,-0.147,0.415,-0.406,0.352,-0.587,-0.428,-0.378,-0.271,0.638,-0.000,0.751,0.804,0.058,-0.291,0.368,-1.003,0.181,-0.052,0.300,0.497
0.039,0.088,0.023,0.345,0.620,0.600,-0.111,-0.265,0.159,-1.527,-0.000,-0.961,0.150,-0.520,-0.423,0.283,0.671,0.264,-0.030,0.515,-0.738,0.040,-0.477,0.005,0.699,0.137,0.367,0.371,0.343,-0.124,-0.581,-0.000,-0.408,0.189,-0.198,0.133,0.446,0.259,0.302,0.205,0.032,-0.422,0.146,0.041,-0.232,-0.162,0.665,0.694,0.374,0.356,0.586,-0.571,-0.000,-0.207,0.354,0.578,0.215,-1.447,0.435,0.018,-0.181,0.124,0.352,0.203,-0.193,0.843,-0.504,0.315,-0.717,0.561,-0.710,-0.069,0.643,0.000,0.380,0.748,0.248,-0.402,-0.112,-0.305,0.598,0.380,-0.681,-0.158
0.240,0.436,0.070,-0.043,-0.360,0.005,0.278,-0.705,0.098,-0.176,-0.000,-0.952,-0.749,0.115,-0.235,0.540,0.336,0.616,0.286,0.473,0.114,0.402,-0.026,0.376,0.412,-0.290,0.465,-0.221,-0.245,-0.179,0.297,0.000,-0.726,-0.543,0.543,0.258,0.006,0.042,-0.104,-0.314,0.063,0.344,-0.132,-0.443,-0.415,-0.200,-0.596,-0.155,-0.155,-0.265,-0.341,0.290,-0.000,0.331,-0.176,0.485,-0.174,0.527,0.464,-0.043,-0.711,0.329,-0.908,-0.257,0.418,-0.262,-0.849,-0.269,0.250,-0.384,0.259,0.135,0.378,0.000,-0.193,-0.199,0.533,0.141,0.242,0.242,0.539,-0.307,-1.244,0.141
-0.457,0.359,-0.170,0.364,-1.472,0.116,-0.363,0.069,0.025,0.520,0.000,0.445,0.473,0.030,0.078,0.035,-0.387,-0.009,-0.247,0.418,0.440,-0.423,0.499,-0.230,0.249,0.151,0.569,0.383,0.101,-0.292,0.283,0.000,-0.044,-0.133,-0.136,-0.332,0.183,0.274,0.104,-0.039,-0.073,-0.374,0.187,0.115,0.153,0.246,-0.175,-0.127,0.266,-0.062,0.702,-0.065,0.000,0.303,0.272,-1.688,0.415,0.313,0.045,-1.055,0.159,0.069,0.192,0.357,-0.489,0.106,-1.071,0.364,0.093,0.189,-0.641,-0.034,-0.248,-0.000,0.425,0.080,0.734,0.466,0.238,0.372,-0.519,-0.237,-0.589,-0.101
0.305,-0.254,0.275,0.358,0.417,0.247,0.497,1.053,0.604,-0.176,-0.000,0.115,0.097,0.163,0.224,-0.269,-0.360,-0.487,-1.021,-0.708,0.283,0.038,0.073,-0.002,-0.113,0.339,-0.499,-0.670,0.281,-0.519,0.512,-0.000,0.139,0.109,0.128,0.315,0.281,0.076,0.331,-0.080,0.191,-0.125,0.324,-0.676,0.421,0.094,-0.322,-0.356,0.130,0.069,-0.070,-1.169,0.000,-0.279,0.158,-0.239,0.624,0.276,1.201,0.376,-1.115,0.216,0.050,0.378,-0.545,0.329,-0.581,0.254,0.589,-0.841,0.562,0.017,0.146,-0.000,-0.888,0.614,0.576,-0.432,0.402,-0.521,0.079,-0.117,1.091,-0.126
-0.647,-0.188,-0.292,-0.038,-0.536,-0.593,-0.768,-0.887,0.188,0.271,-0.000,0.141,-0.483,-0.591,0.192,0.162,-0.297,0.692,0.558,0.387,-0.253,-0.047,0.210,-0.339,0.238,0.135,0.115,0.023,-0.307,0.019,0.353,-0.000,-0.555,-0.582,0.636,0.168,-0.010,-0.044,-1.059,0.215,-0.900,0.439,-0.386,-0.223,-0.310,-0.354,-0.368,-1.042,-0.224,-0.641,-0.527,-1.384,0.000,-0.796,-0.197,-0.503,-0.234,0.575,0.945,0.770,-0.095,0.059,0.698,-0.167,0.245,-0.114,-0.499,-0.094,-0.267,0.973,-0.342,-0.036,-0.251,-0.000,0.794,0.618,-0.473,-1.228,-0.849,-1.270,-0.738,-0.329,-1.027,-0.229
0.475,-0.188,0.069,-0.666,-0.669,0.335,0.304,0.599,0.280,0.539,-0.000,0.261,-0.474,-0.117,-0.297,0.277,0.082,-0.097,-0.407,-0.245,0.125,0.026,-0.452,0.538,-0.217,-0.092,0.378,-0.049,0.063,0.442,0.603,0.000,0.444,-0.054,-0.744,0.068,-0.091,-0.274,-0.560,0.112,-0.529,-0.131,0.147,0.523,0.520,0.861,-0.041,-0.078,0.312,0.126,0.330,-0.912,-0.000,-0.573,0.335,-0.666,0.333,0.334,-0.305,0.635,0.523,0.048,0.831,0.119,-0.116,-0.223,-0.470,0.057,0.765,-1.280,0.298,-0.141,-0.118,-0.000,-0.394,-0.742,0.760,0.775,0.349,0.553,-0.086,0.283,-1.028,-0.644
0.327,0.569,-0.142,0.212,0.442,0.395,-0.128,-0.217,0.507,0.177,0.000,-0.041,-0.175,-0.346,0.306,-0.707,-0.021,0.231,-1.409,0.102,0.362,0.371,-0.212,0.584,0.503,-1.090,-0.171,0.291,0.173,-0.200,0.175,0.000,0.647,-0.870,0.088,-0.452,0.676,0.189,0.372,-0.084,0.278,-0.617,0.897,-0.509,-0.350,0.266,-0.147,-1.123,0.112,-0.310,-0.059,0.570,0.000,-0.497,0.072,-0.151,-0.097,-0.048,0.733,0.370,-0.154,0.555,-0.045,0.031,-1.011,0.359,0.403,0.362,-0.444,0.026,-0.131,0.124,0.293,-0.000,-0.556,0.629,0.140,0.210,0.241,0.271,0.259,-0.428,0.621,0.078
0.036,-0.003,-0.075,0.393,0.233,0.274,-0.270,0.038,-0.082,-0.338,-0.000,0.701,0.445,0.209,-0.331,-0.283,-0.628,0.441,0.456,0.309,-0.259,-0.050,-0.126,0.347,-0.034,0.031,0.319,-0.935,0.200,0.262,-0.268,-0.000,-0.059,-0.239,0.504,0.438,0.014,0.473,0.202,0.524,-0.105,0.264,0.024,0.141,0.511,0.456,0.292,0.381,0.248,0.361,0.187,0.093,-0.000,0.148,0.267,0.311,0.278,-0.628,-0.428,-0.571,0.430,-0.001,-0.135,0.370,1.258,0.134,-1.207,0.365,0.163,0.662,0.429,0.089,-0.002,0.000,0.512,0.493,0.143,-0.007,-0.447,-1.421,0.211,-0.049,-0.622,-0.154
0.111,0.208,0.055,-0.038,0.288,0.485,0.354,-0.130,0.145,-0.331,0.000,-1.011,-0.833,0.105,-0.061,0.254,0.310,0.384,-0.778,0.059,0.316,0.039,0.192,0.130,-0.151,-0.109,0.465,0.123,0.066,-0.179,0.313,-0.000,-0.821,0.110,0.677,0.183,-0.594,-0.689,-0.302,0.195,0.217,0.239,-0.658,-0.505,-0.378,-0.274,-0.636,-0.518,-0.179,-0.075,-0.563,0.101,-0.000,0.602,-0.183,0.690,-0.202,0.349,-0.058,-0.123,-0.831,0.564,0.000,-0.184,0.497,-0.072,-1.414,-0.231,-0.098,0.059,0.289,0.143,0.058,0.000,0.183,-0.383,0.465,-0.047,0.357,0.318,0.500,0.255,-1.126,-0.339
0.487,-0.197,0.131,-0.602,-0.662,-0.622,-0.200,0.444,0.245,-0.617,0.000,0.180,0.248,-0.512,0.382,0.002,0.134,0.194,-0.771,0.613,0.575,-0.003,0.088,-0.070,0.079,0.659,-0.057,0.251,0.155,0.406,-0.771,0.000,-0.342,0.448,-0.280,-0.557,-0.339,0.443,0.420,0.473,0.374,-0.241,0.883,-0.418,0.165,-0.325,-0.275,-0.277,0.223,0.120,0.389,0.183,-0.000,-0.619,0.141,0.117,-0.137,0.594,0.640,-0.400,-0.998,0.384,-0.217,0.385,0.566,0.563,-0.584,0.359,-0.803,0.670,0.017,-0.404,0.279,0.000,-0.606,-0.394,-0.266,0.156,-0.040,0.245,0.336,-0.341,0.682,-0.008
0.264,0.483,-0.221,-0.497,-0.116,-0.131,-0.458,0.445,0.239,-0.066,-0.000,-0.619,-0.113,0.294,-0.009,-0.199,-0.488,0.386,0.087,0.649,-0.050,0.254,-0.482,0.394,0.089,0.664,0.444,0.154,0.312,0.413,-0.024,-0.000,0.031,-0.076,0.355,0.135,0.262,0.068,-0.902,-0.122,-1.130,-0.170,0.141,0.017,-0.797,0.228,-0.087,0.390,0.128,0.418,-0.839,0.510,0.000,0.308,0.056,0.665,-0.157,-0.641,0.100,-1.056,-0.542,-0.713,0.118,0.175,0.434,0.088,0.641,0.124,-0.217,0.291,0.520,0.730,-0.348,-0.000,0.632,0.764,-0.654,0.182,-0.031,-1.195,0.105,-0.060,-0.001,-0.019
-0.046,-0.022,0.356,0.208,0.487,-0.507,0.574,-0.118,0.127,0.333,0.000,0.621,0.631,0.437,-0.329,-0.594,-0.199,-0.432,-0.105,-0.274,0.228,0.304,-0.194,-0.127,-0.142,0.218,0.229,-0.020,0.186,-0.188,0.262,0.000,-0.340,-0.091,0.523,-0.017,0.379,-0.263,-0.333,-0.005,-0.205,0.295,0.402,0.108,-0.290,-0.111,-0.327,-0.266,0.250,-0.244,-0.247,0.544,-0.000,0.268,0.229,0.121,0.120,-0.501,0.507,-0.891,0.263,-0.409,-0.083,0.232,0.250,-0.382,-0.357,0.285,-0.248,0.048,0.012,0.177,0.716,-0.000,0.305,0.591,0.031,-0.461,-0.254,-1.051,-0.396,0.065,-0.100,0.738
-0.199,0.548,-0.184,-0.547,-0.591,-0.288,-0.002,0.117,0.275,0.134,0.000,-1.105,-0.812,-0.193,0.442,-0.076,0.517,0.403,0.005,-0.070,0.684,0.424,0.109,0.039,-0.314,0.034,0.753,0.239,-0.326,-0.140,0.361,0.000,-0.091,-0.179,0.447,0.174,0.288,-0.061,0.376,-0.879,-1.189,0.196,0.100,-0.538,-0.597,-0.359,0.082,0.400,-0.220,0.022,-0.597,-0.092,-0.000,0.490,-0.241,0.560,-0.254,0.536,-0.585,0.359,-0.753,0.487,-0.385,-0.230,-0.318,0.005,-0.126,-0.181,0.281,0.130,0.199,-1.108,0.058,0.000,-0.067,-0.328,0.526,-1.167,0.563,0.134,0.710,0.205,-0.548,0.401
-0.244,-0.099,-0.466,0.041,0.808,0.382,-0.738,-0.172,0.261,0.399,0.000,0.747,-0.224,-0.026,0.093,-0.148,-0.455,0.199,0.398,0.766,-0.033,0.485,-0.181,0.317,0.308,0.599,0.240,0.313,0.420,0.201,0.272,-0.000,-0.935,-0.383,0.394,-0.072,0.629,-0.031,-0.100,-0.531,-0.489,-0.038,0.309,-0.064,-0.117,0.763,0.891,-0.154,0.317,-0.121,0.899,-0.201,0.000,0.578,0.343,0.332,0.366,-0.986,-0.463,-1.487,-0.077,0.171,-0.161,0.391,0.285,0.133,-0.500,0.406,0.243,0.254,0.183,0.099,0.325,-0.000,0.721,0.985,0.088,-0.372,-0.225,-1.031,0.011,-0.277,-0.589,-0.133
-0.584,0.131,-0.106,-1.045,-0.366,-0.804,-0.968,-0.502,0.200,-0.099,-0.000,-0.846,-0.767,0.222,0.321,0.014,0.375,0.745,-0.082,0.569,0.687,0.663,0.128,-0.210,-0.145,-0.416,0.239,0.450,0.483,-0.335,-0.024,0.000,0.048,-0.542,0.230,0.585,0.413,0.379,-0.562,-0.313,-0.378,0.635,-0.348,-0.670,-0.589,-0.410,-0.839,0.254,-0.252,-0.234,-0.758,0.074,0.000,-0.125,-0.271,0.496,-0.277,0.753,-0.032,0.668,-0.958,0.207,0.454,-0.211,-0.505,-0.236,-0.881,-0.261,0.649,0.213,-0.372,-0.493,0.417,0.000,0.378,0.323,0.658,-1.188,0.113,-0.040,0.309,-0.581,-0.761,-0.180
0.334,-0.079,0.651,0.314,0.269,-0.249,0.099,-0.020,0.022,-0.237,-0.000,0.569,0.489,0.712,0.072,-0.307,-0.287,-1.587,-0.601,0.144,0.597,0.354,-0.607,-0.445,0.376,0.024,-0.014,-0.279,0.460,-0.282,0.444,0.000,0.111,-0.244,-0.198,0.188,0.023,-0.185,-0.144,0.111,0.102,0.684,-0.259,0.104,-0.188,0.017,-0.196,-0.234,0.259,0.201,-0.434,0.536,-0.000,0.562,0.280,-0.250,0.164,-0.670,0.073,-0.049,0.021,-1.010,-0.087,0.259,0.201,0.234,-0.425,0.156,-0.223,0.246,0.638,-0.187,0.540,-0.000,0.407,0.651,0.508,-0.753,-0.411,-0.940,-0.698,-0.079,-0.182,-0.011
0.625,0.281,0.616,-0.782,0.941,0.146,-0.921,-0.774,-0.201,-0.751,-0.000,0.064,-0.587,0.802,-0.711,0.837,0.637,0.186,0.313,-0.250,-1.656,0.418,-0.426,-0.023,-0.786,-0.798,0.600,-0.747,-0.444,0.259,-0.346,-0.000,-0.775,-0.562,-0.242,0.456,0.410,0.563,0.208,0.468,0.074,1.013,-0.203,-0.481,-0.459,-0.247,-0.714,-0.589,-0.131,0.356,-0.700,0.448,0.000,-0.194,-0.199,-1.211,-0.193,0.754,1.062,0.215,0.455,0.003,-0.078,-0.303,-1.792,-0.438,-1.179,-0.301,0.092,-0.290,-1.204,0.904,0.412,0.000,0.065,0.158,-0.540,0.475,-0.448,0.547,1.111,-0.581,0.676,0.378
0.430,-1.118,0.040,0.247,1.009,-0.248,-0.190,0.217,-0.190,0.344,0.000,-0.791,0.447,0.698,-0.390,-0.427,-0.724,0.605,-0.205,0.622,-0.426,0.372,0.035,0.131,-0.095,-0.617,0.638,-0.485,-0.152,-0.754,0.129,-0.000,-0.056,-0.155,0.175,-0.890,0.400,-0.380,0.958,0.410,0.332,-0.035,1.202,-0.326,-0.483,-0.675,0.771,1.002,0.088,0.676,-0.939,0.570,-0.000,-0.373,0.218,0.163,0.464,-0.642,-0.703,0.285,0.350,0.247,-1.352,0.501,-0.063,-0.309,-0.250,0.618,0.583,0.615,0.059,0.228,0.329,-0.000,0.096,0.895,-0.220,0.279,-0.317,-1.296,-0.366,0.074,0.118,-1.670
0.452,-0.018,0.348,0.076,-0.226,0.202,0.338,-0.018,-0.280,-1.601,0.000,0.091,-0.312,0.147,-0.763,0.715,0.548,0.178,0.550,0.286,-1.320,0.412,0.223,0.414,0.588,-0.145,-0.194,-0.145,0.039,-0.344,-0.821,-0.000,0.867,-0.103,-0.420,0.346,0.124,-0.029,-0.109,0.128,-0.120,0.282,-0.026,-0.028,-0.075,0.177,0.389,0.349,0.362,-0.610,-0.235,-1.301,-0.000,0.258,0.368,0.483,0.393,-0.690,-0.853,0.455,0.113,0.185,0.312,0.332,-0.993,0.751,-0.022,0.368,-0.442,-0.055,-0.025,0.189,-0.208,-0.000,0.686,-0.652,0.708,0.013,-0.299,0.379,-0.062,0.296,-0.389,-0.752
-0.584,0.001,-1.083,-0.709,-0.321,-0.477,0.425,0.259,-0.661,0.095,-0.000,-0.069,-0.584,-0.338,0.433,0.535,0.225,0.832,0.557,0.576,-0.261,0.537,0.036,0.513,0.010,-0.437,-0.075,0.616,0.438,0.190,-0.122,0.000,-0.372,-0.815,-0.294,0.421,0.028,0.195,0.484,-0.404,-0.056,-0.330,-0.004,-0.392,-0.434,-0.343,-0.295,0.528,-0.189,0.063,-0.314,0.020,-0.000,0.434,-0.174,0.653,-0.217,0.049,0.641,0.256,0.405,-1.155,-0.540,-0.304,0.496,-0.167,-1.517,-0.291,0.311,0.357,0.334,-0.629,0.356,0.000,-0.417,-0.223,-0.247,-0.291,0.319,0.478,0.567,0.181,0.291,0.376
-0.407,0.481,-0.439,-1.280,-0.381,-0.086,-0.297,-0.460,-0.537,-0.001,-0.000,-0.262,-0.938,-0.537,0.175,0.656,0.633,0.203,0.810,0.746,-0.207,0.334,-0.206,0.139,0.603,-0.304,0.288,-0.271,0.698,0.002,0.389,0.000,-0.251,0.398,0.462,0.527,0.434,-0.328,-0.361,-0.174,-0.967,0.211,-0.113,-0.680,-0.612,-0.431,-0.672,-0.410,-0.270,-0.253,-0.715,0.511,0.000,-0.441,-0.290,0.372,-0.296,0.440,0.110,0.891,-0.132,0.187,0.285,-0.120,0.041,-0.209,-0.777,-0.070,0.807,0.857,-0.918,-0.411,-0.245,-0.000,0.600,0.266,0.397,-0.319,-0.314,-0.171,-0.264,-0.830,0.380,-0.569
0.238,0.052,0.296,0.454,0.215,-0.477,-0.020,0.288,-0.245,0.358,-0.000,-0.045,0.053,-0.211,0.307,0.072,-0.409,-0.133,0.106,-0.091,-0.239,0.193,0.248,-0.237,-0.268,-0.820,0.033,0.254,0.446,0.017,0.471,-0.000,-0.632,0.130,0.159,0.112,-0.566,0.351,-0.111,0.199,-0.489,0.127,0.106,-0.043,-0.187,0.069,0.170,0.181,0.141,0.229,-0.214,-0.090,-0.000,0.116,0.123,0.484,0.090,-0.079,-0.201,-0.545,-0.112,0.124,-0.040,0.167,0.116,-0.038,0.048,0.097,0.032,-0.099,-0.138,0.391,0.413,0.000,0.185,0.257,0.463,0.021,-0.868,-0.028,-0.119,0.214,-0.630,-0.027
0.674,-0.430,0.387,-0.082,0.213,-0.538,0.286,0.228,-0.039,0.221,-0.000,0.469,-0.434,0.815,-0.079,0.230,0.452,-0.401,-0.351,-0.061,0.320,-0.006,0.245,0.012,0.120,0.375,0.044,-0.083,-0.122,-1.114,-0.236,-0.000,0.498,0.493,-0.012,0.426,0.336,-0.234,0.042,0.414,0.580,0.008,0.530,-0.412,-0.145,-0.385,-0.411,-0.027,0.094,-0.740,0.090,0.059,0.000,-0.301,0.135,0.811,0.253,0.321,0.512,0.107,0.205,-0.307,-0.040,0.413,0.547,-0.221,0.512,0.398,0.784,0.621,-0.453,-0.495,-0.322,-0.000,-1.084,0.156,-0.278,-0.262,0.514,0.060,-0.112,-0.203,0.238,-0.108
-0.433,0.172,0.103,-0.894,0.490,-0.769,-0.046,-0.605,0.294,-0.369,0.000,0.096,-0.904,-0.634,0.733,0.243,-0.121,0.674,-0.394,0.519,0.780,0.394,-0.225,0.096,-0.030,0.023,0.433,0.458,0.208,-0.572,0.278,-0.000,0.249,0.169,0.527,0.445,-0.184,-0.213,-0.251,-0.246,-1.109,0.404,0.141,-0.543,-0.497,-0.393,0.122,0.393,-0.202,-0.028,-0.591,0.356,-0.000,-0.056,-0.253,0.724,-0.266,0.711,-0.400,0.642,-0.015,0.018,-0.277,-0.257,-0.653,-0.533,-1.064,-0.181,0.735,0.241,-0.592,-0.746,0.649,0.000,-0.023,-0.110,0.163,-1.265,0.076,0.177,0.113,-0.180,-0.005,0.543
-0.665,0.247,-0.458,0.003,0.049,-1.508,0.125,-0.823,-0.351,0.190,-0.000,-0.955,-0.583,-0.528,0.237,0.066,-0.181,0.687,0.307,0.598,0.666,-0.131,0.001,0.311,0.218,-0.334,-0.470,-0.552,0.127,-0.359,0.450,-0.000,-0.687,-0.291,0.433,0.041,-0.314,0.080,0.414,0.468,-0.114,-0.240,-0.139,-0.508,-0.487,-0.389,-0.835,-0.184,-0.264,-1.138,-0.563,-0.296,-0.000,0.470,-0.260,0.465,-0.276,0.814,0.503,-0.190,-0.631,-0.899,0.132,-0.392,-1.664,-0.105,-0.402,-0.385,-0.117,-0.254,0.178,-1.047,0.535,0.000,-0.068,-0.548,0.379,0.445,0.694,0.355,-0.075,-0.195,-0.547,0.297
