0.035,0.136,0.129,0.007,0.170,-0.102,-0.051,0.131,0.028,-0.045,-0.161,0.009,-0.165,0.183,0.051,0.120,0.142,0.069,-0.168,0.005,-0.125,-0.104,0.104,-0.035,-0.166,0.013,0.084,-0.081,-0.129,0.021,0.059,0.109,0.039,0.132,-0.006,0.068,0.098,0.166,-0.157,-0.110,0.137,0.171,-0.134,0.065,0.059,-0.142,-0.103,-0.102,-0.130,-0.157,0.025,0.092,0.020,-0.059,0.079,0.057,-0.006,-0.145,-0.180,-0.050,-0.091,-0.108,-0.069,-0.015,0.104,-0.128,0.133,0.010,-0.127,-0.049,0.061,0.158,-0.047,-0.092,0.038,-0.112,0.186,0.033,0.132,-0.116,0.067,0.054,0.124,0.087
-0.090,0.009,0.091,-0.027,-0.058,0.034,0.140,0.024,0.006,0.101,0.042,0.008,0.031,-0.044,-0.017,-0.013,-0.030,-0.111,-0.090,0.105,0.167,-0.123,-0.006,0.128,-0.112,0.050,0.059,0.056,0.136,-0.107,-0.022,-0.100,-0.122,-0.080,-0.107,-0.101,-0.012,0.105,0.137,-0.003,0.144,-0.133,-0.004,-0.067,-0.057,0.039,-0.033,-0.109,0.077,0.116,0.037,0.082,-0.061,0.012,0.162,0.175,0.065,0.126,-0.060,-0.147,-0.066,-0.074,-0.068,-0.042,0.089,0.042,0.029,-0.002,0.019,-0.078,0.061,0.032,-0.010,-0.053,0.092,-0.144,-0.005,0.001,0.000,-0.051,0.006,-0.052,0.173,-0.140
0.104,-0.011,0.097,0.124,0.060,-0.027,0.131,-0.161,-0.097,-0.088,0.158,0.109,0.096,0.007,0.108,0.015,0.155,0.168,-0.017,-0.074,-0.036,-0.098,-0.066,0.140,0.141,0.131,0.070,0.163,0.024,0.138,0.165,0.043,-0.025,0.098,0.113,0.177,0.174,0.045,0.080,0.154,0.004,-0.175,0.068,0.117,0.005,0.165,-0.079,-0.098,-0.078,-0.046,0.036,0.147,0.018,0.172,0.170,0.181,0.006,0.053,-0.077,-0.066,-0.136,-0.126,0.101,-0.129,0.116,0.100,0.059,-0.057,-0.099,-0.105,-0.162,-0.050,-0.139,0.003,-0.085,-0.134,-0.022,-0.022,-0.014,-0.046,-0.046,-0.178,-0.085,-0.166
-0.084,0.156,0.050,-0.016,0.011,-0.113,0.071,0.161,0.118,-0.120,-0.020,0.171,-0.097,-0.101,0.150,-0.163,-0.093,0.167,0.141,0.073,-0.129,-0.143,-0.094,0.046,-0.080,0.089,-0.070,-0.072,-0.024,-0.154,-0.073,0.015,0.050,-0.050,-0.047,-0.048,-0.073,-0.146,-0.058,0.056,-0.156,0.030,0.070,-0.093,-0.020,0.064,-0.112,-0.124,-0.056,0.059,0.084,0.074,-0.135,-0.150,-0.069,0.114,-0.030,0.072,-0.151,0.096,0.083,-0.045,-0.049,-0.035,-0.168,-0.163,0.057,0.014,-0.119,-0.090,0.122,-0.180,0.007,0.180,0.055,0.125,-0.120,-0.031,0.164,-0.152,0.138,0.024,-0.129,0.020
0.028,0.034,0.032,-0.011,0.157,0.107,-0.135,-0.061,-0.123,-0.127,0.043,0.163,0.072,0.116,-0.162,-0.125,0.165,-0.161,-0.028,0.095,0.062,0.099,0.042,-0.176,-0.051,0.134,0.111,-0.164,-0.156,0.177,-0.070,0.128,0.126,-0.131,-0.085,0.022,-0.057,-0.100,0.030,0.091,-0.115,-0.079,-0.104,-0.034,0.018,-0.105,-0.139,0.176,-0.018,-0.083,-0.178,-0.090,0.109,-0.049,-0.027,-0.096,0.066,-0.062,0.069,0.095,-0.101,0.058,-0.082,0.076,0.041,0.119,-0.040,-0.073,-0.098,0.015,-0.173,-0.129,0.002,0.079,0.018,0.167,-0.062,0.164,-0.166,-0.111,0.067,-0.126,0.126,0.150
-0.155,0.065,-0.008,0.022,0.037,0.094,-0.077,0.072,0.023,0.027,-0.147,-0.133,-0.110,-0.001,-0.097,0.066,-0.065,0.091,0.138,0.045,-0.156,0.070,-0.006,0.153,0.061,-0.110,-0.126,0.102,-0.050,-0.144,-0.018,-0.025,-0.046,-0.056,-0.047,-0.015,0.164,-0.125,-0.024,0.169,0.180,0.008,0.099,0.025,-0.113,-0.136,-0.029,0.028,0.106,-0.144,0.141,-0.136,-0.178,-0.173,-0.047,-0.148,0.021,0.127,0.023,0.013,-0.015,0.027,0.117,0.097,-0.017,-0.074,-0.076,0.078,0.059,-0.097,-0.121,-0.122,-0.130,-0.153,-0.042,-0.056,-0.120,0.095,-0.104,0.113,0.157,0.020,0.001,0.010
0.152,0.178,-0.039,-0.081,0.057,-0.046,-0.075,0.098,-0.085,0.003,-0.075,-0.031,-0.013,-0.087,-0.072,-0.160,-0.151,0.080,0.020,-0.016,-0.173,-0.024,0.155,-0.175,0.049,0.119,-0.105,-0.113,-0.163,-0.050,-0.067,0.145,-0.069,-0.092,-0.060,-0.013,-0.008,0.027,0.099,0.117,-0.017,0.058,0.042,-0.004,-0.047,-0.015,0.170,-0.010,0.063,-0.061,-0.142,-0.042,-0.007,-0.081,0.114,0.160,0.168,-0.108,0.040,-0.112,-0.110,0.003,0.015,-0.143,-0.029,0.061,-0.079,0.075,-0.087,-0.147,0.113,-0.111,-0.070,0.035,0.051,0.138,0.053,0.105,-0.161,0.086,-0.164,-0.099,-0.152,-0.112
-0.008,-0.090,-0.099,-0.148,-0.008,-0.129,-0.162,-0.064,-0.178,0.019,0.039,0.071,-0.024,-0.153,-0.110,-0.100,-0.057,0.123,-0.084,-0.130,0.151,-0.051,-0.108,-0.160,0.143,-0.053,0.014,-0.108,0.019,0.033,0.170,0.119,0.129,0.111,-0.163,0.123,0.136,0.157,-0.171,-0.157,0.144,0.084,0.099,0.039,-0.135,0.161,0.080,-0.001,-0.116,-0.016,-0.040,0.090,0.083,0.078,-0.035,-0.018,-0.161,0.102,-0.064,0.040,0.039,0.084,0.011,0.038,-0.006,0.098,0.158,0.070,-0.027,-0.095,0.126,0.053,-0.081,-0.001,0.041,-0.123,-0.068,0.155,0.165,0.130,0.150,-0.135,-0.015,0.156
-0.146,-0.121,-0.074,0.120,0.023,0.107,0.138,0.038,0.110,0.112,-0.152,0.126,0.142,-0.112,0.094,0.131,-0.070,0.157,0.043,0.133,0.147,-0.096,0.051,-0.009,0.065,0.040,0.033,-0.027,0.149,-0.021,0.049,-0.043,-0.167,0.158,0.132,-0.174,0.105,-0.049,0.048,-0.073,0.168,-0.099,-0.072,0.063,0.039,-0.012,-0.077,0.167,-0.022,-0.120,-0.172,0.062,-0.144,-0.008,-0.127,-0.030,-0.144,0.051,-0.020,-0.103,-0.173,0.111,-0.066,0.041,0.068,-0.004,0.048,-0.039,0.148,0.164,0.068,0.133,0.139,0.128,-0.139,-0.124,0.086,-0.180,0.162,0.099,-0.004,0.138,-0.079,0.034
0.175,0.032,0.162,-0.108,-0.080,-0.076,-0.011,-0.179,-0.009,0.163,-0.053,0.054,-0.132,-0.127,0.056,0.119,0.014,-0.116,-0.076,-0.060,0.130,-0.035,0.070,0.115,0.049,0.119,-0.078,-0.055,0.170,0.061,0.027,-0.009,-0.007,0.005,0.177,0.123,0.098,0.098,0.127,-0.002,-0.010,-0.174,-0.099,0.029,0.023,-0.054,0.049,-0.131,0.105,-0.161,0.034,0.131,-0.153,0.122,0.136,0.005,-0.006,0.020,0.163,0.167,-0.046,0.138,0.144,0.007,0.081,-0.004,-0.159,0.176,-0.089,0.161,-0.142,-0.039,0.007,0.101,-0.096,0.125,-0.122,0.039,0.031,-0.130,0.046,0.074,0.113,-0.110
-0.088,0.053,0.146,-0.138,-0.074,-0.096,0.036,-0.172,0.014,0.113,-0.050,-0.061,0.109,0.016,-0.163,-0.084,-0.046,0.140,0.171,0.067,0.037,-0.057,0.124,0.105,-0.061,-0.001,0.011,0.102,0.176,0.092,0.087,0.114,0.130,0.068,0.144,-0.136,-0.134,0.100,0.179,0.114,0.087,0.010,0.170,0.032,0.048,0.166,-0.051,-0.145,0.085,0.160,-0.027,0.058,-0.065,-0.008,-0.088,-0.157,-0.029,0.169,0.061,0.074,0.111,-0.118,-0.078,-0.118,0.169,-0.126,0.145,0.003,0.162,-0.164,0.013,-0.141,-0.091,0.069,-0.155,0.083,-0.092,-0.039,-0.126,-0.050,-0.152,-0.055,-0.107,-0.001
-0.019,-0.149,0.132,-0.169,0.125,-0.016,0.126,-0.082,0.150,0.036,0.082,-0.131,-0.107,-0.051,0.075,0.110,0.028,-0.065,0.054,-0.149,0.117,0.152,-0.070,-0.036,-0.037,-0.065,0.120,-0.058,-0.029,-0.177,-0.177,-0.002,-0.069,0.126,0.051,-0.059,-0.048,-0.179,0.005,0.047,0.082,-0.079,0.103,-0.069,0.181,-0.096,-0.151,-0.145,0.078,-0.010,-0.149,-0.128,0.066,0.034,-0.128,-0.040,0.091,0.145,0.025,-0.127,-0.002,-0.020,0.132,-0.162,0.160,-0.071,0.021,0.123,-0.022,-0.041,-0.123,0.073,-0.102,-0.035,-0.125,0.151,0.031,0.010,-0.159,0.002,-0.111,-0.145,-0.044,0.021
-0.139,-0.045,0.034,0.054,0.039,0.036,0.125,-0.170,-0.126,-0.167,0.143,0.149,-0.116,-0.039,-0.119,0.142,0.153,-0.094,0.149,-0.028,-0.143,0.058,0.136,0.108,0.082,-0.122,0.151,-0.144,0.051,-0.173,0.057,-0.070,0.066,-0.076,-0.148,-0.123,-0.026,-0.066,-0.089,0.138,-0.034,0.034,0.047,-0.099,0.100,0.169,0.155,0.099,-0.080,-0.102,-0.048,0.042,0.028,-0.038,0.121,0.111,0.147,0.012,0.063,-0.144,0.168,0.048,-0.108,0.019,-0.109,-0.060,-0.049,0.144,-0.157,-0.019,-0.041,0.027,0.032,0.088,0.172,0.062,0.025,0.133,-0.130,0.071,-0.165,-0.127,-0.133,0.079
-0.003,0.063,-0.040,0.002,0.049,0.096,-0.165,0.162,-0.017,0.178,0.006,-0.096,0.156,0.038,0.102,0.118,0.070,-0.179,-0.092,0.001,-0.019,0.085,0.025,-0.040,0.017,0.146,0.016,0.107,0.156,0.115,0.146,-0.051,-0.170,0.025,0.130,0.155,-0.103,-0.168,-0.051,0.052,0.015,-0.152,0.157,-0.109,-0.097,-0.060,-0.021,0.141,0.170,0.091,-0.015,0.059,-0.176,-0.138,0.088,-0.047,0.078,-0.168,0.018,0.155,0.127,-0.097,0.044,0.049,-0.158,-0.113,-0.081,-0.029,0.044,-0.009,-0.011,-0.035,-0.157,0.147,-0.004,-0.135,-0.054,0.180,-0.039,0.179,0.165,-0.046,-0.018,-0.116
0.081,0.105,-0.000,-0.135,0.077,0.121,-0.143,0.177,0.162,-0.072,-0.087,0.034,0.009,0.136,0.105,-0.042,0.047,0.016,0.013,0.029,0.111,-0.009,-0.155,-0.031,0.017,0.127,-0.091,0.090,-0.021,-0.164,0.192,0.040,-0.175,0.176,0.088,0.123,0.040,0.176,-0.105,0.118,-0.076,0.068,-0.152,0.161,-0.127,-0.106,0.025,-0.151,0.169,-0.127,-0.095,0.015,-0.143,0.069,0.027,0.137,-0.034,-0.075,0.116,-0.136,0.077,0.132,-0.036,-0.049,-0.146,-0.156,0.173,0.116,0.049,0.033,-0.129,0.070,0.112,0.032,-0.152,0.108,0.170,0.003,0.060,-0.030,-0.168,0.123,-0.041,-0.149
-0.032,0.177,0.166,0.035,0.104,0.033,0.077,-0.136,-0.021,0.113,0.123,-0.153,0.175,0.089,-0.037,0.116,0.112,0.170,0.053,0.046,0.006,0.110,0.071,0.157,-0.161,-0.036,0.170,0.053,-0.128,-0.084,-0.088,-0.124,0.066,0.036,-0.173,-0.107,-0.082,-0.071,0.040,0.046,0.163,0.180,0.083,0.099,-0.144,0.082,0.006,0.056,-0.060,0.150,0.157,0.130,0.176,-0.008,-0.054,-0.130,0.033,-0.133,-0.117,-0.124,0.049,0.115,-0.089,-0.019,0.077,0.007,0.023,-0.054,0.114,-0.133,-0.004,-0.005,-0.167,-0.103,0.087,0.058,-0.114,0.060,0.108,-0.080,-0.027,0.065,0.027,0.143
0.140,-0.151,-0.112,-0.124,0.053,0.011,0.135,0.013,-0.066,0.079,-0.057,0.003,-0.064,0.101,-0.151,0.021,0.162,-0.103,-0.025,-0.099,-0.035,-0.054,-0.079,0.141,-0.061,0.113,0.101,0.163,-0.041,0.046,-0.001,0.052,-0.037,0.110,0.070,-0.113,0.155,-0.117,0.019,-0.035,0.026,-0.143,-0.035,-0.106,0.079,-0.004,-0.122,0.054,0.159,-0.055,0.016,-0.189,-0.056,-0.126,0.088,-0.090,0.012,-0.169,-0.169,-0.072,0.042,0.167,0.155,0.085,-0.154,-0.089,-0.112,0.112,-0.026,-0.133,-0.153,0.073,0.078,-0.139,-0.149,0.152,-0.116,-0.120,-0.033,-0.151,0.068,-0.066,-0.144,0.079
-0.152,-0.105,0.129,-0.029,-0.179,-0.087,-0.162,-0.144,-0.108,0.040,0.111,0.043,-0.091,-0.179,0.075,0.142,-0.047,-0.176,-0.141,0.032,0.029,-0.073,-0.080,-0.117,-0.058,0.059,-0.016,0.102,0.094,0.094,-0.041,0.050,-0.020,0.114,0.139,-0.177,0.100,-0.153,-0.096,-0.007,-0.088,-0.121,0.075,0.032,-0.141,-0.012,-0.020,0.093,0.162,0.096,0.015,0.119,0.091,-0.169,0.149,-0.003,0.149,-0.173,0.091,-0.070,-0.036,-0.078,0.157,-0.090,-0.160,0.078,0.082,0.154,0.137,-0.131,-0.134,0.151,-0.145,0.085,-0.168,-0.114,-0.128,-0.155,-0.067,-0.020,0.047,0.088,-0.149,0.138
-0.121,-0.074,-0.102,-0.079,-0.063,-0.012,-0.031,0.048,-0.131,-0.057,-0.178,0.045,0.017,-0.130,-0.076,0.053,0.100,-0.083,0.068,-0.026,-0.015,-0.149,0.012,0.110,-0.018,-0.096,-0.054,-0.086,0.031,-0.010,0.089,-0.084,-0.002,0.121,0.126,0.047,0.016,0.006,-0.165,-0.139,0.054,0.155,-0.145,0.105,-0.041,-0.037,0.034,0.027,0.080,0.020,-0.142,0.165,0.002,-0.150,-0.083,0.148,0.015,0.165,0.089,-0.026,-0.173,-0.054,-0.103,0.149,-0.031,-0.055,-0.036,-0.147,-0.130,-0.153,0.088,0.042,0.019,0.174,-0.109,-0.038,0.131,-0.111,-0.021,0.119,0.166,0.042,0.015,-0.102
-0.031,0.172,0.120,-0.069,-0.056,0.009,-0.030,-0.019,-0.013,0.035,0.163,0.171,-0.094,0.103,-0.073,0.154,0.114,-0.161,0.069,0.123,0.058,-0.088,-0.073,-0.072,-0.100,-0.171,-0.165,0.060,0.069,0.023,-0.092,0.158,0.164,0.020,-0.016,-0.090,0.142,0.094,-0.065,-0.125,-0.134,-0.179,0.076,-0.079,-0.079,0.003,-0.116,-0.086,-0.111,-0.131,-0.109,-0.040,0.108,0.009,-0.019,-0.041,0.149,-0.083,-0.011,0.072,0.167,0.115,-0.164,0.116,0.014,0.042,0.139,0.037,0.079,0.069,0.041,-0.021,0.118,-0.125,0.148,-0.016,0.025,0.090,0.041,0.098,0.048,0.032,-0.109,0.011
-0.157,-0.076,0.162,-0.150,-0.054,0.137,0.111,-0.055,0.078,0.145,0.158,-0.129,0.020,-0.045,-0.145,0.107,-0.114,0.173,-0.053,0.049,-0.128,0.174,0.153,0.056,0.061,0.072,0.001,-0.142,-0.087,0.080,-0.022,0.013,-0.151,0.139,-0.104,0.103,-0.099,0.163,-0.115,-0.031,0.013,-0.179,-0.171,0.092,0.189,-0.105,-0.076,-0.112,0.136,0.111,-0.011,0.106,0.141,-0.035,0.159,0.167,-0.179,0.070,0.152,-0.144,-0.022,0.119,0.119,-0.060,0.094,-0.016,-0.013,-0.056,0.058,-0.089,-0.127,0.077,0.020,0.132,0.094,0.025,-0.084,0.068,-0.144,-0.126,-0.156,0.052,0.015,0.123
0.105,0.020,0.031,-0.060,-0.095,-0.118,0.098,-0.061,0.108,0.055,0.151,0.124,0.153,-0.160,-0.057,-0.119,-0.099,0.103,-0.163,0.159,-0.033,0.068,-0.037,-0.063,-0.019,-0.135,-0.145,0.057,0.039,0.090,-0.082,0.094,0.021,0.025,0.159,-0.062,0.046,-0.063,0.038,0.186,0.127,-0.170,-0.180,-0.033,-0.116,0.089,-0.095,0.110,-0.097,-0.128,-0.166,-0.024,0.027,-0.023,-0.105,-0.142,0.179,-0.008,0.075,-0.147,0.138,0.130,-0.001,0.133,-0.039,0.163,0.048,-0.154,-0.018,0.092,0.087,0.019,-0.058,0.038,0.025,-0.161,0.114,-0.169,0.047,-0.178,-0.165,0.147,-0.004,0.088
0.046,0.037,-0.095,0.099,0.131,-0.179,-0.020,0.022,0.021,0.079,0.031,0.153,0.087,0.085,0.113,0.134,-0.072,-0.064,0.123,0.124,-0.045,0.121,-0.057,0.028,-0.176,-0.140,-0.022,0.008,-0.081,0.166,-0.056,0.129,-0.162,0.049,0.174,-0.017,-0.004,-0.113,-0.015,0.116,-0.146,-0.001,-0.115,0.130,0.016,-0.049,-0.053,0.057,0.047,0.178,-0.174,0.033,0.173,0.012,0.128,0.135,-0.150,-0.118,-0.032,-0.026,0.092,-0.163,0.100,-0.092,-0.137,-0.126,0.174,-0.123,0.109,0.045,-0.161,0.061,-0.092,-0.110,-0.053,0.152,-0.172,-0.004,-0.154,-0.103,-0.022,0.021,-0.154,0.169
0.075,0.021,-0.014,-0.102,0.044,0.092,0.176,-0.148,-0.078,0.171,-0.139,0.095,-0.081,-0.020,0.073,-0.037,0.128,-0.073,-0.060,0.099,0.053,-0.161,0.070,-0.098,0.087,0.124,0.081,-0.111,0.109,0.170,0.080,0.014,-0.137,0.087,-0.154,0.072,-0.021,-0.024,-0.119,-0.033,0.152,0.009,-0.162,0.093,0.089,-0.086,-0.166,-0.148,-0.066,-0.125,0.133,0.044,-0.066,-0.117,-0.125,0.093,-0.097,0.028,0.131,0.042,0.011,-0.022,0.069,0.058,-0.107,-0.098,-0.139,-0.169,-0.049,0.033,0.137,-0.162,0.055,-0.096,0.076,-0.142,0.052,0.164,-0.121,-0.043,0.098,0.040,0.152,-0.159
-0.043,0.061,-0.039,0.158,-0.021,-0.019,0.097,-0.048,0.049,0.123,-0.135,0.017,-0.058,-0.087,0.012,-0.136,-0.115,-0.071,-0.024,-0.111,0.070,0.099,-0.049,0.151,0.132,0.064,-0.164,0.093,-0.125,0.035,-0.020,0.173,-0.140,0.140,-0.040,-0.008,0.173,0.046,0.151,0.063,0.030,-0.151,-0.150,-0.008,0.042,-0.100,-0.161,-0.029,-0.064,0.122,0.178,0.085,0.020,0.031,-0.129,-0.056,-0.164,-0.019,-0.002,-0.146,0.037,0.006,-0.120,0.011,-0.072,-0.080,-0.122,-0.013,-0.175,-0.174,0.059,-0.053,0.037,-0.112,0.031,-0.177,0.125,-0.026,-0.140,0.007,0.010,-0.068,-0.054,-0.004
-0.180,-0.013,-0.136,-0.009,-0.121,0.154,-0.086,0.010,-0.061,-0.028,0.174,-0.041,0.033,0.156,0.071,0.157,0.174,-0.143,-0.116,-0.098,0.084,-0.094,-0.060,-0.040,0.084,-0.094,0.072,-0.095,0.177,-0.162,0.106,-0.019,-0.158,0.066,0.120,-0.012,0.163,0.120,-0.103,-0.134,0.174,-0.044,-0.052,0.066,0.040,0.039,-0.092,-0.053,-0.157,0.053,0.094,0.133,-0.067,-0.069,-0.108,-0.163,-0.169,-0.173,-0.031,0.057,-0.175,0.173,-0.078,0.171,-0.157,0.096,-0.000,-0.168,0.060,0.034,-0.021,-0.014,0.047,-0.024,0.135,-0.140,-0.113,-0.116,0.043,-0.049,0.023,0.018,-0.158,-0.067
0.060,-0.146,0.119,-0.155,-0.173,0.054,-0.044,-0.085,0.144,-0.067,-0.024,0.181,-0.024,-0.014,0.091,0.062,-0.043,-0.113,0.155,-0.022,0.106,0.113,-0.001,-0.134,-0.132,0.180,0.090,0.142,-0.179,-0.107,-0.073,0.011,-0.128,0.017,0.011,0.131,-0.036,-0.099,-0.144,0.062,0.078,-0.056,-0.148,0.104,0.163,-0.169,-0.157,0.152,0.089,-0.180,0.098,0.190,0.121,0.162,0.153,-0.094,-0.123,-0.107,0.068,0.112,-0.116,0.086,-0.075,0.125,0.056,0.008,0.033,0.009,0.047,0.105,0.101,0.079,0.137,-0.113,-0.144,-0.040,0.129,-0.140,0.158,0.005,-0.177,-0.153,-0.092,-0.003
0.011,0.097,-0.036,0.164,-0.086,-0.051,-0.132,-0.173,-0.115,0.050,0.168,0.006,-0.010,0.102,-0.132,0.020,0.143,0.022,0.006,0.022,0.032,0.103,-0.064,0.115,-0.114,0.073,0.137,-0.120,0.048,-0.013,0.016,0.004,-0.087,-0.059,-0.091,0.061,0.003,-0.147,0.062,0.085,0.094,0.169,-0.023,-0.058,-0.065,-0.110,-0.143,0.114,-0.036,0.020,0.010,-0.003,-0.086,-0.023,-0.122,-0.168,-0.083,0.049,0.095,0.038,-0.060,0.149,-0.154,0.043,-0.131,-0.154,-0.050,0.041,-0.143,-0.060,0.016,0.142,0.179,-0.042,-0.166,-0.024,-0.048,-0.179,-0.054,0.113,0.142,-0.117,0.045,-0.077
0.098,0.131,-0.025,-0.045,-0.115,0.012,-0.039,0.164,-0.042,-0.091,0.116,0.114,-0.094,-0.014,-0.171,0.166,-0.115,-0.009,0.120,0.102,-0.176,-0.125,0.034,-0.176,0.100,0.116,0.161,0.008,0.015,-0.003,-0.157,0.104,-0.149,0.126,-0.095,-0.106,-0.112,-0.010,0.141,-0.031,0.076,-0.042,0.178,-0.109,-0.110,0.040,-0.123,0.153,-0.080,-0.030,-0.125,-0.179,-0.073,-0.135,-0.037,0.138,0.095,0.143,-0.077,-0.140,0.010,0.028,-0.113,-0.166,-0.167,-0.028,-0.132,0.016,-0.065,0.122,0.042,0.144,-0.151,0.059,-0.152,0.132,0.020,-0.164,0.132,-0.044,-0.125,-0.077,-0.129,-0.122
0.030,0.006,-0.015,-0.002,-0.027,0.122,-0.170,0.044,-0.104,0.056,0.179,0.117,-0.117,0.008,-0.062,-0.019,-0.045,-0.065,0.014,0.164,-0.157,0.086,-0.001,-0.024,0.042,-0.004,-0.136,-0.074,0.027,-0.097,0.018,0.032,-0.068,-0.063,-0.147,-0.018,0.036,-0.062,-0.119,-0.113,-0.011,-0.013,-0.157,-0.167,-0.155,-0.142,0.095,0.026,-0.162,-0.077,0.146,0.163,0.143,-0.164,-0.081,-0.119,-0.094,-0.145,0.015,-0.103,-0.016,-0.021,-0.021,-0.124,-0.002,-0.145,0.163,0.113,0.062,-0.010,-0.141,0.099,0.039,-0.154,0.166,-0.047,-0.003,-0.042,-0.079,0.032,0.032,-0.024,-0.010,-0.071
-0.107,0.166,-0.158,0.080,-0.015,0.170,0.177,0.159,-0.121,0.167,0.073,-0.042,-0.138,-0.103,0.107,-0.088,0.019,-0.058,0.019,0.037,0.180,-0.088,-0.096,-0.051,0.072,-0.141,-0.052,0.160,0.156,-0.057,-0.144,0.084,-0.001,0.171,-0.085,-0.106,0.128,-0.063,0.043,0.015,-0.011,-0.065,0.029,0.145,-0.047,0.055,-0.096,-0.007,0.108,0.034,0.004,0.082,0.140,-0.093,0.053,-0.048,-0.179,0.052,0.048,0.113,-0.005,-0.064,-0.033,0.083,0.086,0.123,0.045,-0.176,-0.071,-0.075,0.110,0.003,-0.080,-0.069,0.158,-0.147,0.045,0.139,0.085,0.037,-0.114,-0.126,-0.071,0.123
0.119,-0.124,0.070,-0.140,0.068,0.131,0.075,-0.056,0.068,0.154,0.089,0.146,-0.158,-0.147,0.006,-0.115,-0.147,-0.007,-0.135,0.017,-0.149,0.112,-0.168,-0.044,-0.067,0.079,-0.169,-0.012,0.112,-0.067,0.173,-0.129,0.005,-0.015,-0.040,-0.022,0.124,0.106,-0.146,0.190,-0.029,-0.014,-0.119,0.024,0.016,0.010,0.047,0.103,0.069,-0.116,0.006,-0.123,-0.053,0.046,-0.007,0.057,-0.048,-0.165,-0.129,0.052,0.048,-0.152,-0.006,0.178,0.164,-0.159,0.161,0.044,0.102,0.148,-0.128,-0.139,0.137,-0.110,0.133,0.033,-0.125,-0.159,0.174,-0.004,0.049,0.055,-0.096,-0.159
0.121,-0.012,-0.011,-0.038,0.054,0.070,-0.010,-0.001,-0.132,0.115,0.116,-0.053,0.115,0.175,0.134,-0.080,0.039,-0.054,0.083,-0.063,0.142,-0.019,-0.008,-0.047,0.173,-0.135,-0.163,0.003,0.024,0.143,-0.104,0.016,0.071,-0.049,0.072,-0.127,-0.139,-0.047,-0.153,0.001,-0.108,0.021,-0.030,-0.127,0.182,-0.025,-0.151,0.171,-0.075,0.147,-0.164,-0.164,0.131,-0.139,0.123,0.166,-0.175,0.057,0.149,-0.116,0.075,-0.058,-0.025,-0.000,0.018,-0.086,-0.079,0.113,-0.122,0.049,0.099,-0.129,0.179,-0.086,0.142,0.014,0.086,-0.061,0.150,-0.171,0.102,-0.033,0.030,-0.178
0.156,-0.049,0.019,0.038,-0.006,-0.088,-0.141,0.123,0.058,0.067,-0.042,0.001,-0.151,-0.045,0.179,-0.055,-0.058,-0.040,-0.009,-0.032,-0.080,0.000,0.062,0.004,0.007,-0.085,0.147,-0.036,-0.005,-0.161,0.033,0.097,0.129,-0.166,0.031,0.131,-0.022,-0.037,-0.142,-0.017,-0.112,-0.043,-0.141,0.155,-0.071,-0.031,-0.097,-0.043,0.102,0.088,0.181,-0.050,0.066,0.151,-0.026,0.117,0.043,0.140,0.125,-0.058,0.053,0.128,-0.128,-0.089,0.102,-0.112,-0.114,-0.077,0.032,-0.131,0.005,0.167,-0.019,0.013,-0.014,-0.005,0.087,-0.093,-0.179,-0.156,-0.046,-0.155,-0.027,0.056
0.060,-0.169,0.033,-0.054,0.164,0.128,-0.144,0.036,0.086,0.018,0.088,-0.026,-0.171,-0.021,-0.061,0.099,-0.010,-0.042,0.159,0.144,0.001,-0.035,-0.008,0.161,0.077,-0.149,-0.038,0.065,-0.119,-0.022,0.153,-0.022,0.019,0.126,-0.043,-0.168,-0.176,0.096,-0.031,-0.035,-0.050,0.034,0.094,-0.117,-0.002,0.097,-0.061,-0.136,0.031,-0.158,0.154,0.041,-0.075,0.007,-0.053,0.172,0.054,-0.033,-0.016,0.167,-0.090,0.017,0.060,0.160,-0.179,-0.100,-0.180,0.007,0.139,-0.076,0.099,0.109,-0.149,0.146,-0.122,-0.013,-0.025,-0.056,-0.148,-0.071,0.054,0.160,-0.130,-0.098
-0.135,0.127,-0.081,0.020,-0.111,0.094,0.054,0.059,-0.157,0.090,0.089,-0.035,0.065,0.036,0.014,0.151,-0.181,0.046,-0.030,-0.082,-0.043,0.045,0.081,-0.052,-0.134,0.129,-0.068,-0.016,0.036,0.122,0.150,0.139,0.058,0.146,0.087,0.151,0.075,-0.037,-0.117,-0.022,0.047,-0.152,-0.179,-0.093,-0.192,-0.172,-0.006,-0.129,-0.120,0.130,0.168,0.005,-0.161,0.033,-0.119,0.078,0.127,-0.100,0.021,-0.076,0.068,-0.136,-0.093,-0.019,-0.008,0.063,0.022,-0.012,0.026,0.128,-0.157,0.056,0.112,-0.150,-0.145,-0.029,0.004,0.015,-0.064,-0.175,0.044,0.047,0.145,0.165
-0.126,0.174,0.167,-0.135,0.050,0.147,-0.103,-0.008,-0.171,-0.005,0.014,0.066,-0.060,-0.080,-0.106,0.067,-0.112,0.140,-0.091,-0.113,-0.036,-0.127,0.099,-0.028,-0.051,-0.169,-0.141,0.150,-0.050,-0.139,0.002,0.158,0.024,0.139,-0.159,-0.134,-0.066,0.082,-0.001,-0.165,0.100,-0.047,-0.115,-0.093,0.120,0.087,0.155,0.048,-0.117,-0.029,0.074,0.033,0.023,0.070,0.139,0.036,-0.087,-0.100,0.140,-0.162,0.093,-0.072,0.025,-0.079,0.038,-0.063,-0.085,0.056,0.162,-0.082,-0.008,0.002,-0.068,0.175,0.019,0.058,-0.043,-0.140,0.019,0.028,0.162,-0.104,0.033,-0.113
0.018,-0.146,0.027,0.066,0.143,0.172,-0.105,0.054,0.147,-0.003,0.042,-0.082,-0.121,0.110,-0.118,0.029,0.161,0.100,0.023,-0.118,-0.069,-0.028,0.025,-0.068,-0.170,-0.072,-0.099,0.051,-0.030,0.118,-0.102,-0.085,0.136,-0.183,-0.047,0.060,0.168,-0.006,0.074,0.033,0.014,0.174,-0.124,0.014,0.131,0.111,-0.167,0.106,0.066,-0.014,0.097,0.013,-0.164,-0.156,0.115,-0.067,0.056,-0.149,0.053,-0.152,-0.121,0.113,-0.139,0.005,-0.142,-0.128,-0.156,-0.123,0.136,-0.159,-0.166,-0.095,0.178,-0.135,-0.171,-0.120,-0.100,-0.126,0.125,-0.005,0.133,-0.104,-0.074,-0.071
0.058,-0.172,0.117,0.135,-0.140,0.119,0.102,-0.152,0.060,-0.019,0.039,-0.035,0.057,-0.077,-0.040,0.064,-0.106,-0.037,-0.129,0.011,-0.172,-0.166,0.117,0.033,0.107,0.042,-0.145,0.018,-0.069,-0.043,0.042,-0.024,-0.094,0.158,-0.121,-0.084,-0.083,0.084,0.098,-0.109,-0.104,0.025,-0.026,0.167,0.115,-0.063,-0.172,-0.011,-0.148,-0.025,-0.080,-0.135,-0.122,0.144,-0.167,-0.013,0.153,0.059,-0.129,-0.180,-0.140,0.132,-0.077,-0.092,0.059,0.057,-0.112,0.047,-0.124,0.050,0.149,0.138,-0.173,-0.069,-0.142,-0.008,-0.040,0.168,-0.127,-0.099,0.078,0.011,0.066,0.136
-0.109,-0.161,0.130,0.046,-0.160,-0.065,-0.145,0.162,0.168,-0.166,0.175,0.054,-0.127,-0.109,-0.062,0.136,-0.014,0.057,-0.153,-0.049,0.059,-0.004,0.165,-0.065,0.030,-0.067,0.069,-0.044,0.164,0.146,0.153,-0.023,0.001,0.123,0.134,0.170,-0.030,-0.146,0.044,-0.080,0.178,0.131,0.071,-0.162,0.125,0.091,0.003,-0.173,-0.042,-0.117,0.074,0.134,-0.098,0.141,0.114,-0.102,0.007,0.068,-0.046,-0.056,0.044,0.039,-0.044,-0.167,-0.062,-0.074,0.063,-0.121,-0.147,0.071,-0.012,-0.011,0.109,0.114,-0.052,0.124,0.129,-0.172,-0.007,-0.079,0.014,0.017,0.073,0.018
-0.013,-0.124,0.146,0.159,-0.015,0.048,-0.098,-0.023,0.156,-0.080,0.057,0.137,0.051,0.097,-0.101,-0.161,0.032,-0.017,-0.042,-0.147,0.087,-0.005,0.071,-0.062,-0.148,-0.052,0.152,0.083,-0.048,0.000,0.120,0.152,-0.141,0.013,0.030,0.144,0.048,0.024,0.102,0.146,-0.097,0.114,0.102,-0.064,-0.035,0.027,0.137,-0.139,-0.090,-0.093,-0.164,0.063,-0.003,-0.037,-0.077,-0.005,-0.126,-0.026,0.172,-0.071,0.042,0.014,-0.176,-0.165,-0.135,0.141,0.077,0.146,0.019,0.102,-0.154,-0.018,0.064,-0.072,-0.160,0.157,0.144,-0.178,-0.043,-0.038,-0.073,-0.069,0.061,-0.050
-0.060,-0.124,-0.141,0.130,-0.135,-0.032,0.078,-0.119,0.079,0.040,0.082,-0.099,-0.016,0.112,-0.083,0.041,-0.113,0.084,-0.139,-0.164,0.088,-0.014,-0.118,0.036,-0.146,-0.163,-0.023,-0.160,-0.036,0.160,0.136,-0.145,-0.138,-0.044,-0.103,0.139,-0.174,0.105,0.117,0.023,0.097,-0.170,0.062,0.038,-0.085,0.147,0.099,-0.049,0.072,-0.039,0.010,0.006,0.032,0.039,0.054,-0.120,-0.127,-0.165,-0.062,-0.172,0.104,-0.077,-0.144,-0.007,-0.145,0.093,0.154,-0.031,-0.054,-0.073,-0.019,-0.172,0.071,-0.100,-0.118,-0.129,-0.143,-0.000,-0.055,-0.111,0.033,0.094,-0.025,-0.017
0.014,-0.176,-0.000,0.066,0.140,0.023,-0.044,0.074,0.125,0.031,0.074,-0.146,-0.099,-0.124,-0.058,-0.016,0.040,0.048,0.073,-0.114,0.080,-0.010,-0.089,-0.049,-0.076,0.133,-0.120,0.178,0.058,-0.106,0.082,0.175,-0.167,0.164,0.049,0.143,0.141,0.109,0.164,0.076,0.034,0.027,0.176,0.007,-0.054,0.144,-0.105,0.174,-0.158,0.134,0.072,-0.111,0.135,-0.133,-0.122,-0.093,0.148,0.138,0.035,0.054,-0.121,-0.172,0.127,-0.014,0.061,-0.038,0.141,0.004,-0.173,-0.034,-0.044,0.113,0.150,0.175,0.109,-0.144,-0.151,-0.035,0.162,-0.114,-0.060,-0.064,0.139,0.017
-0.136,-0.168,-0.115,0.132,-0.151,-0.124,-0.112,0.150,-0.150,0.125,-0.086,0.111,-0.151,0.161,-0.115,-0.080,0.075,-0.128,0.125,0.121,-0.095,0.081,-0.083,-0.147,-0.004,0.015,-0.121,-0.128,0.017,-0.078,0.123,-0.116,0.136,-0.062,0.018,0.159,0.168,-0.040,0.028,-0.120,-0.146,0.121,-0.024,0.131,-0.089,-0.044,0.029,-0.129,0.059,-0.169,-0.078,0.059,-0.022,0.177,0.118,-0.064,-0.160,0.151,-0.074,-0.039,-0.110,0.019,-0.116,-0.063,-0.092,-0.165,0.170,-0.178,-0.129,0.144,-0.155,-0.153,-0.155,-0.067,0.015,-0.110,-0.126,0.078,0.069,-0.090,-0.073,-0.034,-0.031,-0.164
-0.080,0.111,-0.135,-0.075,0.179,-0.066,0.079,0.125,-0.048,-0.053,-0.008,-0.089,0.173,-0.147,0.097,0.003,-0.025,0.064,-0.086,-0.111,0.117,-0.087,-0.073,0.171,0.105,0.019,0.034,0.005,0.088,0.155,-0.147,-0.006,0.084,0.170,-0.091,-0.039,-0.015,-0.170,-0.021,0.005,0.076,0.045,0.114,0.103,0.043,0.020,-0.096,0.116,0.122,0.142,0.110,0.137,0.056,0.096,0.165,-0.167,0.053,0.039,-0.079,0.095,0.132,0.041,0.129,-0.107,-0.096,0.068,-0.099,-0.065,-0.087,-0.157,0.053,0.016,0.031,-0.011,-0.015,0.116,-0.072,-0.150,-0.084,-0.006,-0.025,0.115,0.079,-0.101
-0.170,0.051,-0.163,0.021,-0.171,0.115,-0.065,0.159,-0.143,-0.016,-0.113,-0.105,0.017,0.074,-0.088,-0.041,0.073,-0.173,0.005,-0.151,-0.159,0.057,-0.042,0.069,0.033,0.097,-0.097,-0.086,-0.077,-0.118,0.107,-0.056,0.067,-0.179,0.008,0.099,0.016,0.119,-0.171,0.027,-0.114,-0.162,-0.135,-0.049,0.105,0.075,0.138,0.121,-0.122,0.001,0.013,0.092,-0.014,-0.164,-0.044,0.138,0.033,-0.161,-0.073,0.045,0.083,0.034,-0.059,0.141,-0.050,-0.087,-0.040,-0.024,0.087,0.051,-0.116,0.095,0.010,0.167,0.036,-0.053,-0.132,-0.083,0.072,0.162,-0.019,0.087,-0.003,0.029
0.069,0.055,-0.178,-0.036,-0.095,0.158,-0.179,-0.062,0.138,0.174,-0.033,0.129,-0.171,0.018,0.063,-0.128,0.127,-0.048,0.170,0.113,-0.097,-0.162,-0.093,0.109,-0.017,-0.091,0.066,-0.051,0.176,0.150,0.046,-0.064,0.035,-0.006,-0.115,0.159,-0.066,-0.120,-0.040,0.064,-0.026,-0.065,0.141,0.098,-0.068,0.044,0.094,-0.131,0.050,-0.095,0.016,-0.073,-0.142,0.043,-0.163,0.139,0.146,0.020,0.124,-0.010,0.003,-0.081,0.069,-0.067,0.129,-0.087,0.173,-0.030,0.077,0.154,0.084,0.064,0.005,-0.107,-0.030,-0.100,-0.088,-0.154,-0.103,0.031,-0.054,0.163,-0.158,-0.070
-0.120,0.087,0.009,-0.052,0.169,-0.130,0.087,0.179,0.144,0.090,-0.023,-0.151,0.075,-0.151,0.108,-0.129,-0.060,0.179,0.016,-0.128,-0.112,0.085,-0.041,-0.062,0.161,-0.169,0.061,0.147,0.144,-0.131,-0.117,0.002,-0.090,-0.175,0.122,0.176,0.067,0.125,0.078,0.025,0.090,0.089,0.178,-0.002,0.162,-0.175,-0.061,-0.111,0.165,-0.075,-0.105,-0.127,-0.119,0.091,-0.031,0.129,0.025,0.044,-0.100,-0.081,-0.146,0.082,-0.033,-0.024,0.012,-0.007,0.090,-0.178,0.086,-0.033,-0.016,0.166,0.182,0.038,0.136,0.023,0.132,0.056,0.022,-0.136,0.072,0.084,-0.043,0.005
0.119,-0.153,-0.092,-0.097,-0.128,-0.149,-0.165,-0.081,-0.128,-0.132,-0.069,-0.157,0.060,-0.130,0.003,0.092,0.014,0.074,0.137,-0.032,0.085,-0.080,-0.077,0.023,-0.130,-0.021,-0.054,-0.127,0.061,0.116,0.067,0.076,0.109,-0.164,-0.177,0.030,0.091,0.028,-0.110,-0.023,-0.056,-0.039,-0.118,-0.046,0.185,-0.091,0.092,-0.040,-0.178,-0.142,0.137,-0.040,0.178,-0.171,-0.116,-0.102,-0.050,-0.019,0.028,0.140,0.036,-0.010,0.025,0.147,-0.021,-0.132,-0.032,0.174,-0.019,0.116,-0.148,0.075,-0.076,0.022,-0.054,0.074,-0.023,-0.145,0.009,-0.060,-0.169,0.043,-0.125,-0.180
0.178,0.010,0.131,-0.032,-0.166,0.070,-0.020,0.032,0.179,-0.050,-0.064,0.032,0.094,-0.022,0.056,0.041,0.137,0.117,-0.177,-0.075,0.037,-0.140,-0.123,-0.081,0.089,0.036,0.105,0.047,-0.092,-0.093,-0.126,0.010,-0.008,-0.117,-0.076,0.054,-0.159,-0.128,-0.062,0.098,-0.084,0.137,-0.119,0.052,-0.042,0.011,0.031,0.179,0.156,-0.163,-0.022,0.095,0.011,0.081,0.025,-0.150,-0.157,0.087,-0.077,-0.124,-0.021,-0.076,0.047,0.021,0.075,-0.111,0.077,0.052,-0.018,-0.006,-0.050,0.124,0.123,-0.051,-0.154,0.053,-0.020,-0.139,-0.157,-0.003,0.002,0.160,0.085,-0.175
-0.055,0.007,-0.141,0.147,0.039,0.159,0.104,-0.109,0.113,0.026,-0.011,-0.022,0.011,-0.061,0.115,0.178,-0.159,0.079,0.138,-0.137,0.032,-0.055,0.028,-0.021,0.072,-0.159,-0.061,0.087,0.046,0.125,0.070,0.038,-0.147,-0.013,-0.143,-0.039,0.124,-0.163,0.121,-0.051,0.070,-0.057,-0.168,-0.171,-0.045,0.043,0.017,-0.116,0.044,-0.054,-0.039,0.086,0.110,0.087,-0.034,0.045,-0.032,-0.081,0.154,0.019,-0.099,-0.142,-0.059,0.089,0.071,-0.061,0.102,0.154,0.062,-0.040,0.103,0.009,-0.006,0.054,0.003,-0.072,0.146,0.041,0.105,0.000,-0.139,0.181,-0.153,-0.086
0.010,-0.011,0.152,0.094,-0.173,0.092,0.038,0.006,-0.117,-0.064,-0.092,-0.166,0.107,0.128,-0.125,-0.047,-0.108,0.137,0.101,-0.128,0.087,0.104,0.047,0.174,0.004,0.064,0.158,-0.067,0.102,-0.130,0.094,-0.033,0.123,-0.174,0.150,-0.004,-0.085,-0.067,-0.172,0.077,-0.146,-0.147,0.074,0.173,-0.174,-0.017,0.173,-0.060,-0.005,-0.040,0.054,-0.145,0.108,0.135,-0.033,-0.073,0.152,0.059,0.072,-0.098,0.047,-0.165,0.147,-0.057,-0.132,0.019,0.103,-0.091,0.099,-0.080,-0.171,-0.119,-0.094,-0.053,-0.048,-0.169,0.161,-0.112,-0.013,-0.093,0.180,-0.159,0.116,0.039
0.165,0.179,0.013,0.154,0.151,-0.050,-0.079,0.151,-0.168,0.110,0.110,-0.085,-0.049,0.105,-0.069,-0.009,-0.001,-0.036,0.053,-0.069,0.120,-0.157,-0.045,0.021,-0.152,-0.014,0.156,0.032,0.085,0.169,0.174,0.140,0.041,0.030,-0.179,0.117,-0.144,0.137,-0.011,0.141,0.146,0.164,0.051,0.003,-0.135,0.120,-0.155,-0.045,0.126,-0.082,0.117,0.009,0.163,0.106,0.173,-0.066,-0.159,0.021,-0.001,-0.079,-0.148,0.037,-0.139,0.063,-0.143,-0.002,0.074,0.111,-0.053,-0.015,-0.028,0.034,-0.061,-0.080,-0.128,-0.113,-0.142,-0.004,-0.033,-0.086,-0.106,0.017,-0.105,-0.011
-0.125,-0.022,-0.004,-0.090,0.012,0.041,-0.120,-0.151,0.085,-0.020,-0.133,-0.113,0.135,-0.111,-0.081,0.134,-0.034,0.043,0.155,0.066,0.103,0.044,0.001,-0.122,0.099,0.056,-0.150,0.037,0.007,0.030,-0.132,-0.117,0.093,-0.036,-0.069,-0.022,0.132,0.004,-0.179,-0.012,0.097,-0.094,-0.168,-0.087,-0.109,0.168,-0.008,-0.077,-0.091,0.077,0.169,-0.085,0.073,0.018,0.034,0.070,0.133,-0.124,-0.011,-0.099,0.079,-0.035,-0.026,0.017,-0.032,0.096,0.082,-0.101,-0.150,-0.137,0.164,0.146,-0.074,0.048,-0.078,-0.041,-0.119,-0.006,-0.072,0.143,-0.081,0.132,0.168,-0.056
-0.176,0.130,0.047,-0.124,-0.144,0.122,-0.033,0.006,-0.166,0.048,-0.062,0.096,-0.132,-0.121,-0.001,-0.165,0.071,-0.152,0.074,0.022,0.091,-0.031,-0.188,0.118,0.061,0.129,-0.010,-0.060,0.163,0.135,0.070,0.102,0.038,0.162,0.116,0.051,-0.093,0.020,0.086,-0.081,0.180,0.093,-0.068,0.056,-0.072,0.087,-0.048,0.091,-0.046,-0.144,0.027,0.148,-0.097,0.076,-0.019,0.132,0.071,-0.101,0.051,0.171,0.022,0.145,0.097,-0.175,-0.023,0.158,-0.002,0.045,0.048,0.146,0.097,-0.069,0.118,0.141,-0.161,-0.033,0.093,-0.056,0.103,0.102,-0.171,0.015,0.145,0.134
-0.020,0.101,0.084,0.180,-0.062,0.053,-0.056,0.083,0.181,0.126,0.083,0.031,0.128,-0.040,-0.042,-0.162,-0.056,0.101,-0.044,0.041,0.141,0.022,-0.065,0.051,-0.165,0.069,-0.117,0.014,-0.144,0.045,0.011,-0.037,0.159,0.158,0.115,-0.154,-0.108,-0.159,0.114,-0.125,-0.133,-0.017,-0.089,0.179,-0.169,-0.143,-0.109,-0.110,0.180,0.135,0.016,0.123,-0.168,0.024,-0.062,-0.114,0.004,0.066,0.144,-0.105,-0.045,0.079,0.029,0.001,-0.112,0.048,-0.112,-0.018,-0.090,0.174,0.026,-0.124,-0.101,-0.166,0.147,0.158,-0.106,-0.091,-0.147,0.139,-0.174,-0.079,-0.055,-0.146
0.059,-0.163,-0.107,0.052,-0.073,0.097,0.101,0.043,0.175,-0.179,-0.065,0.125,0.101,-0.120,-0.138,-0.067,-0.115,-0.031,-0.114,0.145,0.098,-0.034,-0.139,0.044,0.031,0.125,-0.178,-0.063,0.042,0.082,0.075,0.017,0.143,0.047,-0.005,-0.163,0.140,0.155,0.116,-0.095,-0.140,-0.116,0.103,0.111,-0.158,-0.117,0.013,0.174,0.020,0.131,0.110,0.088,-0.090,0.137,-0.114,-0.115,0.076,-0.041,-0.047,-0.131,-0.167,0.031,0.029,-0.033,-0.074,0.172,0.072,-0.062,0.047,0.127,0.054,-0.000,0.054,0.139,0.115,-0.048,0.145,0.180,0.025,0.059,0.040,-0.057,-0.048,-0.084
-0.150,-0.170,0.106,0.015,0.137,0.167,-0.055,-0.064,0.018,0.004,-0.083,0.068,0.150,-0.025,0.041,0.026,-0.035,-0.128,0.037,-0.032,-0.131,-0.093,-0.162,0.029,0.175,0.115,0.102,0.151,0.002,-0.137,0.111,0.019,-0.098,-0.151,-0.052,0.032,0.031,-0.040,-0.101,-0.022,0.048,-0.048,-0.121,-0.064,0.150,0.178,0.127,-0.034,0.063,-0.057,0.162,-0.023,-0.146,0.091,-0.035,0.043,-0.111,-0.021,0.006,-0.105,-0.157,0.142,-0.088,-0.043,0.046,0.058,0.150,-0.101,-0.006,0.035,-0.060,-0.043,-0.134,0.166,0.158,0.109,-0.019,0.118,0.109,-0.017,-0.085,-0.128,0.095,-0.084
0.046,-0.092,-0.046,0.147,0.123,0.094,0.085,-0.087,0.104,0.133,-0.065,-0.138,0.014,0.062,0.096,-0.114,-0.044,0.012,0.112,0.124,0.103,0.059,0.169,0.025,0.104,0.124,0.169,-0.173,0.168,-0.050,-0.093,0.123,-0.149,-0.116,-0.148,0.121,-0.173,-0.096,-0.138,-0.102,-0.125,0.143,0.127,0.008,0.101,0.015,-0.141,0.177,-0.095,0.045,-0.111,-0.082,-0.149,-0.106,0.023,0.053,0.025,0.097,-0.052,0.108,-0.067,-0.004,-0.175,0.057,0.095,-0.074,0.046,0.014,0.039,0.079,0.124,0.131,0.077,0.156,-0.044,-0.044,0.106,0.166,-0.130,-0.102,0.095,-0.093,-0.068,-0.095
-0.031,-0.015,0.109,0.147,-0.068,0.153,0.180,-0.132,-0.159,-0.169,-0.013,-0.030,-0.055,-0.086,0.021,-0.070,0.158,-0.145,-0.075,-0.060,0.010,-0.168,0.021,0.147,-0.164,0.139,-0.068,-0.021,0.099,0.145,-0.102,0.142,0.048,-0.107,-0.090,0.142,-0.077,0.098,-0.105,0.153,-0.159,-0.088,0.001,0.038,0.098,-0.052,0.057,0.102,-0.096,0.045,0.181,-0.030,0.021,0.008,0.033,0.061,0.125,0.046,0.101,-0.075,0.169,0.090,0.070,0.097,-0.040,-0.157,-0.038,-0.139,0.168,0.067,0.042,-0.109,0.012,-0.172,0.049,0.123,0.170,0.179,0.149,0.037,0.035,-0.051,-0.024,-0.064
-0.057,0.076,0.001,-0.032,0.024,0.009,0.173,-0.179,0.042,-0.044,-0.011,-0.062,0.173,-0.138,-0.005,0.167,0.014,0.116,-0.174,0.100,0.048,-0.078,-0.032,0.169,-0.022,-0.065,-0.153,0.015,0.093,0.006,0.174,0.160,-0.046,0.056,0.117,0.087,-0.140,-0.158,0.164,0.047,0.083,-0.101,0.177,-0.085,-0.144,0.044,0.016,-0.103,-0.105,-0.052,-0.086,0.097,-0.070,-0.180,0.142,-0.114,-0.156,-0.114,0.076,0.078,-0.148,0.044,-0.158,0.120,0.173,0.084,-0.127,-0.148,-0.177,0.077,-0.123,0.147,0.020,0.063,0.076,0.159,-0.057,-0.155,-0.141,-0.124,0.120,-0.067,-0.031,0.044
-0.118,0.073,-0.137,-0.118,-0.015,0.102,0.036,0.036,0.109,0.005,-0.165,0.104,0.159,0.024,0.010,-0.100,-0.094,-0.109,0.047,0.052,0.136,0.131,-0.130,0.068,-0.094,-0.128,-0.076,0.134,0.068,0.000,0.037,0.056,-0.016,0.001,0.034,0.156,-0.069,0.126,0.135,0.040,0.163,-0.150,-0.110,0.175,0.134,0.097,0.103,-0.019,0.072,-0.120,-0.151,-0.012,-0.168,-0.178,-0.101,-0.044,0.103,-0.080,0.010,0.109,-0.085,-0.099,0.004,-0.110,0.104,-0.105,-0.095,-0.162,0.046,0.147,0.153,-0.101,-0.083,-0.067,-0.023,0.061,0.055,-0.179,-0.156,-0.072,0.151,0.001,0.112,-0.015
-0.167,-0.110,-0.133,-0.111,0.057,0.145,-0.130,0.051,0.156,0.135,-0.070,-0.007,-0.047,0.092,-0.161,-0.178,0.171,-0.158,-0.088,0.172,0.049,0.035,-0.098,-0.050,-0.074,0.004,0.022,0.077,-0.133,-0.147,0.051,-0.149,0.033,-0.069,-0.011,-0.116,0.173,0.133,-0.038,-0.094,-0.121,-0.114,0.024,0.178,-0.035,-0.068,0.178,-0.096,-0.154,0.128,-0.108,0.116,-0.098,-0.059,-0.016,0.054,-0.083,-0.137,-0.165,-0.165,-0.082,-0.135,0.044,0.085,0.111,-0.040,0.110,0.047,-0.032,-0.084,0.012,-0.150,0.142,-0.116,0.055,0.076,0.153,-0.049,-0.138,0.041,-0.156,-0.123,0.038,0.048
-0.088,-0.039,-0.058,0.123,-0.090,0.048,0.039,-0.160,-0.137,-0.125,-0.076,-0.153,-0.077,0.054,0.100,0.045,0.056,0.024,0.012,-0.008,0.125,0.159,0.106,0.071,0.170,-0.135,0.040,-0.009,0.012,-0.058,0.140,-0.126,-0.019,-0.105,-0.089,0.167,0.001,-0.065,-0.141,-0.129,-0.072,-0.147,0.006,0.114,0.010,0.135,0.072,0.106,0.087,-0.112,0.109,0.045,-0.175,0.054,-0.072,-0.127,-0.173,-0.136,-0.103,0.144,0.052,0.076,0.047,-0.171,-0.035,0.079,0.022,0.053,-0.063,-0.009,-0.066,-0.123,-0.060,0.162,0.151,0.080,0.138,-0.009,-0.036,-0.032,0.009,-0.146,-0.112,0.155
0.134,-0.165,-0.018,-0.009,0.139,-0.033,0.025,-0.018,0.036,-0.174,0.032,0.034,-0.067,0.073,-0.016,-0.115,0.138,0.148,-0.159,0.057,0.021,-0.006,-0.109,0.059,0.149,-0.108,-0.076,-0.113,-0.169,-0.128,0.083,0.014,0.163,-0.107,0.177,-0.112,0.058,-0.001,0.163,-0.012,0.064,-0.054,0.133,-0.144,0.137,-0.004,-0.116,0.072,0.169,0.137,0.031,0.100,0.061,0.040,-0.148,0.076,0.172,0.053,0.003,-0.036,0.069,-0.069,-0.105,0.002,-0.166,0.131,0.068,-0.052,-0.039,0.117,0.121,-0.124,0.055,0.162,-0.106,0.043,-0.110,0.095,0.075,-0.084,-0.071,0.110,-0.087,-0.007
0.056,-0.046,0.084,0.120,0.102,-0.028,0.089,0.177,0.087,0.162,0.141,-0.031,0.180,0.043,0.035,-0.098,0.175,-0.093,-0.046,0.071,0.001,-0.116,0.083,0.169,-0.160,0.150,-0.071,0.022,0.116,0.117,0.183,0.179,-0.130,-0.002,0.156,-0.077,-0.085,0.006,-0.065,-0.111,-0.094,0.125,-0.028,0.065,-0.138,0.115,0.039,-0.034,0.079,0.074,-0.037,0.029,0.149,-0.117,-0.085,0.109,-0.165,-0.170,0.150,0.115,0.070,-0.048,0.101,0.014,0.181,0.147,0.126,-0.032,0.103,0.036,-0.014,0.171,0.113,0.049,0.034,-0.178,0.174,0.147,0.131,0.138,-0.091,-0.014,-0.077,0.052
0.009,0.013,-0.153,-0.076,0.081,-0.120,0.090,0.061,0.092,-0.160,-0.126,0.045,-0.025,-0.140,-0.037,-0.056,-0.132,0.023,-0.178,-0.084,-0.162,-0.175,-0.137,-0.011,0.156,-0.143,-0.066,-0.023,-0.011,0.121,-0.082,0.004,-0.120,0.046,0.159,0.164,-0.051,-0.138,0.167,0.015,-0.107,-0.032,-0.019,-0.012,-0.162,0.085,0.075,-0.150,0.002,0.045,-0.117,-0.160,-0.084,0.062,0.154,-0.125,-0.034,-0.145,0.014,-0.022,0.064,-0.004,-0.105,0.172,0.083,-0.138,-0.143,0.118,0.171,-0.021,-0.100,-0.172,0.015,0.123,-0.088,0.033,-0.051,-0.026,0.022,0.095,-0.055,-0.059,-0.011,0.142
0.071,-0.099,0.126,0.005,0.129,-0.025,0.105,0.123,0.059,0.160,0.008,-0.011,0.094,0.153,0.174,0.140,-0.114,-0.065,-0.012,-0.093,-0.164,0.069,-0.001,0.099,-0.132,-0.138,0.068,-0.137,0.033,0.060,-0.131,0.157,-0.134,-0.069,0.140,0.033,-0.037,-0.067,0.114,0.041,-0.076,-0.060,0.115,0.143,0.119,-0.113,-0.097,-0.152,0.057,0.044,-0.107,-0.063,-0.157,-0.145,0.015,-0.083,0.131,0.049,0.053,0.025,0.076,0.119,-0.091,0.008,0.162,0.056,-0.083,-0.031,-0.150,-0.145,-0.057,0.080,0.109,-0.018,0.174,0.001,-0.148,0.176,0.115,-0.042,-0.041,0.150,0.047,0.106
0.070,-0.038,-0.076,-0.130,0.077,-0.154,0.002,0.061,-0.154,0.158,-0.040,-0.033,0.175,0.121,-0.048,-0.084,-0.130,0.075,0.079,-0.179,-0.034,0.161,0.111,-0.008,0.036,0.075,0.064,0.011,0.082,0.014,-0.081,-0.018,0.162,-0.014,0.112,0.124,-0.046,-0.094,-0.002,0.019,0.178,-0.130,-0.047,0.085,0.068,-0.149,-0.100,-0.114,-0.149,-0.015,-0.064,0.005,-0.029,-0.073,0.064,0.109,0.057,-0.078,-0.046,-0.124,-0.003,-0.140,0.125,-0.004,0.092,0.005,-0.006,-0.167,-0.099,-0.116,-0.108,0.114,0.027,0.082,0.084,-0.173,-0.121,0.172,0.032,-0.165,0.102,-0.083,0.176,-0.098
0.008,0.169,-0.079,0.141,-0.114,0.152,0.050,0.030,-0.179,-0.019,-0.076,0.166,-0.162,-0.043,-0.089,0.116,0.139,0.151,0.085,-0.097,0.036,0.167,-0.103,0.091,0.033,-0.064,0.098,0.033,0.117,-0.171,0.058,-0.147,0.003,0.034,-0.165,0.051,0.091,-0.077,-0.017,0.073,0.095,-0.007,-0.013,0.106,0.006,0.052,0.157,-0.176,0.127,-0.180,0.165,0.096,-0.011,-0.087,0.005,-0.048,0.040,-0.025,-0.074,0.041,0.105,-0.109,-0.012,0.042,0.168,-0.136,0.013,-0.114,-0.059,-0.145,-0.057,-0.165,-0.134,-0.035,-0.109,0.013,0.174,0.014,0.005,-0.045,-0.039,-0.097,0.003,0.077
0.132,-0.113,-0.070,-0.162,-0.122,-0.029,-0.024,0.044,-0.070,-0.172,0.021,0.039,-0.180,-0.007,-0.146,0.169,-0.128,-0.138,-0.041,0.098,0.088,-0.040,0.132,-0.044,-0.177,-0.101,0.096,-0.169,0.148,0.142,-0.037,0.009,-0.084,0.142,0.033,0.007,-0.034,-0.157,0.007,0.083,0.042,0.070,-0.162,-0.154,-0.046,-0.116,-0.105,0.168,0.067,0.145,0.008,0.070,-0.016,0.069,0.106,-0.149,0.166,0.030,0.176,-0.062,0.054,-0.135,-0.123,-0.028,-0.031,-0.167,0.027,0.060,0.023,0.048,0.121,-0.129,-0.160,0.126,0.077,-0.124,0.058,0.114,-0.003,-0.174,0.105,0.130,0.003,-0.106
0.164,0.024,-0.017,0.136,-0.070,-0.121,-0.105,0.094,0.110,0.141,0.031,0.062,0.126,0.034,-0.078,0.126,-0.021,0.124,0.153,0.059,0.058,-0.153,0.042,0.138,0.039,0.087,0.015,0.052,-0.130,-0.127,0.061,0.081,-0.086,0.090,-0.065,0.060,0.023,-0.120,0.169,0.044,-0.058,-0.081,0.003,-0.014,-0.153,-0.118,-0.112,0.086,-0.167,-0.101,0.005,0.166,0.035,-0.021,-0.096,0.124,-0.171,0.018,-0.014,0.140,-0.114,0.163,-0.136,0.063,-0.005,-0.065,-0.006,-0.113,-0.131,-0.151,0.011,-0.161,0.097,-0.030,-0.048,0.089,-0.014,-0.049,0.014,0.117,-0.100,-0.092,0.153,0.103
-0.102,-0.136,0.127,0.070,-0.029,-0.114,0.069,-0.095,-0.159,-0.083,-0.096,-0.153,-0.011,-0.105,0.113,0.124,0.036,-0.044,-0.044,-0.023,0.011,0.019,-0.129,-0.117,-0.022,0.113,0.065,-0.059,-0.098,0.159,-0.017,-0.053,0.069,0.116,0.092,0.031,-0.033,-0.092,-0.118,0.179,0.148,0.144,0.032,0.168,-0.074,-0.149,0.092,0.156,-0.053,0.061,-0.020,0.015,-0.025,-0.173,0.051,-0.076,0.026,-0.138,0.040,0.141,0.049,0.151,-0.112,0.126,-0.163,0.110,0.131,-0.128,-0.108,0.068,-0.129,-0.043,0.112,-0.021,-0.085,0.091,-0.125,0.021,0.119,0.134,-0.077,0.142,0.170,-0.163
-0.006,0.159,-0.106,-0.122,0.019,0.067,0.134,0.057,0.064,-0.009,-0.033,0.099,-0.093,0.153,-0.009,-0.180,0.159,0.047,0.010,0.175,-0.005,-0.063,0.078,-0.151,-0.167,0.011,-0.104,0.064,0.119,0.130,0.086,0.144,0.038,-0.077,-0.097,-0.124,0.164,-0.137,0.018,-0.107,-0.121,-0.039,0.180,-0.154,0.049,0.046,-0.041,-0.149,0.054,-0.043,0.052,-0.104,-0.041,-0.004,-0.040,-0.156,-0.016,0.064,-0.115,-0.121,0.037,-0.000,-0.093,-0.024,-0.165,0.016,-0.107,0.095,0.148,-0.124,0.054,-0.068,0.114,0.040,-0.075,0.121,-0.113,-0.112,0.021,-0.134,-0.130,0.029,-0.074,0.103
-0.032,-0.104,0.017,-0.006,0.160,-0.160,-0.111,0.047,0.086,0.128,-0.158,0.015,0.133,0.106,-0.123,0.021,0.180,0.043,-0.049,-0.148,0.038,0.086,-0.159,0.108,-0.129,0.085,-0.043,0.035,0.059,-0.155,-0.131,-0.032,-0.096,0.169,-0.070,-0.142,-0.115,-0.158,0.020,0.101,-0.070,0.000,-0.157,-0.078,0.067,-0.057,-0.027,-0.141,-0.044,-0.039,-0.092,0.056,-0.077,-0.149,0.142,0.100,0.122,-0.074,0.180,0.134,-0.003,0.155,-0.157,0.120,-0.008,0.028,-0.099,0.117,0.106,0.118,0.109,-0.139,0.035,-0.047,-0.115,-0.133,0.058,0.138,0.088,-0.115,-0.057,-0.101,0.045,0.085
0.139,-0.147,0.002,-0.006,-0.016,-0.110,-0.047,-0.077,-0.092,-0.068,-0.126,0.020,-0.099,-0.119,-0.035,0.072,-0.168,-0.059,-0.036,-0.154,0.144,0.016,-0.144,-0.106,-0.008,0.118,-0.116,0.005,-0.136,0.107,-0.149,-0.176,0.120,-0.063,0.039,0.136,-0.025,0.032,0.073,0.116,0.039,-0.035,-0.140,-0.100,0.079,-0.055,-0.051,-0.173,-0.167,0.036,0.122,0.164,-0.167,0.045,-0.101,0.091,-0.117,0.158,-0.126,0.092,-0.039,0.165,0.122,-0.048,0.087,0.020,-0.036,-0.002,-0.011,-0.149,-0.183,0.039,-0.097,0.041,-0.046,-0.006,0.164,0.041,-0.080,-0.167,0.179,0.034,0.155,0.147
0.009,-0.051,0.136,-0.125,-0.131,0.151,0.107,0.179,-0.178,0.019,0.096,-0.027,-0.169,0.073,-0.043,-0.001,0.151,-0.178,-0.055,-0.136,-0.148,0.161,0.082,0.152,-0.142,-0.078,-0.062,-0.144,0.175,0.132,0.042,-0.149,-0.016,-0.039,-0.152,0.186,-0.131,-0.088,-0.060,0.011,-0.011,0.170,0.027,0.091,-0.162,0.021,-0.071,-0.108,-0.052,0.024,0.067,0.133,0.029,-0.153,-0.031,0.094,0.148,-0.021,-0.100,0.138,-0.125,0.002,-0.169,-0.020,0.067,-0.031,-0.006,-0.064,0.097,0.078,0.004,-0.047,0.004,-0.109,-0.049,0.025,0.133,-0.180,-0.178,-0.045,-0.054,-0.060,0.141,-0.029
-0.176,0.073,-0.032,0.139,0.066,0.046,-0.025,-0.009,-0.162,0.161,-0.098,0.122,-0.175,0.059,0.117,0.140,-0.056,0.134,0.077,0.141,-0.147,-0.040,0.147,-0.016,0.169,-0.057,0.001,0.068,-0.114,0.055,-0.077,-0.036,-0.104,0.130,-0.079,-0.157,-0.175,0.065,-0.025,-0.104,0.064,0.006,0.160,-0.036,-0.125,-0.027,-0.109,0.140,-0.112,0.024,-0.162,0.117,-0.037,-0.167,-0.030,-0.038,0.159,-0.174,-0.153,-0.038,-0.022,-0.046,0.114,-0.110,-0.071,0.164,0.137,-0.067,0.157,-0.067,0.003,0.078,0.123,0.008,-0.078,-0.180,-0.032,-0.161,0.106,-0.032,0.123,0.015,-0.134,0.004
0.140,-0.026,0.134,-0.055,-0.033,-0.139,0.163,-0.087,0.001,-0.177,0.126,0.165,0.056,0.057,-0.070,0.037,0.148,-0.057,0.116,0.173,-0.113,0.149,0.117,0.013,-0.137,-0.090,-0.057,0.100,-0.028,0.042,0.129,-0.140,-0.055,-0.031,-0.144,-0.103,-0.040,-0.073,-0.040,-0.139,0.111,-0.003,-0.011,0.051,0.178,0.176,-0.121,-0.080,0.057,-0.028,0.170,-0.179,-0.021,-0.177,0.018,0.160,-0.036,-0.098,0.049,-0.171,-0.111,0.131,0.148,-0.143,-0.156,0.082,0.000,0.010,0.105,-0.158,-0.083,0.067,0.117,-0.017,-0.095,-0.137,0.110,0.076,0.167,0.135,0.021,-0.099,-0.006,0.008
0.142,0.170,-0.024,0.135,-0.168,0.151,-0.056,-0.127,0.158,-0.092,0.099,-0.077,-0.058,0.065,0.043,-0.057,0.004,0.052,-0.024,0.014,0.123,-0.017,0.145,0.102,0.137,0.111,0.153,0.179,0.165,-0.013,-0.150,0.098,0.180,-0.175,-0.144,-0.164,0.007,0.131,0.141,0.002,0.024,0.094,-0.018,0.132,0.155,0.082,-0.156,-0.011,0.101,-0.045,-0.130,-0.081,0.137,-0.111,0.008,0.040,-0.100,-0.083,-0.102,-0.041,0.139,-0.081,0.024,-0.103,0.090,-0.140,0.131,0.015,0.166,-0.087,0.075,-0.007,0.017,-0.142,0.174,-0.022,0.153,0.073,0.117,0.056,0.173,-0.012,0.031,-0.056
-0.060,-0.006,0.002,-0.162,0.014,0.021,-0.172,0.041,-0.098,0.036,-0.145,-0.116,0.128,-0.149,-0.112,0.173,0.123,-0.151,-0.164,0.015,0.044,-0.124,0.079,0.046,-0.050,0.176,-0.116,-0.111,-0.180,-0.169,-0.083,-0.132,-0.095,0.021,0.147,0.106,-0.044,-0.005,-0.126,-0.031,-0.082,0.166,-0.142,0.128,0.062,-0.090,-0.057,-0.147,-0.094,0.166,0.148,0.074,0.154,0.178,0.054,0.020,0.117,-0.151,-0.140,-0.171,-0.071,-0.075,-0.067,0.011,-0.135,0.032,0.071,0.016,0.022,0.117,-0.153,0.066,-0.141,-0.038,-0.060,0.006,0.033,-0.155,0.033,-0.052,0.159,-0.063,0.047,-0.130
-0.056,0.029,0.009,-0.135,0.120,-0.059,0.032,0.114,0.106,0.073,0.178,0.135,0.172,0.085,0.096,0.136,0.121,0.178,0.015,-0.086,0.026,-0.149,-0.109,-0.168,-0.025,-0.075,0.050,-0.022,-0.021,0.132,-0.176,-0.123,-0.015,-0.088,0.050,0.080,0.100,-0.074,-0.093,-0.019,0.130,0.130,-0.134,-0.010,0.016,-0.043,0.009,-0.024,0.053,0.032,-0.015,-0.015,0.057,0.097,-0.180,0.036,-0.092,-0.115,-0.001,-0.149,-0.095,0.137,-0.089,-0.158,0.085,-0.051,0.159,-0.077,0.006,0.059,-0.015,-0.006,0.015,0.179,0.025,-0.064,0.087,0.143,-0.123,0.167,0.013,-0.053,-0.116,0.107
-0.011,-0.077,-0.180,-0.100,-0.112,0.119,0.079,0.128,0.082,-0.124,0.135,-0.181,0.105,-0.161,-0.037,-0.031,0.108,-0.136,0.158,0.013,0.066,-0.017,0.143,0.010,0.036,-0.090,-0.039,0.161,-0.044,0.007,0.121,0.126,-0.148,-0.004,-0.154,-0.168,0.048,0.052,0.146,0.083,-0.180,0.035,-0.115,-0.087,0.138,0.019,-0.138,0.101,0.158,-0.178,0.014,0.042,-0.054,-0.088,0.158,0.129,-0.062,-0.121,0.020,-0.029,-0.119,0.092,-0.097,0.035,-0.089,0.092,-0.132,0.165,0.085,0.045,-0.138,-0.019,0.086,-0.076,0.181,-0.106,0.001,0.008,0.022,0.072,0.090,-0.170,-0.038,0.167
-0.158,-0.102,0.101,-0.093,-0.060,-0.108,0.130,0.028,-0.149,0.050,0.096,-0.010,0.087,0.086,0.164,-0.122,0.176,0.180,0.082,0.057,0.131,-0.102,0.042,-0.043,0.139,-0.083,-0.145,-0.156,-0.017,0.174,0.150,-0.163,0.118,0.024,0.067,-0.126,-0.086,0.167,-0.141,0.140,-0.062,-0.093,-0.107,-0.131,-0.174,0.154,-0.049,-0.140,0.045,0.148,0.038,-0.061,-0.060,0.160,-0.004,-0.124,-0.170,0.157,0.171,-0.125,0.067,0.042,0.075,-0.024,0.004,0.051,-0.011,-0.124,0.037,-0.013,0.146,0.180,-0.175,-0.180,-0.137,0.076,-0.156,0.045,-0.004,0.068,-0.097,-0.084,-0.046,0.084
0.109,-0.087,-0.165,0.069,-0.180,0.077,0.034,0.044,0.137,-0.084,0.164,0.087,0.179,0.033,-0.129,0.059,0.116,-0.070,-0.093,0.124,0.039,0.018,0.127,-0.058,-0.054,-0.053,0.084,-0.013,0.040,-0.027,0.056,-0.151,-0.068,0.115,-0.015,0.131,0.157,-0.135,0.093,-0.094,-0.015,0.103,0.178,-0.061,0.085,0.151,-0.087,-0.160,0.004,0.012,-0.102,0.104,-0.003,0.147,-0.042,-0.158,0.050,0.075,-0.115,0.040,0.104,0.001,-0.060,-0.118,0.044,-0.018,0.017,0.040,0.106,-0.136,-0.062,0.135,-0.027,-0.051,-0.089,0.000,-0.121,-0.033,0.147,-0.065,-0.081,0.170,0.146,-0.136
-0.006,-0.118,0.044,-0.121,0.122,-0.064,0.086,-0.131,0.177,0.138,0.171,-0.164,-0.131,0.045,-0.047,0.138,0.116,0.042,-0.059,0.019,0.117,-0.158,-0.047,0.135,-0.153,-0.003,-0.128,-0.159,-0.109,0.170,0.035,0.086,-0.141,0.079,0.162,0.147,-0.157,0.070,0.004,0.023,-0.042,-0.054,-0.111,0.109,-0.054,-0.154,0.084,0.034,-0.095,-0.156,0.009,0.158,-0.077,0.151,0.138,-0.038,0.172,-0.024,0.132,0.135,0.099,0.033,0.119,0.009,-0.154,0.157,-0.082,-0.151,-0.168,0.047,-0.098,0.067,-0.167,-0.053,-0.131,0.137,-0.160,0.146,-0.133,-0.158,0.162,-0.003,-0.045,0.176
-0.109,-0.122,0.055,0.003,0.020,-0.176,0.138,0.069,-0.039,-0.063,0.030,-0.011,0.084,-0.069,-0.090,-0.122,-0.141,-0.127,0.130,0.064,0.062,-0.147,-0.151,-0.022,0.037,-0.085,0.113,-0.166,-0.136,-0.057,0.125,-0.015,0.072,0.033,-0.106,0.115,0.099,-0.148,-0.063,-0.016,-0.129,0.007,0.117,0.034,0.025,-0.019,-0.124,0.157,0.154,0.030,0.007,-0.068,0.123,-0.033,0.124,0.095,-0.055,0.007,0.082,-0.001,0.080,0.052,-0.133,-0.170,-0.164,-0.141,-0.136,-0.064,-0.131,0.127,-0.062,-0.089,0.005,-0.126,0.081,0.041,0.141,-0.022,0.044,0.162,0.094,0.099,0.038,0.114
0.118,0.005,0.089,-0.065,-0.141,0.067,0.118,-0.142,0.170,-0.027,-0.092,-0.132,-0.002,0.162,0.088,0.038,0.165,-0.135,0.102,-0.098,-0.123,0.083,-0.172,0.107,-0.176,-0.146,-0.106,0.052,0.074,0.030,0.075,-0.074,-0.130,0.151,0.115,-0.077,-0.147,0.147,0.103,0.046,0.149,0.159,-0.108,0.126,-0.189,-0.004,0.053,-0.106,0.076,-0.135,-0.097,0.075,0.029,0.007,-0.095,-0.127,-0.056,0.037,-0.072,0.168,-0.003,-0.158,-0.122,0.095,-0.062,-0.139,0.138,-0.080,-0.106,0.146,-0.012,0.171,-0.043,0.050,0.089,-0.169,-0.126,-0.164,0.093,-0.045,-0.092,0.148,0.086,0.040
0.036,0.172,-0.036,-0.026,-0.110,-0.002,-0.053,0.185,-0.134,-0.171,0.148,-0.002,-0.007,-0.029,0.178,0.113,0.122,-0.037,0.027,0.049,0.014,0.134,0.097,0.162,0.178,-0.015,-0.111,-0.149,-0.098,0.042,-0.036,0.164,-0.023,0.009,-0.015,0.039,0.087,0.081,0.145,-0.054,0.104,-0.031,-0.104,0.039,0.176,-0.110,-0.178,-0.083,0.042,-0.048,0.022,0.047,0.034,0.168,-0.117,-0.098,0.013,-0.059,-0.151,-0.027,0.016,-0.177,0.069,-0.038,0.110,0.139,0.160,-0.068,-0.021,-0.083,0.154,0.141,-0.153,0.059,-0.152,0.140,-0.146,0.050,0.022,0.057,0.090,0.141,-0.068,0.063
-0.168,0.166,-0.062,-0.087,0.065,0.071,0.010,-0.082,0.070,0.028,-0.166,-0.127,-0.102,0.141,0.001,0.155,0.176,-0.001,-0.060,0.012,-0.057,-0.133,0.142,0.073,-0.129,0.030,0.097,-0.149,-0.137,0.174,0.026,0.020,-0.135,0.134,0.177,0.147,0.153,-0.161,0.170,-0.086,-0.074,0.091,0.092,-0.006,-0.157,0.138,0.167,-0.003,0.104,-0.151,-0.048,-0.106,0.056,-0.128,-0.074,0.123,0.175,-0.110,-0.125,-0.159,-0.005,-0.120,0.052,-0.048,-0.128,0.032,-0.085,-0.080,-0.069,0.001,-0.085,-0.100,-0.094,-0.081,0.014,0.033,-0.166,0.078,-0.067,0.008,0.108,-0.114,0.116,-0.069
-0.172,-0.031,-0.125,0.009,0.079,-0.109,-0.124,0.121,-0.159,0.102,-0.157,-0.065,-0.046,0.186,-0.120,0.004,-0.030,-0.096,0.006,-0.179,0.116,-0.087,0.138,-0.000,0.129,0.045,0.139,-0.074,-0.112,-0.044,-0.049,-0.006,0.102,0.086,-0.021,-0.033,0.081,-0.154,0.012,-0.040,-0.023,-0.020,-0.119,0.085,0.073,-0.004,0.157,-0.125,0.176,0.055,0.053,0.001,0.038,0.051,-0.132,0.124,0.042,0.120,0.104,0.086,0.005,0.076,0.106,-0.137,-0.167,-0.134,0.004,-0.149,0.075,-0.007,-0.015,0.080,0.024,-0.069,-0.170,-0.068,-0.044,0.110,0.139,0.125,-0.140,0.119,0.073,0.123
0.178,0.139,0.055,-0.159,-0.117,-0.153,-0.085,-0.179,-0.107,0.145,0.041,0.077,-0.094,-0.057,0.054,-0.168,-0.142,-0.116,-0.160,-0.032,0.178,0.182,-0.004,-0.025,0.173,0.178,0.085,-0.009,-0.171,-0.120,-0.054,0.063,0.120,-0.040,0.039,-0.036,0.009,-0.024,0.106,0.110,-0.145,0.131,-0.157,-0.119,0.171,-0.086,-0.076,0.125,-0.080,-0.163,-0.016,-0.128,0.171,0.025,-0.126,0.002,0.063,-0.143,0.014,-0.072,-0.092,0.034,0.088,-0.024,0.157,-0.022,-0.140,0.089,0.092,0.166,-0.053,0.006,0.066,0.149,0.152,-0.140,0.127,-0.034,-0.027,0.167,-0.043,-0.023,-0.061,0.050
0.025,0.047,0.027,0.149,-0.012,-0.017,0.063,0.100,-0.036,-0.098,-0.143,-0.051,-0.166,0.146,-0.116,-0.088,0.020,0.013,-0.083,0.024,0.035,0.034,0.066,-0.021,0.119,0.129,-0.102,-0.007,-0.108,0.005,-0.126,0.179,-0.107,-0.034,0.113,0.097,0.053,0.091,-0.171,-0.128,-0.131,0.140,-0.085,-0.124,-0.107,-0.062,0.174,0.043,0.008,-0.015,-0.071,0.144,-0.044,0.020,-0.038,-0.178,0.146,0.071,-0.106,-0.156,-0.002,0.136,-0.160,-0.163,0.153,-0.015,-0.172,0.147,0.127,-0.068,-0.138,-0.094,-0.055,0.165,-0.113,0.137,0.168,0.162,-0.107,-0.016,0.004,-0.160,0.173,-0.178
-0.065,0.058,0.137,0.121,-0.001,-0.078,-0.117,-0.080,-0.011,-0.148,0.146,0.154,-0.110,-0.167,0.099,0.172,0.070,-0.142,0.096,0.172,0.058,-0.156,-0.083,-0.162,0.147,-0.024,-0.017,-0.149,0.037,0.180,0.112,0.169,-0.002,-0.086,0.174,-0.168,-0.156,0.052,-0.101,-0.006,0.102,0.143,-0.168,0.110,-0.173,0.092,0.006,0.140,-0.120,-0.019,-0.054,0.062,-0.139,0.174,-0.171,-0.074,-0.025,-0.094,0.079,0.015,0.122,-0.007,0.173,-0.105,-0.050,-0.102,-0.007,-0.119,0.095,-0.083,0.054,0.048,-0.060,0.158,-0.160,-0.150,-0.104,0.141,-0.169,0.101,-0.008,-0.023,-0.000,0.049
0.125,-0.179,-0.068,-0.074,-0.109,0.020,-0.019,-0.117,0.136,0.122,0.079,-0.167,0.135,0.069,-0.049,0.136,-0.158,0.144,-0.113,-0.085,0.135,-0.080,-0.145,-0.147,0.008,0.116,0.050,-0.118,0.031,0.167,-0.148,-0.163,0.039,0.146,-0.052,0.053,0.056,-0.051,-0.150,0.114,0.019,0.122,-0.024,-0.044,-0.102,0.175,0.070,0.180,0.025,-0.083,0.096,0.155,0.140,0.098,0.004,-0.139,0.129,0.049,0.111,0.091,0.014,0.026,-0.052,-0.089,0.089,-0.179,-0.002,-0.165,-0.174,0.138,-0.068,-0.159,0.074,-0.132,-0.115,-0.138,0.156,-0.013,-0.003,-0.008,-0.166,-0.086,0.021,-0.112
0.141,0.091,-0.038,0.086,0.026,0.177,0.114,-0.163,0.073,-0.055,0.157,-0.180,-0.155,0.059,-0.082,0.172,-0.092,0.032,-0.044,0.131,-0.084,0.008,0.167,0.100,-0.034,-0.046,-0.025,-0.016,0.003,-0.007,0.048,0.166,-0.031,0.174,0.126,0.055,-0.102,-0.007,0.110,-0.019,0.109,0.165,0.094,-0.056,0.007,0.169,0.129,-0.027,-0.132,-0.034,0.184,0.075,0.106,0.017,-0.039,0.104,0.101,0.050,0.134,0.025,-0.009,0.110,0.147,0.071,0.053,-0.018,-0.057,-0.155,-0.040,-0.078,0.021,0.086,0.128,-0.021,0.088,-0.085,0.083,0.129,0.024,0.108,0.060,0.056,-0.157,0.011
0.094,0.031,0.044,0.076,-0.158,-0.047,0.074,-0.123,-0.164,0.037,0.121,-0.001,-0.090,0.021,0.058,0.143,-0.099,-0.091,-0.163,0.055,-0.095,-0.065,-0.058,0.155,-0.001,-0.099,0.040,-0.155,-0.017,-0.008,-0.084,-0.003,-0.054,-0.133,-0.060,-0.092,0.141,-0.108,-0.090,-0.096,-0.083,0.173,-0.129,0.153,-0.173,0.052,-0.071,0.011,0.072,0.152,-0.117,0.044,0.155,0.079,0.001,-0.072,0.018,0.151,-0.097,0.042,-0.132,0.173,-0.162,0.122,-0.050,0.170,0.177,0.048,-0.169,0.041,-0.115,0.033,-0.139,0.143,-0.124,0.145,-0.151,0.036,0.176,0.007,-0.016,0.083,0.026,-0.015
0.117,-0.154,0.014,0.038,-0.021,-0.097,-0.041,-0.119,-0.111,0.099,0.079,0.031,-0.079,-0.161,-0.145,0.094,0.024,-0.089,0.141,0.172,0.073,-0.053,0.115,-0.066,0.001,0.070,-0.050,-0.014,-0.095,-0.113,0.176,0.058,-0.018,-0.130,0.074,-0.137,0.155,-0.073,-0.102,-0.120,0.178,0.151,-0.012,0.087,0.021,0.170,0.023,0.081,-0.014,-0.045,0.093,0.132,-0.058,-0.119,-0.003,-0.155,-0.090,0.043,-0.018,0.122,0.125,-0.067,-0.075,-0.082,-0.099,0.120,0.103,0.174,-0.017,0.098,0.129,-0.046,0.190,-0.176,-0.175,0.092,0.007,-0.121,0.013,-0.172,-0.036,0.167,-0.105,0.069
-0.160,0.080,-0.164,-0.057,-0.125,-0.026,-0.131,0.077,-0.056,-0.024,-0.153,0.052,0.123,0.027,-0.016,-0.092,0.099,-0.039,0.100,0.049,-0.148,0.104,0.120,0.145,0.068,-0.016,0.110,-0.140,0.113,0.056,0.049,-0.119,-0.163,-0.140,0.116,-0.174,0.045,-0.173,0.106,-0.007,-0.045,-0.081,-0.146,0.125,-0.046,-0.011,0.119,0.093,0.158,0.102,0.130,-0.131,0.017,-0.145,-0.135,-0.172,0.133,0.103,-0.033,-0.091,0.105,0.091,0.016,-0.094,-0.144,-0.057,-0.140,0.157,0.131,-0.007,-0.064,-0.136,0.100,0.099,0.095,-0.136,-0.142,-0.051,-0.062,0.113,0.163,-0.022,0.111,0.084
0.140,0.177,-0.140,0.125,-0.054,-0.128,0.166,-0.134,-0.179,-0.135,-0.167,-0.117,0.112,-0.038,-0.142,-0.038,0.099,-0.095,-0.054,-0.029,0.091,-0.094,0.160,-0.121,0.157,0.113,-0.127,0.097,0.044,-0.163,0.171,-0.061,0.057,0.027,0.001,0.070,0.134,0.016,0.027,0.053,0.156,0.057,-0.058,0.098,-0.087,0.176,0.153,0.050,-0.120,-0.151,0.105,0.057,0.136,-0.054,-0.023,0.090,-0.068,-0.106,-0.083,-0.184,-0.166,0.075,0.080,0.126,-0.017,0.180,-0.167,0.018,0.165,-0.145,0.008,-0.155,-0.071,-0.137,-0.069,0.116,0.002,0.172,-0.093,0.149,-0.142,0.054,-0.029,-0.146
