-0.154,-0.495,0.086,-0.022,0.084,-0.231,0.164,-0.001,-0.046,0.069,0.043,-0.250,-0.573,0.228,0.098,0.094,-0.390,-0.078,0.449,-0.648,0.077,1.371,1.167,0.130,0.768,-0.093,-0.136,0.255,0.113,-0.154,-0.186,0.555,0.502,0.342,0.456,0.143,-0.833,-0.596,0.456,0.005,0.196,-0.134,1.343,-0.017,1.068,-0.813,-0.574,0.460,0.679,-0.268,-0.511,0.341,0.415,0.183,-0.101,0.553,0.046,-0.406,0.287,0.254,0.009,0.519,0.450,0.113,0.634,0.392,-0.694,-0.095,-0.083,-0.053,-1.194,-0.416,0.258,-0.001,-0.117,0.160,1.297,0.152,1.001,0.101,0.993,0.464,0.222,0.244,0.582,0.090,0.260,-0.165,-0.041,-0.092,-0.848,0.239,0.143,0.483,-1.188,0.112,0.179,1.277,0.296,0.041
-0.715,-0.546,0.313,-0.133,0.067,-0.189,1.670,-0.640,0.811,-0.162,0.168,-1.329,-0.819,-0.251,-0.343,-0.580,0.883,0.244,-0.878,1.730,-0.125,-1.921,-0.710,-0.144,-0.587,0.093,0.367,-0.169,-0.072,0.465,0.281,0.103,0.396,0.091,0.278,0.639,0.413,0.011,-0.121,1.671,-0.182,-0.166,2.079,-0.134,0.067,0.373,-0.148,-0.377,-0.102,0.232,0.206,0.282,0.049,0.365,-0.583,0.093,0.576,0.222,0.417,-1.016,0.737,0.904,-0.652,-0.118,1.032,0.347,0.347,0.138,0.109,-0.053,0.978,0.423,0.234,0.689,0.487,0.332,-0.324,-0.100,-1.064,-0.627,-1.074,0.321,-1.024,0.391,0.448,-0.933,0.132,0.340,0.497,-0.340,-0.648,0.104,0.521,0.824,0.357,0.002,-0.607,-0.861,-0.041,-0.259
-0.241,-0.486,0.408,0.401,0.826,-0.339,-0.275,0.545,0.021,-0.258,0.007,-0.507,-0.577,0.578,0.299,0.415,-0.445,0.060,0.349,-0.717,-0.357,1.169,0.421,0.111,1.109,-0.159,-0.206,0.156,0.412,-0.888,-0.476,0.811,0.469,0.309,0.046,-0.907,-1.024,-0.132,0.301,-0.334,-0.166,0.006,1.145,-0.205,0.493,-0.998,-0.806,0.202,0.612,-0.320,-1.023,1.088,0.483,-0.270,-0.139,0.339,0.140,-0.271,-0.066,-0.134,-0.328,0.130,0.359,-0.183,1.420,0.175,-0.313,-0.091,-0.060,-0.043,-0.753,-0.088,-0.159,-0.158,0.151,0.114,1.163,0.127,1.032,0.209,0.122,-0.160,0.859,-0.144,-0.536,-0.126,0.303,0.017,0.123,-0.015,-0.921,0.107,0.188,1.125,-0.680,0.227,0.597,1.409,0.563,0.126
-0.072,0.280,0.033,-1.335,0.246,0.367,-0.650,-0.082,-0.209,0.153,0.267,0.274,-0.073,0.166,0.604,1.548,0.941,0.191,-0.791,-1.146,-1.145,1.175,0.019,-0.178,-1.105,-0.141,-0.258,0.674,-0.487,0.545,-0.366,-0.476,-0.273,0.894,-0.031,-1.053,-0.244,-2.320,0.219,-1.227,0.147,0.278,-0.591,0.083,0.192,-0.498,-1.759,0.297,0.933,0.128,1.070,-0.314,-0.189,0.121,-0.141,0.046,-0.056,-0.680,1.964,-0.311,0.008,-0.565,-0.540,-0.384,0.027,-0.608,0.612,-0.065,0.058,-0.037,-0.267,-0.988,-0.040,0.278,0.383,-0.140,-0.017,-0.031,1.351,-0.257,0.750,0.093,1.588,-0.694,-0.218,0.934,0.741,-0.523,0.240,-0.482,0.229,-0.191,0.400,0.506,-0.336,-0.052,-0.126,-0.443,-1.324,-0.073
0.713,-0.800,1.647,0.952,-0.577,-1.014,-0.346,0.205,0.206,-1.156,-0.304,-0.401,0.724,0.377,-0.018,-0.002,-1.643,-0.705,0.420,0.245,0.541,0.839,0.731,0.165,-0.889,0.122,0.973,-1.326,0.129,-1.070,-0.282,-0.979,-1.129,-0.765,-0.257,0.338,1.103,-0.328,0.580,-1.030,0.021,-0.150,-1.414,-0.172,-0.471,-0.383,0.874,0.085,0.177,-1.271,-0.066,1.501,0.635,-0.363,0.669,0.086,-0.190,-0.340,-0.129,-0.028,0.140,0.291,0.493,0.060,1.177,0.091,-1.831,-0.109,-0.107,-0.024,-0.652,2.072,-0.138,0.430,0.401,0.215,-0.394,-0.927,1.174,-0.128,-0.434,1.125,1.138,0.269,-0.577,-0.659,-1.228,0.001,-0.183,0.198,-0.314,0.006,0.847,0.572,-0.627,0.240,1.317,0.229,0.053,0.300
-0.532,0.152,0.408,-0.634,0.672,0.932,-0.325,-0.013,0.298,-0.853,0.646,-0.619,-0.226,0.291,-0.334,0.479,-0.989,0.493,0.719,-1.866,0.831,0.489,0.418,-0.270,0.446,-0.181,-0.176,-0.421,0.069,0.833,-0.593,1.040,0.212,0.016,-0.289,0.812,-0.116,-1.179,0.397,0.910,-0.118,0.014,0.202,0.818,0.305,0.779,0.189,-0.222,0.059,0.605,0.672,0.267,-0.300,0.922,-0.165,-0.401,-0.101,0.334,1.377,0.202,0.015,0.069,1.187,0.194,-0.201,0.846,-0.101,-0.130,0.155,-0.064,-0.619,-1.649,-0.029,0.120,0.029,0.123,0.210,0.225,-1.468,0.331,0.886,0.040,-0.070,0.957,-0.338,0.021,-0.113,-0.142,0.678,-0.541,0.617,-0.056,-0.112,0.012,-1.177,-0.004,1.029,-0.570,-0.274,-0.321
0.231,0.670,0.654,-0.468,1.453,0.369,-0.750,-0.416,-0.206,-0.164,0.272,-0.274,0.743,0.926,-0.855,0.013,-1.053,0.855,0.065,0.001,0.517,1.495,1.134,0.239,0.864,0.039,-0.763,-0.179,-0.248,-0.148,0.434,0.056,0.287,0.477,-0.466,0.777,0.412,-0.101,0.145,1.324,-0.177,0.042,0.752,0.385,0.414,-1.297,-0.580,0.330,0.031,-0.060,0.630,-0.640,-0.361,-0.166,0.181,0.424,-0.030,0.050,0.818,-0.504,0.397,0.104,0.714,0.210,0.399,0.858,0.189,0.034,-0.037,0.007,-0.452,-0.345,0.175,-0.348,0.561,-0.021,-0.979,0.608,-0.171,-0.540,0.545,-0.520,0.881,0.903,0.528,0.003,-0.526,0.060,0.075,-0.541,1.540,-0.124,0.392,1.352,-0.559,0.110,-0.012,-0.416,1.021,0.688
0.247,-0.417,0.386,-0.447,0.893,-0.459,0.236,0.123,-0.063,-0.476,-0.225,-0.829,0.059,0.412,0.676,1.047,-0.678,0.353,-0.251,-1.285,0.326,0.882,0.765,-0.173,-0.089,0.054,0.071,0.691,-0.043,-0.447,0.389,-0.646,-0.128,0.276,0.888,-0.305,-0.775,-1.216,-0.061,-0.074,0.127,0.141,0.496,-0.114,0.619,0.555,-0.904,1.063,0.723,-0.310,-0.688,-0.144,-0.261,0.975,-0.062,0.374,0.040,0.038,-0.440,-0.890,-0.523,-0.053,-0.002,-0.110,-0.066,-0.470,-0.004,0.096,-0.098,-0.030,0.467,-0.396,-0.069,0.187,0.066,-0.065,-0.424,-0.016,1.666,0.001,2.291,-0.421,1.057,-0.522,0.110,0.236,0.626,-0.092,-0.507,0.434,0.732,0.174,-0.070,0.425,-0.359,-0.147,0.911,-0.031,-1.397,-0.672
0.527,-0.996,0.116,0.745,0.351,-0.637,0.632,0.386,0.127,-0.679,-0.267,-0.456,0.058,0.000,0.016,0.628,0.463,-0.554,1.265,-1.106,-0.000,1.416,0.667,0.216,0.304,0.008,0.198,-0.104,0.193,0.611,-0.170,-0.915,-0.216,0.165,-0.017,0.800,-0.947,-0.643,0.563,0.231,0.428,0.171,-0.434,0.187,0.552,0.342,-0.001,-0.104,0.342,-0.518,0.039,-0.059,0.067,-0.408,0.692,-1.306,-0.123,0.464,0.622,-0.299,0.144,0.346,1.618,0.218,1.766,0.763,-0.463,-0.135,0.155,-0.080,-0.986,-0.973,-0.004,0.040,-0.593,0.123,0.139,-0.389,0.205,0.147,-1.017,-0.614,-0.001,1.000,0.601,0.305,-0.831,0.028,0.049,0.469,-0.324,0.192,-0.300,0.127,-0.447,-0.161,0.999,0.947,0.637,-0.504
0.456,0.676,-1.579,0.716,-1.451,0.082,-0.706,1.157,-0.338,1.206,-0.515,1.286,-0.439,0.275,0.463,-1.104,1.059,-0.419,-0.928,0.472,0.220,-0.982,-0.659,-0.273,-0.116,-0.179,-0.884,0.598,0.002,-0.358,-0.006,0.446,1.072,0.169,-1.717,0.446,-0.615,-0.441,-0.520,-1.731,-0.223,-0.242,2.480,-0.294,-0.615,-1.904,0.206,-0.445,-0.104,-0.127,-0.109,-1.161,0.542,-0.573,1.188,1.793,-0.200,1.204,-0.492,3.553,0.018,0.131,-0.528,0.379,-0.001,0.561,0.029,-0.058,0.009,-0.093,-0.124,0.092,-0.232,-0.483,-0.588,-1.028,-2.200,0.167,1.122,-0.167,-1.052,1.011,-3.791,0.743,0.047,0.916,0.986,0.214,0.786,-0.340,-0.518,-0.491,0.951,-1.427,1.025,-0.051,-0.544,0.381,-0.699,-0.025
-0.151,-0.002,-0.076,0.051,-0.000,-0.168,-0.065,-0.004,0.026,-0.143,0.054,-0.056,-0.115,0.110,-0.156,0.155,0.074,-0.009,-0.177,-0.040,0.053,0.130,0.043,-0.037,-0.019,0.135,-0.054,-0.157,-0.021,0.180,-0.043,-0.111,-0.164,-0.119,-0.064,0.027,0.060,-0.165,0.158,-0.095,-0.127,0.011,0.064,-0.070,0.061,-0.074,0.145,0.137,-0.155,-0.126,0.072,-0.181,0.116,-0.052,0.088,-0.165,-0.105,-0.155,-0.116,-0.042,-0.003,0.150,0.046,0.075,-0.151,-0.077,0.178,0.022,0.104,-0.169,-0.150,-0.141,-0.175,0.152,-0.089,0.179,0.086,-0.090,0.178,0.133,-0.121,-0.114,0.065,-0.152,0.031,-0.157,-0.101,0.162,-0.001,0.027,-0.083,-0.022,-0.133,0.006,-0.161,-0.163,0.065,-0.161,0.008,-0.084
0.227,0.282,0.410,-0.732,-0.531,-0.057,-0.566,-0.418,-0.093,1.445,0.181,2.048,-0.554,-0.461,0.511,1.478,1.015,-0.104,-0.449,-0.099,-0.976,-0.106,0.150,-0.053,-0.020,0.059,-0.149,-0.565,0.018,1.742,-1.032,-1.368,-0.412,0.599,-0.122,-0.475,0.090,-1.063,-0.113,-0.833,0.142,0.319,-0.415,-0.416,0.460,1.004,-0.971,0.926,-0.800,-0.402,0.425,-1.553,-0.630,0.594,-0.125,0.321,-0.096,0.435,1.702,-0.807,-0.043,-0.493,-0.868,-0.228,-2.406,-2.323,0.228,-0.187,-0.043,-0.079,-0.558,-0.993,0.340,0.100,-0.369,0.082,-2.151,0.436,0.082,-0.229,-0.280,-0.486,-1.414,-1.418,-0.374,-0.860,-0.678,-0.477,0.658,-0.762,0.569,0.089,-0.767,0.885,-0.086,-0.007,-0.010,0.562,-0.331,-0.634
0.771,-1.785,2.142,-2.767,-2.254,-1.367,-0.065,-0.681,0.107,2.003,-0.139,1.956,-0.406,-2.070,1.091,1.743,-0.317,-0.242,-1.554,-0.641,0.423,0.756,-0.335,-0.140,-1.434,-0.068,-0.097,-1.126,0.567,1.361,-1.431,-1.574,-1.591,0.783,0.554,-2.640,-1.004,-3.936,-0.001,-3.002,-0.062,0.405,-2.113,0.299,-0.445,-2.010,-3.101,0.960,-1.109,0.228,0.486,-0.905,-0.325,-0.179,-0.105,-0.317,0.033,-1.179,1.707,-0.907,-1.726,-0.539,-2.378,-1.285,-2.664,-3.365,0.798,-0.078,-0.101,0.056,-1.274,-1.307,0.147,0.133,0.336,0.552,-2.409,-0.056,3.609,-0.311,-1.792,-1.018,1.693,-2.845,-0.451,-0.872,-0.521,-1.136,-0.563,-1.055,0.685,0.375,-0.231,-2.246,-1.658,-0.019,-1.308,-1.177,-4.842,-0.981
-0.105,0.587,0.726,0.206,0.429,0.694,0.587,1.143,-0.314,-0.496,-0.696,1.483,0.301,0.410,0.017,-1.136,-0.960,-0.154,-0.586,0.053,-0.556,0.520,-0.889,0.022,-1.221,-0.186,-0.291,-0.792,0.042,0.769,-0.143,-0.554,-1.236,-0.074,-0.381,-0.873,-1.405,-1.717,-1.024,-0.274,0.014,-0.207,-1.913,0.484,-0.711,-0.421,0.987,-0.499,-0.525,-0.278,1.328,0.028,0.831,0.190,-0.215,-0.221,0.173,-0.705,0.785,0.869,0.820,-0.317,1.748,-0.520,-0.956,-0.646,0.115,-0.109,-0.031,-0.184,0.528,-0.783,0.061,0.677,-0.005,-0.460,1.673,-0.602,-0.335,0.363,-1.169,-0.635,0.194,-0.790,0.350,-0.779,-1.096,-0.068,-0.899,0.280,0.014,-0.175,0.467,-0.769,0.499,0.113,0.046,0.058,0.585,-0.244
1.066,-0.599,-1.487,1.268,-1.195,0.891,-2.289,-0.472,-0.173,0.122,0.577,0.327,0.609,0.443,-0.496,-0.523,-0.499,0.099,0.092,1.618,0.382,-1.484,-1.513,0.096,2.293,-0.211,-0.702,0.885,-0.004,-0.942,0.477,-0.129,1.125,0.006,0.295,0.747,-0.635,2.152,-0.257,1.166,-0.161,0.030,-1.490,-0.316,0.497,-0.350,0.484,0.026,-0.180,1.040,-0.949,-0.440,0.525,1.013,-0.068,1.481,-0.179,-0.911,1.107,-0.494,0.819,-0.440,-0.408,0.243,0.336,0.154,-0.644,-0.187,-0.090,0.326,0.045,2.359,-0.233,0.351,0.052,0.077,0.812,0.048,1.145,-0.726,2.050,1.157,-0.164,0.050,0.209,0.523,0.960,0.365,0.788,0.001,0.439,-0.693,-0.270,-1.910,-0.032,-0.037,-0.355,-1.403,1.265,0.483
-0.428,-0.291,-0.675,1.895,0.129,0.313,-0.140,-0.405,-0.525,-0.512,-0.181,-0.622,-0.057,-0.939,0.003,0.431,-0.435,0.253,1.255,1.229,-0.870,0.337,0.928,-0.328,1.749,0.243,-0.556,0.783,0.041,0.377,-0.306,2.074,0.486,-0.105,-0.330,-0.793,1.822,2.501,-0.545,-0.506,-0.062,0.179,-0.275,0.081,-0.075,1.242,0.306,0.274,-0.008,0.178,-2.087,-0.440,0.089,-1.010,-0.389,-0.585,-0.463,-0.423,-0.872,-0.334,1.058,-0.348,0.072,-0.075,-0.187,0.910,-0.009,-0.126,-0.108,0.167,0.168,0.559,-0.169,0.499,0.017,-0.106,1.358,0.523,-3.013,0.461,-0.461,-0.694,-0.000,0.248,0.290,-0.280,0.901,0.197,-0.200,-0.418,0.111,0.137,-0.380,1.032,0.590,0.075,-0.457,0.850,1.472,0.692
-0.773,0.322,-1.336,0.362,-1.078,0.169,-0.373,0.007,0.173,0.144,0.104,-2.073,-0.296,0.026,-0.698,0.709,0.701,0.155,0.114,-0.745,-0.327,0.441,1.098,0.194,-0.323,0.128,1.259,-0.098,-0.140,-0.679,-0.168,2.308,-0.168,-0.159,0.157,-0.276,1.482,0.955,-0.482,-0.019,-0.126,-0.107,-0.187,-0.107,0.306,0.481,1.403,-0.261,-0.487,0.960,-1.705,-0.492,-0.845,-0.137,-0.342,-1.342,-0.143,1.806,-0.529,-1.141,0.793,-0.204,-0.916,-0.106,-0.642,-0.147,0.037,-0.013,-0.058,0.018,0.727,1.871,-0.062,-0.305,-0.248,0.075,2.387,-0.303,0.272,-0.042,0.855,0.544,-0.023,0.467,-0.217,-0.454,0.383,0.091,-0.352,-0.925,0.321,0.497,-0.232,0.542,0.200,0.097,-1.574,1.260,0.590,-0.208
-0.562,2.047,-1.983,0.277,1.590,-0.627,1.178,-0.271,-0.145,0.319,0.070,-0.718,-0.062,-0.941,-0.981,-1.000,1.102,-0.138,0.786,2.772,3.091,-3.872,-0.455,0.178,-0.678,-0.013,-0.300,0.543,0.059,0.463,0.921,0.706,1.744,-0.477,1.145,0.911,1.569,2.370,-0.236,2.179,-0.136,-0.094,1.633,0.187,-0.833,1.990,0.239,0.414,0.133,0.193,1.026,1.353,0.153,-0.023,-0.296,-0.095,-0.052,0.275,-1.888,1.035,1.775,0.606,-0.657,0.580,1.262,1.475,0.408,-0.099,-0.195,-0.058,0.792,0.614,-0.329,-0.576,-0.490,0.193,0.641,0.909,-2.536,-0.152,-0.117,0.149,0.221,1.173,-0.673,1.184,1.106,0.266,-0.378,1.600,-0.805,0.016,0.023,0.106,1.318,-0.075,0.784,0.803,2.123,0.782
-1.073,1.071,0.080,-0.579,-0.154,0.379,2.217,0.042,0.293,-0.508,-0.433,0.119,0.628,-1.925,0.037,0.648,0.449,-0.044,-0.284,-1.597,-2.082,-2.780,-1.193,0.224,0.107,-0.091,0.473,0.231,0.043,0.154,0.886,-1.007,-1.113,-0.524,-0.537,0.644,1.388,1.007,0.877,-0.249,-0.010,0.316,-1.345,-0.127,-1.149,1.087,0.755,0.209,0.412,0.958,-0.601,1.874,-0.539,0.493,-0.258,-2.132,0.101,-0.847,-4.357,1.139,-0.758,0.228,-0.259,0.016,-0.889,0.762,0.145,0.097,-0.154,0.081,1.923,-1.032,-0.163,0.517,-0.389,-0.209,0.191,-0.776,-3.945,0.169,-2.173,-0.773,-1.085,-0.139,-1.297,-1.301,0.521,0.063,0.194,-2.379,-0.851,0.164,-0.244,0.103,1.796,-0.139,-1.414,-1.007,-1.026,-0.252
0.475,0.252,0.219,-0.174,2.194,-0.454,1.530,0.247,0.297,-0.325,-0.345,-1.306,0.216,-0.016,-0.127,0.231,-0.096,-0.288,-1.380,1.945,0.617,-0.921,-0.210,0.307,-0.781,0.146,0.881,0.482,0.429,-0.624,0.613,0.787,0.953,-0.351,0.693,0.994,-0.808,2.092,-0.017,2.680,-0.153,0.118,0.697,0.228,-1.333,2.613,2.427,-0.149,-0.488,-0.315,0.509,0.475,-0.749,-0.937,-0.248,-0.738,0.135,1.058,-3.343,-0.451,1.157,0.066,-1.358,0.399,0.496,0.940,0.480,-0.048,-0.017,0.230,1.507,-0.549,-0.125,-0.045,-0.041,0.127,-1.062,0.242,-1.962,0.562,-0.624,0.459,1.234,0.763,0.372,1.904,-0.290,0.458,-0.129,1.818,-1.162,0.436,-0.691,0.278,0.658,-0.185,1.017,-0.133,0.778,0.563
-0.090,0.103,-0.811,0.730,0.650,0.791,-0.652,0.172,0.010,-0.465,-0.246,1.227,-0.062,1.977,0.254,0.003,0.676,-0.409,0.894,1.308,0.807,-0.779,-1.526,0.282,0.028,0.182,-0.417,1.224,0.207,-1.494,-0.580,-0.386,0.672,-0.242,-0.466,0.320,-0.361,3.098,0.355,0.516,-0.238,-0.109,-1.867,-0.771,0.181,-0.778,0.930,0.247,0.122,-0.562,0.723,-0.584,0.192,-0.490,-0.419,1.610,-0.279,-0.380,1.376,0.389,-1.161,-0.506,0.911,0.569,1.494,-0.165,0.590,0.124,-0.096,-0.097,0.141,-0.081,0.453,-1.156,0.100,-0.015,0.375,0.379,1.415,-0.102,2.049,-0.580,-0.791,-0.245,0.714,0.668,0.647,0.414,-0.879,1.943,0.707,0.068,-0.273,-0.756,-0.686,-0.123,-0.995,-0.522,0.684,0.394
-0.359,-0.149,0.439,0.549,-1.071,0.546,0.817,-0.045,-0.252,0.102,-0.258,0.734,0.112,-0.064,0.142,-0.329,0.614,-0.071,-0.504,1.119,0.289,-0.371,0.445,-0.111,0.646,-0.053,0.388,0.488,0.380,0.555,0.237,-0.445,0.096,-0.123,-0.158,0.151,0.722,0.825,-0.059,0.371,-0.012,-0.246,0.946,-0.118,0.197,-0.519,0.750,0.415,0.015,-0.241,-0.199,-0.048,-0.366,-0.195,0.497,-0.485,-0.266,-0.503,0.004,-0.742,-0.618,0.551,0.526,0.072,0.239,0.227,0.401,-0.113,-0.173,-0.127,0.480,0.471,0.050,0.073,-0.854,-0.144,0.383,0.174,-0.290,0.158,0.381,0.657,0.748,0.769,-0.314,0.214,0.056,0.154,0.555,-0.067,-0.711,-0.102,0.334,0.091,0.131,-0.013,0.008,-0.074,0.789,0.709
0.047,-0.451,-0.217,0.062,0.222,-0.895,0.085,0.008,-0.148,-0.064,-0.618,-0.046,0.156,-0.703,-0.750,-1.554,-0.555,-0.614,-0.510,-0.046,-0.258,-0.163,0.358,-0.016,-1.922,0.045,-0.335,0.388,-1.003,-0.603,0.722,0.709,-0.303,0.215,0.289,0.391,-0.143,-1.828,-0.231,-0.432,-0.126,0.124,-0.530,-0.191,-0.094,-1.519,-0.349,-0.855,-0.405,0.162,-0.079,0.403,-0.551,0.513,-0.425,-0.654,0.399,-0.906,0.136,-0.947,1.925,-0.262,1.204,0.364,0.250,0.911,1.219,-0.172,-0.022,-0.124,-0.263,-0.591,-0.105,-0.182,-0.541,-0.087,-1.023,-0.217,-0.495,1.027,-0.643,-1.063,-1.166,0.881,-0.264,0.214,0.044,0.513,-0.310,0.370,1.112,-0.159,0.233,-0.723,0.106,0.117,1.390,0.948,0.628,-0.216
-0.220,0.157,-0.196,-0.548,-0.355,0.222,-0.410,0.341,0.147,-0.572,-0.041,-0.202,0.512,0.505,-0.888,-0.369,0.340,0.166,0.134,-0.167,0.803,-0.059,0.214,0.050,0.909,-0.018,0.487,0.072,-0.064,1.156,-0.011,0.259,0.341,0.031,-0.023,-0.136,0.660,0.339,0.011,0.329,-0.174,0.322,0.040,0.557,0.348,0.377,1.119,-0.005,-0.247,0.037,0.069,0.584,-1.374,-0.144,-0.139,0.338,0.198,-0.009,-0.233,0.198,0.298,0.021,-0.315,0.211,-0.401,-1.402,-0.478,-0.070,0.069,-0.074,0.213,0.861,-0.160,-0.277,0.262,0.044,0.314,0.031,0.064,-0.024,0.367,1.264,-0.431,0.316,-0.075,0.229,-0.824,0.186,0.538,-0.915,0.129,-0.302,-0.057,0.318,-0.143,-0.044,-0.101,0.368,1.312,0.276
0.702,1.210,0.989,0.325,-0.964,0.118,1.088,-0.103,0.170,-0.716,0.080,-0.633,0.169,0.164,0.167,1.373,-0.436,-0.171,-0.966,-0.220,0.786,-1.556,-0.615,-0.349,-0.214,-0.039,-0.029,-0.849,0.316,-0.185,-0.259,0.366,0.056,0.043,0.806,-0.297,0.285,0.157,0.282,0.678,0.011,0.020,-2.238,-0.394,-0.150,1.177,0.153,0.879,-0.242,0.677,-0.350,-0.140,0.359,-0.205,0.131,0.882,0.015,0.320,0.121,-1.076,-0.678,-0.137,-0.011,-0.005,-1.293,0.515,-0.050,0.033,0.161,0.089,0.595,0.544,0.165,-0.322,0.114,0.533,-1.353,0.093,-0.614,0.018,-0.576,0.210,-0.595,-0.580,-0.062,1.380,-0.596,-0.042,-0.495,0.521,0.123,0.359,-0.127,0.248,0.375,0.140,-0.470,0.030,-1.211,-0.144
0.088,0.217,-1.085,-1.010,1.014,0.550,0.605,-0.237,-0.049,0.522,0.076,0.361,0.469,0.352,0.392,0.897,-0.548,0.383,0.031,-0.352,0.435,-0.273,0.581,-0.004,-0.517,0.021,-0.643,-0.486,0.350,-1.544,-0.834,-0.911,0.357,-0.223,-0.038,-0.633,-0.743,-0.686,-0.186,0.660,0.014,0.070,-0.559,-0.047,-0.031,0.034,-0.478,0.143,-0.344,-0.026,0.510,-0.633,-0.584,0.083,-0.166,-0.812,0.054,0.909,-0.103,-0.237,0.185,-0.203,-1.597,-0.223,-0.210,-0.334,-0.254,0.003,0.050,0.033,-1.259,-0.137,-0.003,-0.219,0.056,-0.257,-0.272,-0.080,0.544,-0.313,-1.673,-1.412,0.064,-0.665,0.093,-0.585,-0.679,-0.305,-0.338,0.430,-0.019,0.088,-0.163,0.343,-0.314,-0.157,-0.915,-0.098,-0.919,-0.201
-0.427,0.522,0.442,1.116,-0.724,-0.213,-0.058,0.200,-0.374,0.440,0.214,0.320,-0.625,-0.337,0.508,-0.106,1.246,-0.035,1.316,0.710,-0.677,-0.558,-0.040,0.191,0.244,0.068,-0.498,0.568,-0.216,0.376,-0.740,0.673,0.674,0.362,1.297,-0.364,-0.120,1.750,-0.072,0.306,0.172,-0.226,0.084,-0.438,0.467,0.451,-0.516,0.274,0.237,-0.516,0.862,0.322,0.726,0.706,-0.049,0.327,-0.030,-0.477,0.088,0.994,0.471,-0.096,0.272,0.370,0.724,0.441,0.641,0.025,-0.124,0.392,0.495,0.038,-0.009,0.443,-0.424,0.261,0.636,0.280,-0.168,-0.388,0.474,-0.564,0.926,0.712,-0.006,-0.172,1.099,0.370,-0.384,-0.788,-0.078,-0.314,0.450,0.586,-0.308,-0.056,-0.097,0.005,0.512,0.039
-0.294,0.070,-0.441,0.160,0.592,0.158,0.386,-0.393,0.227,1.044,1.239,-0.474,-0.256,-0.174,-0.010,0.356,0.461,-0.111,0.715,-0.495,-0.311,-0.134,-0.210,0.147,0.524,-0.176,0.021,0.059,0.283,0.171,0.067,1.376,0.073,-0.593,-0.608,-0.055,0.099,0.003,-0.462,0.345,0.085,-0.382,-0.020,0.756,-0.016,1.336,0.536,0.335,-0.000,0.536,0.290,0.532,-0.213,0.030,0.034,-0.561,-0.190,1.203,0.472,-0.397,-0.018,0.169,-1.116,-0.083,-0.097,0.310,-0.642,0.074,-0.095,0.035,-0.172,-0.889,-0.147,0.661,0.406,0.205,-1.149,0.128,-0.206,-0.102,-0.189,0.689,-0.084,-0.176,-0.068,0.220,-0.228,0.049,0.020,-0.080,-0.307,0.070,0.123,-0.556,0.275,-0.120,-0.074,-0.400,-0.045,-0.373
0.200,-0.472,0.794,0.725,0.139,0.240,0.936,-0.077,0.052,-0.806,0.001,-0.075,0.874,0.127,0.187,0.677,0.278,-0.342,-1.098,0.096,0.435,-0.702,-0.166,-0.041,0.420,0.104,0.211,0.276,0.035,-0.295,0.527,0.083,0.199,-0.017,0.918,0.535,-0.459,1.055,0.932,0.076,-0.150,0.121,0.509,0.403,-0.178,0.359,-0.471,-0.418,0.101,-0.214,-0.267,0.439,-0.386,-0.241,-0.132,-0.003,-0.234,-0.112,0.201,-0.061,0.185,-0.803,0.337,-0.050,-0.190,0.007,-0.656,-0.173,-0.057,-0.007,0.637,-0.013,-0.056,-0.117,-0.271,0.061,-0.002,-0.106,0.971,-0.725,-0.936,0.470,-0.038,-0.546,1.028,0.913,0.058,-0.214,0.353,0.225,1.490,0.249,-0.923,0.205,1.157,0.024,1.677,-0.998,0.802,0.413
-0.128,-0.338,-1.147,-0.534,1.156,-0.774,-0.051,-0.690,0.355,-0.602,-0.143,1.213,-0.319,-0.616,-0.912,-1.042,0.608,-0.204,-0.017,-0.560,-0.027,0.021,0.846,0.087,-0.322,-0.134,0.300,-0.378,-0.844,0.991,0.137,-0.116,-0.449,-0.333,-0.932,-0.677,-0.488,-0.921,-0.101,0.480,-0.065,0.801,-1.944,1.023,-0.156,-0.222,0.565,-0.601,-0.095,-0.017,0.743,-0.263,-1.013,-0.256,-0.113,0.093,-0.078,-0.059,-0.393,0.382,2.159,-0.256,0.491,0.019,-1.656,-0.412,0.068,0.192,0.132,-0.052,0.207,-0.302,-0.079,-0.111,0.716,-0.414,-0.298,-0.395,0.217,0.653,0.323,-0.572,0.163,-0.044,0.611,0.624,-1.058,-0.136,0.220,-0.060,0.419,-0.142,-0.333,-0.093,-0.336,0.009,0.497,-0.604,-0.617,0.151
0.395,0.073,-0.553,0.270,0.201,-0.102,-0.220,-0.241,-0.568,0.897,-0.141,-0.189,0.158,-1.032,0.752,0.022,0.855,0.407,-0.506,1.379,-0.883,-0.397,0.527,0.190,-0.701,0.087,0.111,0.351,0.029,0.915,-0.029,-0.321,0.759,0.188,1.254,0.301,-1.205,0.721,-0.251,-1.312,-0.116,0.213,0.259,-0.248,-0.120,0.739,-1.884,-0.145,0.246,0.176,0.057,-0.581,0.420,-0.520,0.645,-0.241,0.069,0.493,-0.444,1.942,0.525,-0.194,-0.802,0.228,1.714,0.552,-0.240,0.188,-0.078,-0.130,0.466,0.373,-0.140,0.484,0.778,-0.263,-0.889,0.279,0.394,-0.162,-1.003,0.260,-2.209,0.421,0.841,-0.446,0.991,0.199,0.222,-0.003,-0.446,-0.396,0.605,-0.575,-1.065,0.040,-0.852,0.781,0.398,0.587
0.067,-0.115,-0.013,0.086,-0.057,-0.138,-0.173,0.061,-0.169,-0.004,0.138,0.117,0.079,0.130,0.090,-0.174,-0.010,-0.175,0.020,-0.095,-0.021,-0.107,0.115,-0.114,-0.063,-0.175,-0.069,-0.171,-0.018,-0.171,-0.040,0.038,0.148,0.019,0.005,-0.164,-0.045,-0.038,-0.064,0.141,-0.038,-0.104,0.103,0.113,-0.056,0.116,0.074,-0.141,-0.048,0.127,-0.046,0.132,-0.020,0.023,-0.040,0.041,0.009,0.124,0.169,-0.076,-0.125,-0.062,0.077,-0.104,-0.064,0.157,0.091,0.164,-0.149,-0.005,0.146,-0.022,0.068,-0.119,-0.091,-0.028,-0.067,0.052,0.118,-0.051,0.095,-0.079,-0.035,-0.168,-0.128,-0.140,0.028,0.046,-0.161,0.021,0.091,0.001,-0.014,0.048,-0.042,0.039,0.153,0.128,0.086,0.135
1.157,0.921,-0.992,-0.414,-0.877,-0.597,1.452,0.818,-0.177,-0.689,-0.415,0.486,-0.263,-0.373,-0.759,1.426,-0.321,0.205,-0.335,-0.909,-0.919,1.393,0.691,-0.199,-1.473,-0.157,-0.469,-0.835,0.827,-0.167,-0.879,0.866,0.195,0.698,-1.046,-0.722,-1.154,0.363,-0.186,-0.292,0.199,-0.179,-1.553,-0.428,-1.027,0.887,-1.683,0.958,0.621,-0.350,-0.738,0.181,0.453,-0.693,0.367,-0.761,0.668,1.683,-2.235,0.122,-0.939,-0.444,-0.318,-0.206,-0.046,-1.622,0.003,0.019,0.023,-0.015,-1.471,0.087,-0.088,-0.167,0.592,0.446,-0.249,-0.299,-1.242,-0.663,1.425,1.156,0.302,-1.188,-0.799,-0.553,-0.183,-0.509,-0.446,-1.265,1.141,0.226,0.047,0.438,-0.959,0.059,-0.991,0.196,-0.680,-0.837
0.400,1.102,-1.544,-0.934,0.445,-0.259,1.667,-0.176,-0.021,-0.722,0.185,0.792,0.461,-0.600,0.803,1.377,0.345,0.289,-0.073,0.250,-0.396,0.117,0.425,-0.154,0.550,-0.035,-0.543,-0.630,0.148,0.200,-0.844,-0.399,0.456,-0.074,0.524,-0.841,0.631,0.455,0.265,-0.063,0.044,0.319,-1.534,0.100,0.042,0.494,-0.158,0.605,0.255,-0.129,0.893,0.507,0.411,0.237,0.173,-1.169,0.229,1.393,-0.245,0.795,-0.235,-0.297,-0.022,-0.588,-0.760,-0.494,-0.351,0.074,0.076,-0.004,-1.054,-0.999,-0.136,0.613,0.084,0.019,-0.682,0.027,-2.120,-0.177,1.867,-1.393,1.301,-0.845,-0.365,1.188,-0.529,-0.421,-0.035,0.372,1.058,0.306,0.078,0.789,-1.203,0.134,0.360,0.273,-0.846,-0.368
0.319,-0.004,0.487,-0.458,0.958,-0.262,-0.948,0.166,0.090,0.782,-0.097,0.066,0.277,0.373,0.695,0.465,0.495,0.092,0.380,0.157,0.886,-0.433,0.757,0.006,-0.260,-0.022,0.118,-0.076,0.105,1.150,-1.252,-0.253,0.271,0.128,0.879,0.505,0.299,0.786,-0.190,-0.043,0.033,-0.251,0.676,-0.494,0.431,0.263,0.370,0.363,0.162,-0.150,-0.226,-0.097,0.827,0.184,0.151,0.865,-0.091,-0.623,0.475,0.132,0.028,-0.552,0.991,0.193,0.861,0.859,0.578,-0.007,-0.158,0.085,0.190,-0.642,0.077,-0.175,-0.536,0.088,0.451,0.174,-0.708,0.249,-1.622,0.094,0.129,0.483,-0.664,0.259,0.328,0.223,-0.145,0.321,-0.533,-0.329,0.077,0.174,-0.071,0.129,-0.075,0.811,0.006,0.386
-0.757,0.302,0.219,-0.585,-0.223,0.460,-0.591,0.714,0.067,-0.372,-0.111,0.774,0.142,0.808,-0.312,0.800,-0.532,0.201,0.145,-1.004,0.577,-0.449,-0.833,-0.162,0.769,-0.090,0.320,0.812,0.494,-0.707,1.034,-0.281,-0.222,-0.065,0.011,0.798,1.487,0.842,-0.263,0.735,0.006,-0.286,1.167,0.347,0.035,0.319,0.747,0.840,0.280,-0.304,0.056,-0.354,-0.163,0.334,0.062,0.072,-0.267,-0.016,0.467,0.524,-0.678,0.226,0.963,-0.199,-0.880,0.061,0.902,-0.024,-0.049,0.010,0.059,0.476,-0.119,0.486,-0.446,0.016,0.272,0.584,0.389,-0.096,0.473,-0.666,0.124,0.382,-1.484,0.139,0.715,-0.104,0.233,0.594,-0.805,-0.297,-0.167,0.748,0.976,-0.048,0.511,-0.708,0.324,-0.264
-0.003,0.564,1.984,-0.345,-0.141,1.051,-0.928,-0.211,0.384,1.166,0.392,0.853,0.023,0.561,0.442,1.234,0.398,-0.233,0.443,-0.146,0.608,0.406,-0.093,0.194,-0.046,-0.035,0.204,-0.901,0.462,0.324,-0.229,0.430,-0.218,0.214,-0.851,-0.234,1.377,0.226,0.434,0.971,0.001,0.262,-0.866,-0.179,0.089,0.663,0.960,0.427,0.185,0.292,-0.600,-0.394,0.309,0.090,-0.190,0.318,0.187,0.091,-0.087,-0.527,-0.858,0.122,-1.865,-0.396,-1.332,-0.048,-0.482,-0.038,0.235,0.081,0.425,-0.134,-0.084,-0.131,-0.269,0.158,0.385,0.134,0.483,-0.026,-0.469,-0.177,0.660,-0.749,0.778,0.387,-0.700,-0.039,0.072,-0.098,-0.593,0.156,-0.001,0.813,0.600,-0.045,0.309,-0.123,-0.165,-0.194
-0.226,0.208,-0.241,0.199,0.242,1.508,-0.420,0.201,0.180,0.457,0.234,0.513,-0.458,-0.227,-0.097,-0.206,0.613,-0.068,-0.747,-0.084,-0.019,0.796,0.513,0.071,0.170,-0.103,0.285,-0.230,-0.172,1.256,1.374,-0.022,0.147,-0.077,-0.744,-0.691,0.037,-0.617,0.153,0.230,-0.006,0.042,-0.234,0.144,0.913,-0.043,0.060,-0.036,0.299,-0.896,0.037,0.383,-0.584,0.317,0.384,0.904,-0.097,-0.200,-0.485,0.703,0.767,0.309,-0.749,-0.084,0.285,0.201,0.740,-0.101,-0.072,0.106,0.573,0.129,0.124,-0.240,0.258,0.080,-0.068,0.556,0.050,0.106,1.334,1.277,-0.385,-0.451,-0.031,0.946,-0.100,-0.106,0.682,0.091,0.130,-0.050,-0.604,-0.283,0.563,-0.012,-0.683,0.052,0.253,0.213
-0.634,-0.686,0.040,0.186,1.322,-1.641,0.204,-0.108,-0.274,-0.396,0.004,-1.221,-0.146,0.729,0.278,-0.343,-2.566,-0.108,0.211,0.228,0.752,0.280,-0.430,0.327,-0.142,0.053,-0.248,0.069,-0.409,-0.643,1.054,0.524,-0.083,0.027,-0.738,0.343,-1.344,-1.455,0.471,-0.743,0.198,-0.169,1.296,-0.388,-0.396,-0.806,-0.481,-0.563,0.186,-0.056,1.013,0.257,0.116,0.463,-0.297,0.687,-0.580,-1.013,0.919,-1.682,0.773,-0.026,-1.417,0.667,2.153,-0.101,-0.839,0.015,0.011,-0.189,-0.295,-0.005,0.303,-0.373,0.645,0.170,-0.474,-0.040,0.792,-0.358,0.373,0.650,0.690,0.173,0.987,-0.691,1.190,0.428,-0.211,0.414,-0.694,-0.062,0.617,-0.121,-0.605,0.078,-0.348,0.430,0.725,-0.237
-0.765,-1.135,0.097,0.028,-0.433,-0.746,0.150,0.289,0.104,0.224,-0.553,-1.872,-1.302,-0.099,0.732,0.341,-0.467,-0.157,0.262,0.471,-0.798,0.012,-1.291,-0.254,0.212,-0.071,-0.171,1.315,0.153,-0.299,-1.707,-0.822,-0.116,0.003,-0.440,0.559,-0.634,-0.431,-0.366,-1.936,-0.046,-0.647,1.550,0.065,0.233,-2.174,0.063,0.260,-0.117,-0.557,-0.222,-0.163,1.073,-0.393,-0.293,-0.671,0.139,-0.867,0.961,-0.051,-0.457,0.739,0.794,0.232,0.656,0.262,-0.756,-0.114,-0.173,-0.131,-0.337,-0.355,-0.190,0.591,0.053,0.050,0.805,-0.287,0.264,0.080,-0.368,-0.493,1.424,0.511,0.753,-1.268,0.831,-0.563,-0.299,-0.259,-1.380,0.309,-0.136,-1.072,-1.124,-0.018,-0.465,0.649,0.063,0.070
-0.040,-1.542,-0.031,0.053,0.798,-0.580,-1.591,-0.414,-0.226,-0.482,0.037,-1.456,-0.017,0.213,-1.254,-0.971,-1.994,0.014,0.066,0.154,-0.221,0.501,0.221,-0.097,-0.558,0.172,-0.244,0.291,-0.089,-1.861,0.369,-1.113,-0.677,0.194,-0.628,0.468,-0.013,-2.613,0.176,0.026,0.145,-0.106,-0.167,-0.231,-0.622,-1.383,-0.211,-0.042,-0.173,0.708,0.556,0.176,-0.099,-0.016,-0.607,0.592,0.048,-1.193,0.154,-1.094,1.385,0.393,-0.041,-0.389,1.715,0.204,0.240,0.108,-0.050,-0.044,-0.128,-0.445,0.076,-0.987,-0.399,-0.255,1.535,-0.407,0.695,-0.217,0.731,0.616,0.796,0.302,0.156,-2.421,1.008,-0.099,-0.171,-0.335,0.196,0.198,0.582,-0.237,-0.364,-0.150,-0.758,0.393,-0.701,-0.132
0.011,0.697,0.198,0.618,-0.531,0.439,-1.307,0.231,0.412,-1.401,-0.381,-0.159,-0.416,0.209,0.708,0.286,1.048,0.120,0.639,-0.009,0.296,-0.606,-1.195,0.148,1.659,0.228,0.803,1.072,0.246,0.127,0.007,-0.156,-0.289,0.278,0.361,0.627,0.994,0.527,-0.208,0.152,0.014,0.210,0.744,0.195,-0.184,-0.082,-0.288,0.321,0.110,0.310,-1.594,-0.647,-0.335,-0.744,-0.109,0.233,-0.145,-0.577,1.190,0.780,-0.560,0.549,1.268,0.121,-0.197,0.594,0.742,0.103,-0.054,-0.060,-0.074,0.286,0.065,0.257,-0.422,-0.237,0.903,0.392,0.550,0.557,-0.246,-0.944,0.076,0.831,-0.920,0.014,0.911,0.254,-0.091,1.061,-0.814,-0.459,-0.187,0.048,0.596,0.015,0.308,-0.600,-0.473,-0.624
-0.263,-0.465,0.402,0.053,0.530,0.465,0.004,-0.191,-0.157,-0.269,0.062,0.187,0.426,0.497,0.146,0.372,0.323,-0.238,-0.393,0.598,0.096,0.005,0.727,-0.092,-0.519,0.072,-0.027,0.257,0.172,-0.577,0.717,1.264,0.407,-0.048,1.176,0.258,-0.845,0.050,0.202,0.910,-0.024,0.232,-0.214,0.139,0.463,-0.427,-0.391,0.123,0.059,-0.077,-0.620,-0.307,-0.537,-0.918,-0.132,0.522,0.201,0.951,0.779,0.251,-0.074,-0.482,0.315,-0.084,2.412,0.083,-0.375,0.146,-0.134,-0.209,0.005,0.671,-0.035,0.029,-0.067,0.138,0.073,0.266,0.334,-0.401,1.526,0.892,0.368,-0.383,1.041,1.182,0.488,0.075,-0.015,-0.823,-0.804,-0.087,0.417,-0.055,0.609,0.023,0.181,0.365,0.321,0.042
0.473,-0.209,0.125,-1.214,1.777,-0.309,-0.436,-0.378,-0.020,-0.076,0.258,-0.717,-0.277,-0.248,-0.134,-0.050,-0.410,-0.247,-0.535,0.237,-0.325,-0.380,-0.031,-0.062,0.087,-0.097,-0.035,-0.034,0.040,0.154,-0.438,-0.847,-0.382,0.391,-1.385,-0.606,-1.148,-2.123,0.380,-0.900,0.017,0.015,-0.144,0.053,-1.094,0.908,-1.233,-0.418,-0.097,-0.589,0.843,0.003,-0.238,-0.355,0.059,-0.605,0.373,0.138,0.296,-0.624,0.723,-0.161,-0.273,-0.131,-0.179,-1.054,-0.015,0.090,-0.125,-0.150,-0.514,-0.579,-0.009,0.241,0.059,-0.009,-0.954,-0.132,-0.026,-0.134,0.728,-1.288,1.551,-1.163,-0.175,0.554,0.131,-0.243,-0.196,-0.514,0.477,-0.178,-0.268,-0.074,-0.768,-0.015,-0.093,-1.056,-1.081,-0.161
0.879,-0.702,-0.097,-0.944,2.870,0.537,-1.055,0.058,0.211,-0.585,-0.120,-1.462,-0.314,-0.642,-0.286,-0.613,-0.563,0.178,-0.611,-0.137,-1.073,-0.578,0.074,0.004,0.308,0.101,-0.028,-0.228,-0.395,0.205,-0.654,-0.864,-0.630,-0.117,-1.672,-0.743,-1.444,-2.221,-0.144,-0.487,-0.075,0.012,-0.081,0.465,0.023,0.747,-1.349,-0.509,-0.353,-0.482,1.129,-0.275,-0.219,0.923,-0.010,-0.256,0.190,0.267,-0.327,-0.148,1.561,-0.104,-1.072,-0.432,2.007,-1.251,0.352,-0.166,0.226,-0.110,-0.607,-0.515,-0.134,-0.027,0.280,0.179,-0.993,-0.535,-0.852,-0.176,0.516,-0.705,1.938,-1.381,0.288,-0.374,-0.522,0.015,-0.011,-0.567,0.815,0.053,-1.009,0.223,-0.770,-0.132,0.431,-0.643,-2.070,-0.399
0.604,-0.351,-0.026,-0.340,0.516,0.294,-0.645,-0.044,-0.033,0.136,0.046,-0.384,-0.079,-0.088,0.103,0.972,-0.085,-0.116,-0.197,0.327,-0.860,-0.158,0.091,-0.063,0.014,-0.158,-0.105,0.686,0.427,0.551,0.146,-0.544,0.462,0.414,0.032,-0.245,-0.239,-0.700,-0.087,0.497,0.127,0.261,-0.175,0.078,0.272,0.960,-0.531,0.616,-0.093,0.170,0.649,0.139,0.059,0.338,-0.086,0.547,-0.134,0.412,0.087,0.087,0.492,-0.082,0.702,-0.216,0.498,-0.551,0.117,-0.003,0.060,-0.104,-0.283,-0.126,0.146,0.128,0.075,0.420,-0.354,0.182,-0.812,-0.055,1.444,-0.143,0.883,-0.509,0.137,-0.068,0.402,-0.229,0.221,-0.194,0.627,-0.086,-0.228,0.448,-0.178,-0.057,0.665,-0.372,-0.763,-0.281
0.304,-0.171,0.769,-0.413,0.320,0.177,-0.339,0.004,-0.055,-0.016,0.247,-0.407,-0.573,-0.726,-0.107,0.480,-1.193,-0.104,-0.813,0.390,-0.276,-0.242,-0.477,-0.091,-0.197,-0.107,-0.139,0.275,0.057,0.835,-0.889,-0.697,0.205,0.383,0.006,0.052,0.496,-0.231,0.191,-1.883,-0.031,-0.025,-0.225,-0.310,-0.062,0.360,-1.413,0.212,-0.197,0.014,0.200,0.321,0.211,-0.132,0.059,-0.449,0.485,0.533,-1.450,-0.512,0.320,-0.239,-0.272,-0.245,0.532,-0.271,0.714,-0.005,-0.141,-0.082,-0.997,-0.928,0.017,0.205,0.508,0.177,-1.156,0.033,0.131,-0.223,-0.516,-0.016,0.464,-0.596,-0.629,-0.263,0.226,-0.100,0.609,-0.636,0.436,-0.274,0.421,0.420,-0.793,0.079,0.312,-0.552,-0.184,-0.514
0.431,-0.467,-0.013,-0.064,0.678,-0.580,-0.070,0.080,-0.094,0.024,-0.035,0.367,0.519,-0.882,0.511,0.272,0.727,-0.114,-0.522,-1.730,-0.637,-0.219,-0.225,-0.120,-1.266,-0.041,-0.006,0.005,0.130,-1.470,0.191,-0.602,0.532,0.071,1.139,0.175,-0.611,0.179,0.272,-2.447,-0.344,0.026,0.522,-0.193,-0.290,1.946,-0.441,0.103,0.081,0.041,-1.111,1.259,-0.741,0.306,-0.077,-1.903,0.137,0.291,1.392,0.307,-0.777,0.011,-0.298,0.102,0.632,-0.789,-0.510,-0.124,-0.034,-0.062,-0.175,0.232,-0.148,0.757,0.047,0.478,-0.491,0.060,-4.248,-0.314,-1.733,-0.675,0.257,-0.678,0.401,0.643,-0.014,-0.012,-0.389,-0.477,0.279,0.347,0.921,0.038,0.576,-0.139,-0.428,1.318,-0.148,-0.066
-0.160,0.865,-0.023,-0.418,0.896,0.053,0.185,0.449,-0.109,0.079,-0.059,0.907,-0.026,0.880,0.991,1.882,0.010,-0.126,-0.095,0.396,-0.050,0.482,0.270,-0.184,0.222,0.070,-0.101,1.135,0.480,0.350,-0.182,0.449,0.066,0.583,0.499,-0.324,0.047,-0.614,-0.029,0.853,0.055,0.118,0.003,0.149,0.064,0.926,-0.524,1.051,0.154,-0.138,-0.144,-0.019,-0.117,-0.138,-0.180,0.630,0.087,0.567,0.641,0.660,-0.974,-0.054,0.716,-0.263,1.740,-0.458,0.561,0.022,0.022,-0.135,-0.209,-0.399,0.336,0.346,0.161,0.546,-0.294,0.720,1.463,-0.144,1.014,0.035,1.411,-0.370,0.580,0.212,1.130,-0.209,0.277,-0.151,-0.161,-0.169,0.671,0.422,-0.224,-0.151,1.021,0.215,-0.763,-0.203
0.176,0.408,1.167,-0.799,0.074,0.155,0.011,0.140,-0.158,0.148,0.286,-0.491,-0.120,0.415,0.204,0.408,-0.857,0.308,0.435,-0.547,0.791,-0.033,-0.766,0.071,0.820,-0.171,0.048,0.208,0.180,0.282,0.301,-2.153,-0.242,0.180,0.253,-1.200,-1.171,-0.526,0.439,-0.661,-0.048,0.360,-0.221,-0.323,-0.052,-0.158,0.022,0.079,0.283,0.168,-0.104,0.604,-0.305,-0.281,-0.165,-0.097,0.359,-0.203,1.270,1.310,0.298,-0.199,-0.636,-0.096,0.949,-1.657,0.526,-0.135,0.047,-0.196,-0.094,0.854,0.101,0.242,0.348,0.202,0.267,0.387,-1.890,-0.253,-1.563,-0.708,0.849,-0.358,0.091,-0.106,0.566,-0.064,-0.293,-0.255,1.133,0.222,0.136,-0.199,0.050,-0.058,0.122,-0.509,-0.288,-0.536
0.555,-1.414,0.345,-1.134,1.636,-0.589,-1.312,-0.609,-0.053,0.810,0.130,-1.316,-0.199,0.017,0.066,-0.045,-0.008,-0.341,-0.678,-0.691,0.234,-0.317,-0.226,-0.078,-0.167,0.101,-0.018,0.035,-0.027,-0.043,-0.406,-0.985,-0.739,0.270,-1.754,-0.922,-0.581,-2.435,0.231,-2.234,0.045,0.176,-0.181,0.461,0.204,1.583,-1.544,-0.606,0.023,0.097,0.805,-0.157,-0.005,0.240,0.050,-0.204,0.325,0.724,0.614,-0.945,0.807,-0.223,-2.540,-0.505,-0.028,-1.017,-0.450,-0.141,0.109,-0.058,-0.351,-0.665,0.340,-0.136,0.332,-0.037,-0.990,-0.252,-1.194,-0.210,2.463,-0.678,1.717,-1.297,-0.191,-0.327,-0.453,-0.559,0.214,-0.561,0.124,-0.057,-0.869,0.407,-0.804,-0.128,-0.739,-1.059,-0.576,-0.298
-0.186,0.392,-1.398,1.041,-1.560,-1.278,0.477,0.471,0.319,1.915,-0.481,3.230,1.197,1.097,1.693,0.005,2.827,-0.204,0.561,1.123,0.667,-0.917,-0.676,0.278,-0.413,0.006,0.278,1.051,-0.024,-1.356,0.744,0.630,2.386,-0.094,-0.281,1.043,-1.188,1.694,-0.432,-0.033,-0.225,0.007,0.492,0.335,0.757,-1.000,0.806,0.544,-0.201,-0.249,0.193,0.054,-1.053,-0.370,0.476,1.155,-0.282,-0.085,-0.348,2.143,1.045,-0.186,0.415,0.007,0.097,1.459,-0.319,0.147,-0.210,0.659,0.665,0.525,0.124,-0.626,-0.323,-0.157,2.763,1.021,-4.291,0.203,-3.302,2.058,-1.221,1.238,-0.037,0.229,1.532,0.927,-0.231,1.486,-0.547,-0.271,1.231,-1.553,-0.560,0.003,-0.665,1.658,1.467,0.130
0.133,-0.108,0.027,-0.005,-0.020,-0.095,0.116,0.052,0.110,0.082,0.095,-0.111,0.039,0.104,-0.001,0.043,-0.082,-0.016,0.122,-0.105,0.076,0.049,-0.153,0.059,-0.016,-0.115,-0.026,-0.135,0.162,0.171,-0.027,-0.105,0.107,-0.066,-0.052,-0.036,0.078,0.041,0.177,0.123,0.171,0.099,-0.028,0.152,-0.035,-0.144,-0.101,0.173,-0.115,-0.038,0.119,0.001,0.056,0.135,-0.142,-0.008,-0.064,0.048,-0.002,-0.057,-0.107,-0.128,0.088,0.118,0.103,0.062,0.046,-0.033,0.050,-0.138,0.025,0.029,-0.002,0.110,-0.047,-0.064,-0.142,-0.066,-0.049,-0.149,0.086,-0.168,0.147,-0.143,-0.096,-0.119,0.050,0.177,0.121,-0.156,-0.140,0.013,0.101,0.077,0.004,-0.171,0.175,0.094,0.040,0.076
-1.652,0.102,0.164,-0.517,-5.980,0.309,-0.378,-0.896,0.036,-1.404,0.235,1.029,-0.103,-2.005,0.964,3.609,0.354,-0.424,-0.775,-1.637,-2.297,2.663,-2.235,0.138,-1.911,0.120,-0.529,-2.608,2.203,-0.172,1.473,-3.735,-3.412,-0.252,0.794,0.015,0.399,-0.865,-0.144,-1.178,0.379,-0.778,-0.364,0.056,-1.233,2.681,-1.813,0.649,-1.804,-0.565,-1.578,-2.811,-0.968,-1.154,0.477,-2.603,-0.842,0.268,-3.690,-2.772,-3.945,0.535,-5.608,0.336,-6.671,0.336,-1.972,-0.055,-0.099,-0.083,-0.620,-1.445,-0.712,-0.563,-0.187,-0.811,0.359,-2.033,-0.737,-0.190,-4.749,-2.380,-4.022,0.364,-3.018,0.483,-5.334,-0.058,0.305,0.071,-2.084,0.536,-1.081,-1.917,-0.271,0.021,-2.206,-1.513,-1.136,0.126
0.225,0.954,-0.101,-0.509,0.784,-0.115,0.538,0.326,-0.149,0.147,0.146,0.009,-0.042,0.714,0.984,1.603,0.159,0.017,-0.138,0.426,0.064,0.365,0.089,-0.183,0.243,0.036,-0.079,1.053,0.619,0.528,-0.063,0.298,0.559,0.400,0.031,-0.238,0.521,-0.548,0.135,0.574,-0.008,0.287,-0.109,0.154,0.036,1.004,-0.425,1.091,0.651,0.193,-0.214,0.129,-0.145,-0.106,-0.118,1.042,0.233,0.390,0.622,0.017,-0.975,-0.027,0.022,-0.306,0.777,-0.372,0.809,-0.172,0.029,-0.089,-0.280,-0.346,0.324,-0.021,0.073,0.549,-0.286,0.587,1.045,-0.177,1.292,-0.015,0.916,-0.301,0.217,-0.043,1.367,-0.288,0.033,-0.170,0.222,-0.127,0.164,0.626,-0.093,-0.154,0.553,0.070,-0.593,-0.201
0.657,-1.128,0.738,1.082,-2.976,-1.085,-0.135,-0.460,-0.244,-0.558,-0.450,1.802,0.066,0.209,0.191,-0.361,0.942,-0.135,0.206,-1.019,-3.635,0.856,-0.228,0.119,-1.962,0.316,-0.112,0.396,-0.204,1.124,0.869,-1.319,-0.521,0.882,1.824,0.496,0.911,2.844,-0.021,-0.567,-0.345,-0.325,-2.218,-0.528,1.586,2.488,1.617,-0.233,0.276,0.679,0.172,0.534,1.685,0.832,-0.019,-2.335,-0.424,-1.579,0.836,1.512,0.321,-0.722,-3.108,0.339,2.043,0.781,0.388,-0.096,-0.093,-0.133,1.036,1.230,-0.384,0.471,-0.302,0.085,-0.071,-1.264,-2.646,0.050,-4.470,-0.151,1.943,0.959,0.129,2.063,1.232,0.184,-0.508,1.221,0.698,0.071,0.325,0.989,2.005,0.071,0.232,2.765,1.319,0.652
0.171,0.387,0.266,-0.366,1.222,0.040,0.123,0.036,-0.030,0.483,0.092,0.015,-0.030,0.388,0.094,1.004,0.115,-0.129,-0.066,0.208,0.121,-0.081,0.265,0.019,0.301,-0.042,-0.022,0.228,-0.034,0.172,-0.106,-0.045,0.130,0.810,0.558,-0.281,0.126,-0.569,0.125,0.164,0.154,-0.016,-0.062,0.193,0.006,0.938,-0.317,0.990,0.244,0.016,0.027,0.396,0.139,0.233,-0.145,0.747,0.161,-0.025,0.600,-0.027,-0.452,-0.052,0.903,-0.242,0.490,-0.349,0.432,-0.008,0.133,-0.053,-0.091,-0.244,-0.002,-0.018,0.018,0.539,-0.248,0.553,0.312,-0.066,1.272,0.224,1.155,-0.310,0.114,-0.046,1.251,-0.263,0.107,-0.044,0.304,-0.170,0.431,0.596,-0.197,-0.177,0.328,0.262,-0.432,-0.124
-0.718,-0.575,-1.597,0.835,-0.358,-1.103,0.509,0.881,0.164,0.820,-0.120,-1.382,-0.418,-0.037,-0.438,-1.124,-1.730,0.193,1.096,1.063,1.082,-0.404,0.332,0.235,1.482,0.291,-0.840,0.926,0.022,-0.075,0.720,2.404,1.211,-1.659,0.902,0.662,0.198,1.573,-0.211,3.457,-0.138,0.075,0.314,0.175,-0.851,-3.768,2.381,-0.036,-0.201,-1.062,-0.746,-0.799,0.576,0.347,-0.532,0.367,-0.081,-0.919,1.154,-0.888,1.087,1.147,3.801,-0.046,-0.931,1.784,1.335,-0.121,-0.115,0.007,0.908,3.060,0.025,0.163,-0.040,-0.965,0.170,0.306,2.858,0.361,3.111,-0.783,-4.074,1.837,0.134,-2.118,1.234,0.716,-0.175,0.715,-1.379,-0.184,-0.410,-0.249,0.907,0.017,-0.145,0.144,1.940,0.977
-0.838,0.565,-0.944,1.357,-0.337,0.523,1.530,-0.016,0.266,0.654,0.433,-0.054,0.536,0.842,-0.216,-0.956,0.654,0.145,0.695,-0.242,0.391,-0.058,1.062,-0.050,2.094,-0.135,0.634,-0.037,-0.788,-0.775,0.570,0.888,0.852,0.129,0.192,0.404,-1.305,1.840,0.544,2.464,0.007,-0.247,-0.240,-0.668,1.108,-1.294,2.614,-0.571,0.375,-0.028,-0.753,-0.141,0.248,0.275,0.239,0.847,-0.150,0.059,1.646,1.067,1.236,0.203,1.018,0.449,1.170,1.790,-1.270,0.148,-0.006,-0.181,1.578,1.672,-0.001,0.191,-0.522,-0.196,1.155,0.052,3.978,0.692,-0.647,1.037,1.435,1.040,-0.145,-0.258,0.304,0.513,-0.093,0.155,-0.822,-0.237,-0.198,-0.761,1.443,-0.048,-0.209,0.637,1.670,0.599
0.016,0.596,-1.203,1.465,0.157,0.962,0.279,0.798,-0.285,-1.260,-0.402,-1.913,0.374,-0.793,-1.674,-1.284,-1.460,-0.037,0.596,0.685,2.782,-0.749,1.480,0.231,0.535,-0.070,-0.286,-1.098,-0.331,-0.768,-0.218,2.069,-0.212,-0.897,-0.019,1.524,0.978,2.206,-0.275,1.997,-0.015,-0.463,0.767,-0.971,-0.312,-4.412,2.709,-0.156,0.393,0.659,0.677,1.410,-0.354,-1.157,-0.212,-0.577,-0.026,-1.256,-1.609,-1.063,1.620,-0.232,3.305,0.609,1.224,0.382,-0.547,-0.134,0.099,-0.095,1.244,-1.780,-0.536,-0.355,-0.546,-0.679,-0.291,-0.434,2.609,0.188,2.198,2.409,-1.868,1.553,-0.059,-0.523,0.654,0.320,-0.531,-0.359,0.395,0.170,0.404,0.253,0.974,0.249,-1.575,-0.358,2.062,-0.116
-0.535,-0.219,0.595,-0.076,0.781,0.433,-1.443,-0.315,-0.004,-0.730,-0.024,-0.538,-0.736,0.108,-0.169,0.697,-0.691,0.293,-0.609,0.264,1.413,-0.042,-0.394,-0.072,-0.837,0.018,-0.161,0.404,-0.148,-0.352,-1.092,-0.575,-0.082,0.169,-0.817,-0.216,0.761,0.076,-0.370,-2.414,0.130,0.253,0.813,0.231,-0.156,0.112,-2.237,0.599,0.343,0.037,0.077,-1.014,-0.167,0.260,0.095,-0.434,0.083,0.223,0.253,-0.793,-0.364,0.046,-0.215,-0.063,-0.195,0.103,0.414,0.042,0.178,-0.148,0.333,-0.699,-0.048,-0.014,0.309,0.263,1.020,0.560,0.741,-0.232,2.319,-0.050,0.371,-0.768,-1.053,-0.097,0.684,-0.548,0.315,-0.936,0.319,-0.042,0.196,0.378,-0.342,-0.027,-0.141,-0.350,-0.724,-0.282
0.191,0.611,-0.611,0.649,0.507,-0.175,0.724,0.194,-0.099,-0.528,-0.097,-0.426,0.065,-0.445,-1.876,-1.415,-0.783,-0.028,-0.115,0.297,1.475,-1.247,0.198,0.353,0.357,0.043,0.009,-0.756,-0.702,-0.313,-1.354,1.718,0.896,-0.235,-1.460,-0.146,2.624,0.707,0.097,1.087,-0.018,0.193,-0.771,0.119,-0.464,-1.524,0.754,-0.775,0.216,0.328,-0.912,0.887,0.341,0.957,-0.054,1.582,-0.108,-1.101,-1.835,-0.331,0.941,0.294,2.297,0.144,-0.725,0.958,-0.559,0.132,-0.170,-0.042,-0.039,-0.704,0.062,-1.050,-0.522,0.022,0.253,-0.035,1.327,0.356,-0.017,1.291,-0.489,0.634,1.456,-1.034,-1.840,0.490,0.030,1.295,-0.401,0.053,-0.051,-0.221,-0.891,-0.022,1.556,-0.190,0.013,-0.372
-0.204,1.106,1.306,0.668,-0.460,0.723,2.490,-0.190,-0.115,0.410,-0.500,0.589,-0.524,0.165,-0.556,-0.818,1.729,0.536,1.118,0.581,0.579,-0.208,0.417,0.245,1.326,-0.180,0.210,-0.081,-0.085,1.577,-1.104,2.917,0.890,0.018,0.256,0.969,0.780,-0.507,-0.119,2.073,0.343,0.058,-0.257,-0.155,0.082,-1.549,0.850,-0.059,0.021,-0.119,1.945,-0.119,0.990,0.133,-0.136,1.141,0.187,-0.345,-0.733,0.037,0.616,0.594,0.380,0.166,-2.926,0.569,0.326,-0.072,0.135,-0.121,-1.259,-0.486,0.652,0.345,-0.049,0.176,-0.910,0.170,1.375,0.004,-0.634,-0.324,-1.895,0.950,0.512,-0.163,-0.172,0.076,-0.335,0.563,-0.191,0.226,-0.547,0.577,-1.394,-0.064,0.910,-0.007,1.038,0.313
0.138,0.954,0.494,-0.653,0.180,0.323,0.785,0.451,0.026,-0.044,-0.135,0.820,-0.116,0.650,1.206,1.940,0.835,-0.005,-0.092,0.880,0.769,0.924,0.253,-0.021,0.805,0.081,-0.068,0.858,0.820,0.649,-0.170,0.634,0.872,0.397,0.746,-0.465,0.144,-0.677,-0.020,0.396,-0.089,0.212,-0.257,0.058,0.247,0.571,-0.461,1.651,0.391,-0.094,-0.079,0.028,0.018,0.256,-0.154,1.083,0.058,0.148,0.330,0.419,-1.461,-0.093,0.507,-0.241,1.348,-0.693,0.845,-0.105,-0.137,-0.110,-0.348,-0.516,0.088,0.221,-0.050,0.263,-0.536,0.457,1.948,-0.158,0.202,-0.077,1.082,-0.553,0.483,0.595,0.566,-0.247,0.101,-0.063,0.183,-0.046,0.350,0.840,-0.257,0.158,0.438,0.538,-0.980,-0.247
1.275,0.120,-0.963,-1.059,-0.506,-0.720,0.835,0.175,-0.171,-1.950,-0.658,0.934,-0.016,-1.117,0.240,0.992,1.424,-0.168,0.348,1.952,-1.710,-1.853,-0.103,0.054,-0.772,0.036,-0.343,0.683,0.086,0.282,1.168,-0.593,-0.168,0.148,0.181,0.096,0.171,-1.273,0.099,0.847,-0.103,0.148,-0.108,0.848,0.339,0.841,0.543,-0.319,-0.041,-0.187,-0.051,0.270,0.523,-0.653,-0.228,-1.032,-0.072,0.557,-2.001,1.700,0.220,0.014,-0.950,-0.186,-0.676,0.278,-0.058,-0.043,-0.023,-0.056,0.051,0.922,0.088,-0.035,0.460,0.313,-2.184,-0.393,-2.674,-0.363,-1.499,-0.781,1.253,0.361,-0.760,1.341,0.180,-0.128,-0.392,0.049,-0.282,0.197,0.023,0.037,0.823,-0.120,0.922,1.055,-1.058,-0.467
-0.127,0.544,0.772,-0.498,0.195,0.890,-0.331,-0.143,-0.015,-0.777,-0.121,-0.544,-0.003,0.281,0.026,1.454,-0.466,-0.160,-0.162,0.038,0.535,-0.253,0.511,-0.195,0.492,-0.169,-0.008,1.035,0.521,0.477,-0.127,0.674,0.621,0.228,0.965,-0.188,0.925,-0.737,0.439,0.922,-0.128,0.179,1.073,-0.206,-0.061,0.443,-0.512,1.139,0.280,0.355,-0.203,0.912,0.118,0.017,-0.340,0.822,-0.126,0.319,0.086,-0.641,-0.332,-0.016,0.922,-0.036,0.487,-0.230,0.414,-0.115,-0.016,-0.146,-0.579,-0.396,0.015,0.278,-0.049,0.687,-1.145,0.471,0.955,-0.087,0.210,0.289,1.980,0.014,0.421,-0.604,1.011,-0.108,0.253,-0.116,0.206,0.192,0.072,1.160,-0.280,0.045,0.696,-0.219,-0.689,-0.123
0.760,-0.499,-2.688,-3.686,-4.728,0.583,1.647,0.671,0.066,-1.399,-0.126,-2.950,-0.204,-0.810,-1.153,0.531,1.286,-0.313,-0.934,-1.045,-0.166,-0.555,-1.435,-0.098,0.903,0.046,-0.323,-0.233,-0.089,-3.095,-1.314,1.809,-2.607,-2.051,0.112,-2.655,2.415,-4.577,-0.498,-0.064,-0.692,0.347,-1.791,-0.033,0.450,-1.431,-2.790,-0.131,-0.761,0.526,2.304,-1.256,-0.245,-0.554,-0.105,-1.748,0.344,-0.589,-4.062,0.058,-0.426,-0.533,1.669,-0.798,-1.680,-3.857,-2.844,-0.065,-0.149,0.030,-1.587,-2.310,-0.357,-0.124,0.718,-2.074,-2.584,-2.526,-2.706,-0.211,-4.268,2.634,-6.235,-2.535,-2.206,0.198,-2.621,-1.240,-0.137,-0.581,0.318,-0.533,-1.894,-1.508,-2.044,0.066,-3.138,1.266,-5.180,-0.922
0.100,0.350,0.447,-0.698,0.586,0.163,0.047,-0.012,-0.069,0.416,-0.164,0.981,-0.066,0.578,0.695,2.266,0.024,0.158,-0.163,0.219,-0.049,0.997,0.373,-0.187,0.748,0.096,0.156,0.488,0.714,0.046,-0.215,0.803,0.716,0.871,0.999,-0.477,0.380,-0.726,-0.006,0.759,-0.179,0.133,-0.270,-0.044,0.398,1.293,-0.443,1.441,0.371,-0.126,0.037,0.743,0.090,0.194,0.384,0.026,-0.082,0.649,0.478,0.258,-1.524,-0.245,0.829,-0.323,0.586,-0.771,0.716,-0.001,-0.082,-0.136,-0.311,-0.519,0.157,0.308,0.063,0.626,-0.519,0.486,1.351,-0.093,0.215,0.301,1.577,-0.548,0.057,0.205,1.393,-0.336,-0.036,-0.060,0.099,0.185,0.817,0.625,-0.277,0.022,0.030,0.686,-1.023,-0.246
-1.053,-1.099,0.894,-0.582,0.447,-1.379,-2.317,1.156,0.306,0.775,-0.045,2.048,-0.497,-0.328,0.573,-0.014,-1.087,0.664,0.191,-2.239,0.188,1.236,0.363,0.242,-0.048,-0.149,1.731,-0.245,0.302,-0.602,1.700,1.277,0.373,0.043,-0.672,1.184,-0.683,0.888,-0.749,-1.418,-0.170,-0.254,-1.556,-0.325,-1.730,-1.348,0.644,0.468,0.141,-0.049,-0.910,0.714,0.366,0.579,0.597,-0.528,0.005,-1.760,-2.184,0.813,-1.350,0.238,1.724,0.040,1.243,-0.066,0.589,-0.102,-0.018,-0.081,1.332,0.980,-0.022,-0.505,-0.395,-0.398,-0.246,0.395,2.408,0.041,0.184,-0.310,-1.337,-0.758,-0.671,-0.121,0.666,0.120,0.762,0.941,-0.505,-0.220,0.855,0.084,0.402,0.112,0.853,1.599,-0.400,-0.059
0.133,-0.062,0.173,0.339,-1.055,-0.360,-1.240,-1.241,-0.347,0.835,0.185,0.605,-0.329,0.144,0.387,-0.661,-0.958,0.503,0.013,-1.487,-1.410,1.403,-1.920,-0.083,-1.967,-0.198,0.851,1.145,-0.204,-1.410,0.212,0.317,-0.902,-0.628,-1.348,0.090,-1.409,0.906,0.002,-2.077,0.370,-0.221,-1.638,0.381,0.509,0.030,0.348,-0.185,0.666,0.132,0.162,0.615,-0.162,0.073,-0.437,0.050,-0.305,-0.616,1.942,0.472,0.946,0.396,-4.128,-0.149,-0.199,-0.214,-1.648,0.048,-0.136,0.564,0.424,-1.099,-0.099,-0.227,-0.135,0.146,0.123,0.011,-2.993,0.840,-0.322,-0.230,2.499,-0.248,0.136,0.749,1.410,0.486,-0.481,-0.312,-0.808,0.355,0.698,0.122,1.640,0.173,-2.258,-0.585,0.519,-0.175
0.275,0.006,1.289,0.213,0.877,0.508,-0.541,0.223,0.051,0.248,-0.705,0.666,-0.149,0.398,-0.242,0.358,0.151,-0.112,-0.456,-0.339,-0.995,1.290,0.230,0.072,1.501,-0.018,-0.379,0.397,-0.350,1.312,0.474,0.101,0.355,0.221,0.654,0.327,0.275,-0.192,-0.160,0.375,-0.180,0.211,2.276,0.443,0.943,0.025,-0.545,-0.094,0.010,0.053,2.270,0.580,-0.059,0.014,0.103,0.473,-0.040,-0.695,0.914,0.909,0.418,0.340,0.836,0.131,1.450,0.388,0.657,0.044,-0.128,-0.064,0.678,-0.536,-0.091,0.390,0.252,0.033,0.153,-0.087,0.127,-0.115,0.868,0.251,1.424,0.205,0.643,0.313,0.661,0.122,0.525,0.384,-0.024,-0.074,0.039,0.498,0.421,-0.034,0.665,-0.169,0.891,0.076
0.131,0.853,-0.842,-0.320,0.592,-0.139,1.338,0.240,-0.157,0.329,-0.315,1.301,-0.186,0.589,0.293,0.719,0.907,-0.154,-0.152,0.981,0.790,-0.616,0.020,0.013,-0.359,-0.119,-0.208,0.601,-0.297,0.484,-0.565,0.299,0.116,-0.047,0.199,0.257,1.116,-0.745,0.025,0.766,-0.000,-0.061,0.644,0.166,-0.402,-0.265,-0.172,-0.075,0.189,-0.269,-0.375,0.037,-0.150,0.034,0.048,0.124,0.004,0.960,0.343,0.447,0.619,0.136,0.424,0.076,0.807,0.259,0.713,-0.168,-0.120,-0.003,-0.239,-0.057,-0.047,-0.124,-0.006,0.368,1.076,0.553,-1.571,-0.152,0.684,0.130,0.310,0.378,0.245,0.811,0.951,-0.484,0.008,-0.441,0.213,0.071,0.454,0.551,-0.334,0.107,0.231,-0.083,-0.881,-0.254
-0.369,-0.014,0.167,1.053,2.070,-0.060,1.181,-0.647,-0.249,0.692,0.460,-0.474,-0.688,0.980,0.826,-0.862,-1.624,-0.084,1.126,0.235,0.494,-1.307,-0.340,0.190,-0.448,-0.118,-0.439,-0.290,0.204,0.897,0.889,-2.027,1.299,0.145,0.013,0.463,0.357,0.410,-0.241,0.209,-0.077,-0.366,1.488,-0.783,-0.861,1.431,1.259,-0.194,0.357,0.842,-0.721,0.252,-1.307,-0.325,-0.932,0.811,-0.031,0.064,0.471,0.384,2.011,0.545,-0.036,0.620,0.244,1.708,-1.111,-0.044,0.098,-0.165,0.030,1.733,-0.242,0.113,-0.228,0.422,1.694,0.347,1.169,-0.499,1.307,-0.435,1.172,1.452,0.066,-1.185,0.056,0.671,0.001,0.907,0.232,-0.207,0.340,-1.035,0.463,-0.029,1.399,0.381,2.344,0.545
-0.165,0.071,0.043,0.090,-0.179,-0.056,-0.057,-0.176,-0.114,-0.009,-0.116,-0.113,0.039,-0.077,-0.049,-0.048,-0.095,-0.061,-0.100,-0.028,-0.104,-0.136,0.099,0.140,0.145,-0.096,0.109,-0.022,-0.089,-0.115,-0.156,0.000,0.047,0.097,0.091,0.119,-0.098,0.100,-0.115,0.053,0.127,-0.180,0.177,-0.169,0.052,-0.130,0.180,-0.148,0.174,-0.033,-0.115,-0.088,0.029,-0.172,0.137,-0.056,-0.091,-0.018,-0.127,0.143,0.178,-0.041,-0.159,0.177,0.115,0.043,0.126,0.068,0.054,-0.137,0.119,0.141,0.064,-0.170,-0.014,0.165,0.141,0.129,0.011,-0.122,-0.036,0.100,0.119,0.161,-0.005,0.057,-0.127,0.046,0.018,-0.042,-0.144,-0.154,-0.020,0.004,-0.149,-0.083,0.081,0.103,0.080,-0.079
-0.676,-0.817,0.603,-0.147,-0.105,0.923,-1.050,-0.968,0.380,-0.352,0.607,-1.214,0.183,-1.347,1.336,0.921,-1.502,-0.244,2.439,-0.805,-1.456,2.100,-0.448,0.494,-1.349,0.118,-0.076,-1.096,1.195,-0.826,0.528,-2.912,-1.444,0.781,0.684,-0.221,-0.538,1.799,-0.191,-2.175,0.164,-0.645,-1.690,-0.831,-0.735,3.047,1.510,-0.400,-0.291,-0.242,-0.199,-0.374,1.103,-0.433,-0.160,-2.495,-0.578,1.835,1.201,-0.771,-1.165,0.301,-4.251,-0.125,-2.165,-0.321,0.474,0.184,-0.190,-0.118,-0.087,-0.357,-0.391,-0.310,-0.823,-0.372,0.149,-0.309,-2.107,0.800,-0.258,-0.882,-0.119,0.442,-0.735,2.043,-0.943,0.123,-0.242,0.291,0.417,0.061,-0.131,0.176,0.761,-0.155,-2.196,-1.565,-0.160,-0.010
0.006,0.843,1.014,-0.926,-0.411,-0.277,0.588,-0.107,-0.150,0.754,-0.158,-0.621,-0.209,0.350,0.626,1.228,-0.287,-0.163,-0.156,0.254,-0.534,1.901,-0.132,-0.125,-0.176,0.027,-0.302,-0.979,0.650,-0.130,-0.051,-0.060,-0.591,0.671,-0.773,-0.363,-1.072,0.096,0.769,-1.050,-0.100,-0.062,-1.639,0.271,0.081,2.163,0.252,1.063,-0.196,0.350,0.127,-0.172,-0.334,-0.148,0.209,-0.330,0.149,0.245,-0.348,1.097,-1.090,0.023,-1.872,-0.455,-0.862,-0.679,-0.309,0.109,0.085,-0.082,-0.199,0.250,0.491,-0.023,-0.014,0.185,-0.372,-0.500,1.301,-0.031,-2.209,0.193,0.662,-0.453,-0.392,1.658,0.002,-0.404,0.167,0.788,-0.218,-0.007,0.654,-0.582,0.222,0.124,0.832,0.333,0.443,0.027
-0.370,-0.242,1.636,0.517,-0.447,-0.747,-1.130,0.165,0.093,0.214,0.010,-2.031,1.220,-0.294,0.307,1.198,-2.078,0.010,0.264,-1.169,0.114,0.120,-0.441,0.171,-0.777,-0.165,-0.541,-1.228,0.377,1.651,1.079,-1.370,-1.136,-0.076,-2.058,-0.031,-1.881,1.016,0.080,-1.557,0.135,-0.632,-1.287,-0.450,-0.802,-1.333,2.173,0.969,0.055,-1.724,-1.007,-1.376,0.134,1.236,-0.158,0.341,-0.567,-1.070,-2.779,-1.943,-0.105,-0.347,-3.399,0.100,-2.486,0.318,0.799,0.137,-0.240,0.071,0.816,1.240,0.067,0.831,-0.851,0.520,-0.118,0.360,3.878,-0.457,0.612,-0.672,0.700,0.421,0.131,-3.032,-2.003,0.097,0.823,-0.101,0.022,0.343,-0.787,0.047,0.228,-0.155,-0.167,-1.239,0.525,0.360
-0.345,0.768,0.358,1.013,-0.514,-0.244,1.506,0.102,0.317,-0.979,-0.053,1.481,0.212,0.653,-0.926,-0.555,1.372,0.091,-0.726,-0.088,0.769,-1.604,0.939,-0.189,0.068,0.102,0.562,-0.684,-0.248,0.830,0.688,-0.395,-0.061,0.276,0.097,0.312,-0.137,0.775,0.131,1.430,-0.085,0.468,-0.055,0.125,-0.004,-0.649,0.827,-0.188,-0.110,-0.740,-0.746,-0.789,-0.090,0.449,0.202,0.432,0.054,-0.736,1.380,-2.272,0.303,-0.511,1.039,-0.083,-0.494,0.326,0.071,-0.057,0.003,-0.181,-0.452,-0.594,0.175,-0.463,-0.227,-0.295,1.143,0.145,-0.426,-0.216,1.860,-0.892,-1.699,-0.294,0.269,-0.309,-0.470,0.067,-0.580,-0.465,0.279,0.283,-0.461,-0.281,-1.088,-0.037,0.313,-1.245,-0.624,0.351
0.665,0.777,-0.616,0.833,1.801,0.636,1.169,0.506,-0.181,1.307,0.058,0.216,0.107,-0.980,-1.058,-1.591,0.035,-0.287,-0.953,0.998,0.868,-2.712,0.496,0.094,0.195,-0.108,-0.459,-0.927,-0.591,-0.309,0.536,1.519,1.267,-0.122,-0.506,1.006,1.311,1.177,-0.155,1.647,-0.041,-0.172,0.892,-0.336,-1.166,-0.340,-1.298,-0.922,-0.830,-0.362,-1.574,0.337,0.217,-0.556,-0.085,0.121,-0.003,0.804,-1.278,-0.601,1.426,0.214,1.680,0.618,0.023,1.388,0.556,0.129,0.225,0.068,-0.336,0.598,-0.051,-0.098,0.140,-0.258,-0.496,0.369,-1.568,0.170,2.032,0.403,0.182,1.284,-0.287,0.008,-0.222,0.595,-0.543,-0.521,-0.120,-0.242,-0.072,-0.536,-0.045,-0.104,-0.336,-0.403,1.939,0.904
-0.297,0.376,-1.237,1.131,2.728,-0.451,0.408,-0.475,0.170,-0.434,0.002,-1.274,0.306,-1.088,-1.797,-2.047,-0.625,-0.058,-1.573,0.286,-0.139,-2.362,1.448,0.011,0.849,0.075,-0.006,0.102,-0.813,-0.421,-1.353,1.661,1.523,-0.334,-0.084,0.478,0.312,0.489,-0.309,0.465,-0.139,-0.258,1.848,-0.464,0.329,-0.909,0.547,0.049,-0.438,1.025,2.061,0.692,-0.011,0.737,-0.486,-0.075,-0.156,0.215,0.433,-1.082,1.526,-0.398,1.570,0.673,2.472,0.822,0.533,0.116,0.038,0.024,0.472,-0.774,-0.022,0.476,-0.251,0.527,1.095,0.588,-0.078,-0.190,2.669,0.830,-1.252,1.031,1.650,-0.702,0.644,0.473,-0.903,-0.620,-0.404,0.136,-0.532,-0.645,0.757,-0.011,0.012,-0.029,1.955,0.662
-0.252,-0.564,-0.534,0.986,1.593,-0.272,-0.950,0.141,-0.254,-0.629,-0.243,-1.113,0.111,0.655,-0.891,-0.557,-0.013,-0.152,0.327,-0.589,1.410,0.177,-0.308,-0.295,-0.147,-0.106,-0.755,0.349,-0.676,1.555,-1.373,0.405,0.956,0.256,-0.590,0.587,1.429,0.330,0.962,1.213,-0.172,0.323,0.322,-0.355,0.779,-1.808,-1.047,-0.563,-0.122,-0.120,0.376,1.504,-0.223,0.852,-0.002,-0.082,-0.084,0.240,1.746,0.234,1.067,-0.047,1.567,0.488,1.870,1.000,0.471,-0.060,0.207,-0.044,0.913,1.383,0.050,-0.871,0.450,0.649,1.464,0.634,-0.570,-0.084,1.154,0.662,0.977,0.898,0.790,0.406,1.358,0.497,0.172,1.032,-0.307,0.091,0.240,1.357,-0.036,-0.041,1.008,0.893,1.579,0.077
0.195,-0.117,0.073,0.457,0.435,1.429,-0.728,-0.006,-0.109,-0.194,0.511,-0.123,-0.258,0.141,-0.841,-0.189,0.248,0.534,-0.256,0.664,-0.324,0.176,0.537,-0.239,0.936,-0.209,-0.020,0.490,0.126,1.231,0.653,0.666,0.628,0.356,-0.012,0.327,-0.003,-0.451,-0.364,0.106,0.262,0.083,-0.516,-0.300,0.607,-0.057,-0.558,-0.183,0.012,0.215,-0.296,0.039,-0.050,-0.327,-0.022,0.360,0.284,0.565,0.332,0.343,0.201,0.049,0.858,0.186,0.832,0.266,0.663,-0.079,-0.072,-0.111,0.819,-0.239,0.087,0.879,0.175,0.152,-1.189,0.093,-0.200,0.005,1.153,0.135,1.010,0.321,0.335,-0.864,0.682,0.140,0.195,1.164,0.382,-0.246,0.222,1.176,-0.620,0.068,0.273,-0.188,-0.593,0.044
0.111,0.127,-1.271,-0.012,-1.018,-0.576,-0.294,0.040,-0.114,0.468,-0.167,-0.006,-0.209,-0.084,-0.598,1.073,0.837,-0.103,-0.138,1.579,0.727,1.010,-0.234,-0.165,-0.470,0.052,-0.248,-0.089,0.342,-1.219,-1.689,-0.544,-0.495,0.110,0.727,-0.386,-1.180,-0.249,-0.185,1.320,-0.108,0.721,-0.977,0.755,-0.006,-0.140,-1.337,0.625,0.280,-0.081,-0.601,-0.189,-0.064,-0.289,0.416,0.425,0.050,0.027,0.099,0.866,0.352,-0.229,-0.056,0.119,-0.385,0.441,-0.059,-0.022,0.048,-0.037,-0.109,-0.383,0.339,-0.447,0.643,-0.151,1.125,-0.218,1.087,-0.243,-1.646,-0.423,-0.901,-0.921,-0.278,-0.032,0.344,-0.325,-0.500,-0.863,0.866,-0.071,0.397,0.249,0.082,0.045,-0.725,0.826,-0.957,-0.232
0.126,-1.135,1.360,0.909,-1.480,-0.543,0.185,-0.359,0.216,0.418,0.148,-0.090,-0.407,0.911,0.733,-0.933,1.417,-0.349,-0.097,-0.646,0.797,-2.274,0.642,-0.043,0.213,-0.061,-0.578,0.307,-0.698,-0.376,-1.866,-0.465,0.507,-0.132,-0.103,-0.008,-2.378,1.198,0.272,-0.832,-0.141,0.140,1.896,0.106,0.955,-1.084,0.062,-0.221,0.015,-0.589,-0.169,-2.228,-0.390,0.437,0.287,0.650,0.597,-1.184,2.942,-1.251,1.134,0.293,-0.120,0.461,0.636,-0.033,-1.069,-0.089,0.077,-0.141,-1.246,-1.305,-0.482,0.147,0.572,-0.177,0.186,-0.182,0.010,0.526,-2.469,-1.003,-0.780,-0.049,0.512,-0.786,-0.377,0.383,0.094,-1.027,-0.200,-0.176,-1.163,-1.286,-1.733,-0.103,1.647,-0.302,2.135,-0.042
