-0.033,0.085,0.074,0.021,0.178,-0.127,-0.090,0.097,-0.042,-0.071,-0.161,0.043,-0.157,0.127,0.203,0.130,0.290,0.030,-0.143,-0.029,-0.133,-0.126,0.176,-0.041,-0.166,0.053,0.112,-0.065,-0.160,-0.018,0.081,0.109,0.008,0.052,-0.034,0.163,0.067,0.010,-0.160,-0.097,0.118,0.117,-0.141,-0.010,-0.029,-0.131,-0.085,-0.167,-0.114,-0.258,-0.042,-0.068,0.020,0.043,-0.009,0.039,-0.044,-0.084,-0.214,0.046,-0.097,-0.076,-0.131,-0.028,0.035,-0.135,0.067,0.002,-0.143,0.062,0.106,0.095,-0.121,-0.092,0.118,-0.110,0.165,-0.095,0.097,-0.126,0.007,0.131,0.160,0.108
-0.089,-0.040,0.182,-0.052,-0.126,-0.013,-0.003,-0.019,0.038,0.113,0.042,0.051,-0.001,-0.099,-0.029,-0.073,-0.070,-0.129,-0.051,0.064,0.251,-0.107,0.122,0.096,-0.123,0.017,0.010,-0.029,0.117,-0.106,-0.066,-0.100,-0.142,-0.100,-0.121,-0.110,-0.063,0.093,0.129,0.033,0.088,-0.118,-0.025,-0.087,-0.074,-0.020,-0.064,-0.074,0.020,0.080,0.007,0.112,-0.061,0.013,0.060,0.106,0.004,0.219,-0.063,-0.142,-0.085,-0.104,-0.102,0.004,0.085,-0.005,-0.024,-0.038,0.051,0.005,0.051,0.025,-0.016,-0.053,-0.048,-0.142,0.039,0.078,-0.074,-0.095,-0.020,-0.081,0.126,-0.032
0.140,0.054,0.140,0.168,-0.042,-0.048,0.032,-0.186,0.003,0.059,0.158,0.137,0.058,0.006,-0.061,0.122,0.215,0.158,0.228,-0.059,-0.005,-0.025,0.027,0.134,0.180,0.223,0.166,0.189,-0.059,0.051,0.142,0.043,0.067,0.183,0.165,0.232,0.196,0.070,-0.049,0.161,-0.050,-0.110,-0.063,-0.026,-0.115,-0.008,-0.153,-0.159,-0.155,-0.132,-0.090,0.085,0.018,0.136,-0.037,0.221,-0.109,0.079,-0.101,0.041,-0.189,-0.164,0.106,-0.143,0.113,0.063,0.015,-0.050,-0.072,0.015,-0.065,-0.058,-0.130,0.003,0.068,-0.052,-0.088,-0.007,0.063,-0.168,0.088,-0.020,-0.083,-0.149
-0.046,0.037,-0.045,-0.177,-0.082,-0.071,-0.119,-0.087,0.092,-0.164,-0.020,0.004,-0.200,-0.159,0.014,-0.019,-0.108,0.134,0.178,0.089,-0.136,-0.109,-0.082,-0.104,-0.080,-0.035,-0.056,-0.109,-0.161,-0.141,-0.048,0.015,-0.172,-0.276,-0.111,-0.029,-0.023,-0.206,-0.163,-0.053,-0.235,-0.013,-0.113,-0.204,-0.148,-0.115,-0.188,-0.212,-0.141,-0.112,-0.142,0.004,-0.135,-0.179,-0.151,-0.056,-0.156,0.246,-0.217,0.230,-0.045,-0.006,-0.005,-0.154,-0.224,-0.227,-0.110,-0.119,-0.153,-0.106,-0.105,-0.227,-0.002,0.180,0.279,0.008,-0.061,-0.311,-0.116,-0.320,-0.147,-0.132,-0.225,0.116
0.143,0.139,-0.029,-0.006,0.299,0.259,-0.134,0.028,0.113,-0.128,0.043,0.063,0.018,0.096,-0.086,-0.059,0.160,-0.129,-0.098,0.076,0.136,0.117,0.091,-0.031,0.138,0.170,0.020,-0.181,0.092,0.151,-0.093,0.128,0.160,-0.184,-0.030,-0.019,0.144,-0.161,0.144,-0.014,0.105,-0.070,-0.201,-0.168,-0.138,-0.199,-0.218,0.143,-0.163,-0.184,-0.238,-0.151,0.109,0.106,-0.161,0.181,-0.116,0.021,0.110,0.064,-0.202,0.048,-0.127,-0.023,-0.054,0.032,-0.149,-0.151,-0.050,0.025,-0.175,-0.168,0.156,0.079,0.074,0.202,0.085,0.089,-0.052,-0.065,0.043,-0.149,0.057,0.262
-0.149,0.113,0.059,-0.113,0.232,0.175,0.195,0.041,0.084,-0.019,-0.147,-0.189,-0.191,-0.055,0.087,0.038,0.125,0.052,0.001,0.026,0.151,0.165,0.145,0.094,-0.047,-0.150,-0.036,0.067,0.106,-0.083,0.048,-0.025,0.004,-0.133,0.079,0.120,0.243,0.056,0.251,0.125,0.251,0.058,0.065,-0.106,-0.171,-0.189,-0.136,0.061,-0.051,-0.209,-0.034,-0.034,-0.178,-0.374,-0.144,-0.097,-0.129,0.178,0.062,0.312,-0.143,0.268,0.095,-0.041,-0.087,-0.130,-0.137,-0.076,0.088,-0.110,-0.091,-0.172,-0.013,-0.153,-0.206,-0.091,-0.010,0.139,0.231,0.324,0.157,-0.013,-0.115,-0.027
-0.072,-0.058,-0.152,-0.276,0.059,-0.038,-0.150,-0.076,-0.121,-0.141,-0.075,-0.253,-0.241,0.001,0.036,-0.164,-0.236,0.055,-0.016,0.067,-0.125,-0.121,0.007,-0.085,-0.064,-0.010,-0.094,-0.082,-0.073,-0.109,-0.168,0.145,-0.195,-0.222,-0.005,-0.020,-0.074,-0.057,0.012,-0.004,-0.027,-0.024,-0.162,-0.164,-0.146,-0.197,-0.155,-0.109,-0.127,-0.224,-0.201,0.154,-0.007,-0.216,-0.145,0.224,-0.159,-0.028,0.163,-0.224,-0.201,-0.128,0.072,-0.196,-0.163,-0.117,-0.171,-0.117,-0.167,-0.074,-0.153,-0.172,-0.232,0.035,0.115,-0.115,0.180,0.035,-0.298,0.045,-0.247,-0.213,-0.199,-0.316
-0.095,-0.016,-0.225,-0.225,-0.249,-0.236,0.009,-0.082,-0.106,0.218,0.039,0.202,-0.041,-0.069,-0.049,-0.086,-0.095,0.199,-0.052,-0.080,0.131,0.014,0.138,-0.099,0.144,0.012,-0.035,-0.052,-0.093,0.083,0.225,0.119,0.248,0.045,-0.016,0.008,0.110,0.136,-0.070,0.014,0.029,0.046,-0.082,-0.124,-0.181,-0.079,-0.100,-0.073,-0.178,-0.143,-0.153,0.339,0.083,-0.015,-0.150,-0.078,-0.205,0.367,0.005,0.106,-0.087,-0.049,-0.121,0.007,-0.023,-0.040,0.105,0.026,0.064,-0.131,0.059,0.015,-0.173,-0.001,-0.061,-0.121,-0.027,0.318,0.295,0.228,0.216,-0.158,-0.036,0.045
-0.010,0.210,-0.024,0.177,-0.029,0.155,0.014,0.014,0.097,-0.030,-0.152,0.337,0.219,0.039,0.143,0.012,-0.061,0.208,-0.091,0.218,0.012,-0.130,0.048,0.134,0.094,0.074,0.106,0.115,0.140,0.048,-0.078,-0.043,-0.078,0.217,0.093,-0.002,0.043,0.067,0.011,-0.064,0.003,-0.046,-0.173,-0.133,-0.116,-0.131,-0.190,-0.015,-0.172,-0.174,-0.215,0.136,-0.144,-0.051,-0.200,-0.023,-0.221,0.166,0.313,-0.218,-0.226,0.339,-0.127,-0.030,0.017,-0.097,-0.053,-0.142,0.042,0.025,-0.009,-0.011,0.244,0.128,-0.104,-0.173,0.027,-0.094,0.270,0.086,0.116,0.105,-0.150,0.265
0.185,0.011,0.128,-0.170,-0.110,0.009,0.068,-0.189,0.105,0.210,-0.053,0.022,-0.197,0.044,0.145,0.031,0.021,0.014,-0.132,-0.025,0.168,0.066,0.073,0.088,0.076,0.182,0.028,0.018,0.078,0.062,0.118,-0.009,0.009,-0.060,0.083,0.044,0.192,0.110,0.132,0.086,0.070,-0.026,-0.158,-0.111,-0.106,-0.147,-0.101,-0.172,-0.077,-0.192,-0.097,0.338,-0.153,0.013,-0.063,0.018,-0.122,-0.125,0.339,0.235,-0.137,0.105,-0.027,-0.052,0.100,-0.071,-0.207,0.118,0.102,0.178,-0.159,-0.111,0.047,0.101,-0.111,0.133,-0.170,-0.020,0.011,-0.041,0.094,0.011,0.250,-0.044
-0.249,0.168,-0.181,-0.234,-0.096,-0.245,-0.175,-0.252,-0.213,-0.010,-0.050,-0.213,-0.163,-0.189,-0.317,0.103,0.054,0.188,0.237,0.066,-0.164,-0.011,0.034,0.060,0.016,-0.111,-0.022,0.051,-0.033,0.086,-0.132,0.114,-0.142,-0.265,0.026,-0.024,-0.009,0.039,0.002,0.051,0.053,0.047,-0.083,-0.191,-0.192,-0.149,-0.183,-0.263,-0.192,-0.198,-0.204,0.027,-0.065,0.077,-0.226,-0.335,-0.238,0.237,0.175,0.160,-0.126,-0.376,-0.252,-0.350,-0.284,-0.350,-0.290,-0.333,0.062,0.044,-0.070,-0.321,-0.136,0.069,-0.073,-0.159,-0.053,-0.290,-0.422,-0.104,-0.342,-0.252,-0.248,0.095
0.088,-0.115,0.112,-0.204,0.237,-0.009,0.074,-0.133,0.135,0.049,0.082,-0.164,-0.163,-0.060,0.258,0.144,0.081,0.050,-0.084,0.045,0.313,0.147,0.076,-0.045,-0.092,-0.061,0.045,-0.070,0.020,-0.064,-0.111,-0.002,-0.021,0.069,0.010,0.057,-0.072,-0.148,0.064,0.187,0.189,0.021,0.092,-0.103,0.070,-0.085,-0.133,-0.209,0.011,-0.067,-0.141,-0.057,0.066,-0.102,-0.100,-0.103,0.019,0.292,0.076,0.051,-0.021,0.234,0.152,-0.194,0.187,-0.131,-0.001,0.110,0.045,-0.156,-0.164,0.046,0.023,-0.035,-0.333,0.099,0.242,0.072,-0.152,0.127,-0.151,-0.176,-0.105,0.118
-0.066,0.077,-0.010,0.034,0.033,-0.078,0.151,-0.117,-0.038,-0.282,0.143,0.191,-0.167,0.057,-0.062,0.176,0.134,-0.003,0.203,0.003,-0.025,0.107,0.131,-0.059,0.133,-0.018,0.128,-0.152,0.081,-0.225,0.018,-0.070,0.047,-0.064,0.019,0.037,0.042,-0.143,0.058,0.099,0.028,0.117,-0.054,-0.017,0.098,0.129,0.077,0.275,-0.019,-0.111,-0.012,-0.185,0.028,0.162,0.110,0.244,0.097,-0.135,-0.098,-0.348,0.121,-0.162,-0.111,-0.038,-0.167,-0.071,-0.150,0.119,-0.092,0.012,0.072,0.065,0.105,0.088,0.310,0.055,0.092,-0.009,-0.181,0.077,-0.217,-0.010,-0.224,0.133
0.135,0.210,-0.007,-0.105,-0.007,-0.008,0.077,0.219,0.117,0.156,0.006,-0.219,0.263,-0.010,0.106,0.063,0.070,0.086,-0.152,0.123,0.059,0.056,0.162,0.069,0.042,0.158,0.141,0.070,0.112,0.158,0.149,-0.051,-0.255,0.145,0.089,0.004,-0.057,0.031,0.045,0.068,0.054,-0.055,0.210,-0.231,-0.208,-0.205,-0.172,0.080,0.036,0.050,-0.136,0.126,-0.176,-0.156,-0.010,0.016,-0.095,0.150,0.147,0.049,0.144,-0.167,-0.084,-0.152,-0.242,-0.239,-0.226,-0.202,0.054,-0.091,0.056,-0.201,0.170,0.147,-0.053,-0.232,-0.067,0.160,0.079,0.259,0.210,-0.187,-0.180,0.072
0.039,0.038,0.028,-0.127,0.194,0.171,-0.106,0.127,0.115,0.018,-0.087,0.078,0.020,0.272,0.077,0.023,0.073,0.132,0.148,-0.093,0.026,0.122,-0.114,0.078,0.006,0.205,0.028,-0.017,0.037,-0.145,0.137,0.040,-0.188,0.188,0.116,0.055,0.244,0.024,-0.021,0.125,0.075,0.023,-0.193,-0.007,-0.177,-0.110,-0.051,-0.093,0.022,-0.074,-0.137,-0.114,-0.143,0.122,-0.043,0.143,-0.081,-0.113,0.099,-0.053,-0.029,0.135,0.010,-0.101,-0.178,-0.186,0.102,0.044,0.042,0.105,-0.138,-0.025,0.127,0.032,-0.039,0.097,0.248,-0.036,0.108,-0.216,-0.187,0.192,-0.071,0.001
0.026,0.039,0.080,-0.088,0.010,0.013,0.092,-0.131,0.015,0.067,0.123,-0.193,-0.140,-0.066,-0.152,0.054,0.066,-0.074,0.021,-0.061,-0.096,0.037,0.062,0.009,-0.229,-0.185,0.144,-0.148,-0.093,-0.136,-0.168,-0.124,-0.157,-0.124,-0.143,-0.077,-0.198,-0.185,0.106,0.133,0.186,0.023,-0.091,-0.104,-0.189,-0.108,-0.132,-0.107,-0.135,-0.066,-0.112,0.162,0.176,0.166,-0.146,-0.210,-0.125,-0.229,-0.159,-0.065,-0.079,-0.008,-0.182,-0.186,-0.025,-0.113,-0.206,-0.217,-0.157,-0.283,-0.004,-0.101,0.039,-0.103,-0.171,-0.193,-0.251,0.088,0.030,0.058,-0.014,0.038,-0.135,0.148
0.083,-0.152,-0.115,-0.126,0.036,0.001,0.085,0.002,-0.071,0.045,-0.057,-0.006,-0.069,0.035,-0.152,-0.001,0.094,-0.107,-0.043,-0.102,-0.042,-0.054,-0.090,0.088,-0.067,0.073,0.074,0.102,-0.047,0.024,-0.000,0.052,-0.044,0.073,0.053,-0.116,0.116,-0.119,0.001,-0.037,0.010,-0.146,-0.045,-0.108,0.052,-0.013,-0.125,0.033,0.102,-0.064,0.001,-0.189,-0.056,-0.129,0.065,-0.101,-0.003,-0.174,-0.170,-0.084,0.027,0.083,0.103,0.051,-0.156,-0.093,-0.115,0.071,-0.038,-0.136,-0.155,0.047,-0.017,-0.139,-0.153,0.093,-0.126,-0.123,-0.042,-0.153,0.046,-0.066,-0.147,0.034
-0.158,-0.118,0.049,-0.047,-0.183,-0.099,-0.168,-0.150,-0.119,-0.010,0.111,0.003,-0.101,-0.181,0.041,0.118,-0.051,-0.182,-0.150,-0.016,-0.019,-0.078,-0.092,-0.126,-0.065,0.014,-0.014,0.034,0.073,0.068,-0.054,0.050,-0.042,0.060,0.081,-0.180,0.046,-0.158,-0.105,-0.015,-0.092,-0.125,0.046,0.016,-0.143,-0.023,-0.029,0.064,0.109,0.060,0.004,0.097,0.091,-0.168,0.096,-0.011,0.097,-0.179,0.092,-0.081,-0.043,-0.087,0.101,-0.093,-0.162,0.036,0.040,0.081,0.131,-0.132,-0.132,0.082,-0.150,0.085,-0.165,-0.121,-0.123,-0.159,-0.083,-0.029,0.011,0.045,-0.154,0.069
-0.223,-0.096,-0.218,-0.378,-0.046,-0.164,-0.133,-0.197,-0.268,-0.094,-0.178,-0.395,-0.285,-0.215,0.148,0.143,0.101,-0.110,0.106,-0.043,-0.194,-0.039,-0.122,0.106,0.115,-0.167,-0.074,-0.201,0.084,-0.070,-0.131,-0.084,-0.142,-0.103,-0.055,-0.000,0.031,-0.116,-0.056,-0.134,-0.108,-0.003,-0.176,-0.211,-0.243,-0.289,-0.257,-0.041,-0.219,-0.116,-0.280,0.279,0.002,-0.212,-0.305,0.202,-0.250,0.265,0.244,-0.191,-0.312,-0.285,-0.339,-0.177,-0.268,-0.247,-0.241,-0.296,-0.110,-0.243,-0.296,-0.171,0.083,0.174,0.116,-0.148,0.339,-0.065,-0.272,-0.047,-0.360,-0.293,-0.258,-0.282
0.055,0.089,-0.027,-0.059,-0.024,0.149,-0.004,0.041,0.048,0.079,0.163,0.051,-0.136,-0.087,0.004,0.044,0.218,-0.089,0.147,0.311,-0.102,-0.106,-0.115,0.019,-0.009,0.076,-0.327,0.169,0.116,0.029,-0.231,0.158,0.169,0.129,-0.173,-0.107,0.128,0.053,-0.100,-0.177,-0.104,-0.207,0.015,-0.153,-0.147,-0.118,-0.177,-0.102,-0.168,-0.184,-0.171,-0.172,0.108,0.187,-0.133,-0.128,-0.032,-0.126,0.013,0.052,-0.037,0.215,-0.128,0.017,-0.020,-0.042,0.030,-0.042,0.131,-0.007,-0.027,-0.056,0.078,-0.125,0.226,-0.059,0.132,0.155,0.085,0.059,-0.012,-0.049,-0.144,0.069
-0.147,0.004,0.093,-0.165,0.088,0.164,0.070,-0.021,0.115,0.232,0.158,-0.144,-0.055,0.005,-0.163,-0.036,-0.155,0.136,-0.009,0.035,-0.098,0.140,0.048,0.011,-0.035,0.108,0.173,0.049,-0.011,0.139,0.094,0.013,-0.144,0.119,-0.073,0.043,0.005,0.138,-0.168,-0.072,-0.135,-0.155,-0.178,-0.013,0.053,-0.136,-0.118,-0.114,-0.004,0.022,-0.058,0.220,0.141,-0.020,0.014,0.173,-0.192,0.026,0.160,-0.243,-0.040,0.090,0.198,-0.102,0.010,-0.078,-0.083,-0.105,0.164,0.045,-0.146,0.028,0.094,0.132,0.029,-0.040,-0.231,0.147,-0.125,-0.024,-0.149,-0.016,-0.048,0.252
0.161,0.102,0.189,-0.037,0.037,-0.031,0.117,-0.066,0.113,-0.055,0.151,0.193,0.157,-0.173,-0.066,-0.119,-0.078,-0.063,-0.094,0.098,-0.049,0.027,0.016,-0.030,-0.022,-0.162,-0.092,0.026,0.093,0.146,-0.116,0.094,-0.009,0.073,0.034,-0.031,-0.008,-0.130,0.301,0.181,0.282,-0.078,-0.170,-0.114,-0.169,0.001,-0.136,-0.005,-0.147,-0.096,-0.196,-0.086,0.027,0.026,-0.152,-0.201,0.060,0.090,0.195,-0.083,0.006,0.190,0.033,0.029,-0.163,0.065,-0.024,-0.181,0.127,0.238,-0.115,-0.056,-0.052,0.038,-0.009,-0.186,0.308,-0.212,-0.063,-0.216,-0.185,0.050,-0.066,0.079
0.122,0.146,-0.129,0.149,0.109,-0.241,-0.121,0.028,0.135,0.246,0.031,0.057,-0.026,0.152,0.050,0.065,-0.114,0.048,0.149,0.206,0.042,0.070,0.009,0.007,-0.023,-0.113,0.064,0.044,0.015,0.153,0.110,0.129,-0.114,0.016,0.201,0.012,0.130,-0.080,-0.067,0.062,-0.259,0.020,-0.165,-0.036,-0.106,-0.164,-0.163,0.054,-0.126,0.244,-0.233,0.303,0.173,0.091,-0.053,0.240,-0.209,-0.135,-0.041,-0.242,-0.058,-0.117,-0.012,-0.194,-0.213,-0.221,0.066,-0.208,-0.031,0.127,-0.013,0.102,-0.059,-0.110,0.039,0.175,-0.193,0.109,-0.105,-0.262,-0.063,0.105,-0.224,0.152
-0.144,-0.131,-0.180,-0.397,0.039,-0.126,-0.061,-0.310,-0.037,0.051,-0.139,-0.203,-0.369,0.031,0.114,0.035,0.153,-0.116,-0.160,-0.012,0.153,-0.176,0.064,-0.084,-0.031,-0.129,-0.024,-0.118,0.023,0.023,-0.015,0.014,-0.205,-0.207,-0.017,0.032,-0.115,-0.222,-0.224,0.019,0.063,0.042,-0.399,-0.300,-0.305,-0.382,-0.383,-0.144,-0.343,-0.252,-0.325,0.130,-0.066,-0.359,-0.369,0.207,-0.370,0.123,0.154,0.084,-0.342,0.043,-0.082,-0.215,-0.260,-0.252,-0.266,-0.271,-0.068,0.089,-0.248,-0.263,-0.060,-0.096,0.242,-0.314,0.199,-0.055,-0.164,-0.218,-0.323,-0.299,-0.212,-0.421
0.031,0.107,-0.014,0.098,0.030,0.029,0.040,-0.035,0.001,0.191,-0.135,0.105,-0.078,-0.084,0.002,-0.184,-0.091,-0.262,0.101,-0.104,-0.013,0.098,-0.032,0.155,0.157,0.021,-0.121,0.066,-0.139,0.063,0.107,0.173,-0.141,0.036,0.029,0.068,0.285,0.097,-0.012,-0.027,-0.053,-0.162,-0.201,-0.060,-0.021,-0.104,-0.176,-0.053,-0.100,0.061,0.057,-0.035,0.020,0.212,-0.137,-0.144,-0.164,-0.042,0.009,-0.082,-0.028,0.006,-0.087,-0.036,-0.095,-0.160,-0.121,-0.071,-0.240,-0.155,-0.042,-0.041,-0.043,-0.112,0.198,-0.188,0.181,-0.015,-0.092,-0.065,0.034,-0.167,-0.091,-0.054
-0.182,-0.033,-0.145,-0.019,-0.133,0.098,-0.097,-0.004,-0.076,-0.038,0.174,-0.059,0.012,0.094,0.029,0.071,0.082,-0.151,-0.120,-0.108,0.044,-0.109,-0.073,-0.052,0.054,-0.096,0.029,-0.103,0.104,-0.174,0.054,-0.019,-0.161,0.045,0.062,-0.040,0.099,0.094,-0.112,-0.148,0.103,-0.061,-0.062,0.032,0.010,0.007,-0.100,-0.056,-0.165,0.028,0.052,0.078,-0.067,-0.066,-0.115,-0.175,-0.172,-0.195,-0.070,-0.009,-0.178,0.075,-0.093,0.093,-0.160,0.052,-0.019,-0.172,0.022,0.019,-0.030,-0.033,0.018,-0.024,0.027,-0.141,-0.141,-0.123,0.045,-0.061,0.002,-0.004,-0.155,-0.065
0.005,-0.171,0.045,-0.161,-0.179,0.033,-0.051,-0.130,0.077,-0.083,-0.024,0.139,-0.033,0.103,0.227,0.056,-0.090,-0.152,0.177,-0.114,-0.021,0.010,0.048,-0.090,-0.065,0.035,0.169,0.058,-0.226,-0.077,-0.159,0.011,-0.131,0.029,-0.035,0.042,0.011,-0.172,-0.154,0.082,0.021,-0.070,-0.152,0.025,0.039,-0.169,-0.159,0.008,0.016,-0.179,0.021,0.153,0.121,0.193,0.056,-0.091,-0.131,-0.128,0.135,0.114,-0.118,0.058,-0.084,0.098,0.032,0.067,0.044,-0.001,0.151,0.107,0.109,-0.054,-0.031,-0.113,-0.203,-0.066,0.031,-0.013,0.192,-0.011,-0.186,-0.155,-0.123,-0.098
0.018,0.189,-0.002,0.130,-0.140,0.051,-0.105,-0.132,0.059,0.151,0.168,0.019,-0.107,0.102,0.131,0.029,0.075,-0.159,-0.103,-0.071,0.161,0.022,0.098,0.096,0.028,0.030,-0.026,-0.013,0.089,0.078,0.011,0.004,-0.071,-0.080,-0.018,0.045,0.109,0.063,0.153,0.033,0.103,0.051,-0.120,-0.138,-0.132,-0.155,-0.174,-0.057,-0.132,-0.096,-0.098,0.149,-0.086,-0.190,-0.163,-0.276,-0.133,0.251,0.226,0.137,-0.139,0.264,-0.166,-0.051,-0.193,-0.206,-0.142,-0.073,-0.074,-0.147,0.034,-0.020,0.137,-0.042,-0.350,-0.132,0.012,-0.085,0.155,0.144,0.125,-0.169,-0.029,0.047
0.140,0.134,0.008,-0.089,-0.041,-0.071,-0.034,0.044,0.020,-0.234,0.116,0.000,-0.119,-0.076,-0.223,0.187,-0.078,-0.024,0.311,0.088,-0.220,-0.155,0.140,-0.180,0.015,0.187,0.236,0.061,-0.039,0.027,-0.115,0.104,-0.178,0.083,-0.008,-0.160,-0.075,0.018,0.089,-0.045,0.075,-0.110,0.028,-0.134,-0.139,-0.043,-0.146,0.250,-0.105,-0.079,-0.149,-0.149,-0.073,-0.178,-0.065,0.196,0.019,0.152,-0.050,-0.086,-0.054,0.044,-0.115,-0.188,-0.194,-0.101,-0.161,-0.077,0.072,0.065,0.010,-0.022,-0.118,0.059,-0.200,-0.076,0.007,-0.135,0.132,0.166,-0.124,-0.110,-0.152,0.062
-0.169,-0.083,-0.169,-0.369,-0.052,-0.123,-0.124,-0.253,-0.017,-0.065,0.179,-0.186,-0.387,-0.050,-0.087,0.060,0.106,-0.013,0.125,0.066,-0.087,0.024,-0.058,-0.045,-0.024,-0.159,-0.098,-0.182,-0.016,-0.099,-0.041,0.032,-0.151,-0.290,-0.067,-0.016,-0.088,-0.286,-0.150,-0.029,-0.089,0.001,-0.232,-0.350,-0.328,-0.331,-0.262,-0.234,-0.334,-0.180,-0.259,0.240,0.143,-0.485,-0.326,-0.015,-0.316,0.126,0.089,-0.009,-0.301,0.010,-0.057,-0.239,-0.202,-0.246,-0.111,-0.123,-0.122,0.012,-0.309,-0.123,0.007,-0.154,0.372,-0.173,0.213,-0.100,-0.364,-0.114,-0.358,-0.256,-0.223,-0.108
-0.242,0.041,-0.274,-0.268,-0.161,0.002,0.001,-0.115,-0.067,0.175,0.073,-0.192,-0.295,0.023,-0.031,-0.011,-0.041,-0.032,0.208,-0.025,0.114,-0.099,-0.025,-0.056,-0.030,-0.150,0.001,-0.006,0.029,-0.116,-0.207,0.084,-0.113,-0.066,0.011,-0.090,-0.059,-0.190,-0.036,-0.057,-0.098,-0.122,-0.084,-0.181,-0.257,-0.227,-0.231,-0.124,-0.182,-0.258,-0.240,0.189,0.140,-0.280,-0.208,0.144,-0.256,-0.026,0.076,0.220,-0.177,-0.067,-0.070,-0.116,-0.160,-0.129,-0.144,-0.210,-0.352,-0.169,-0.188,-0.160,-0.057,-0.069,0.288,-0.190,0.163,0.021,-0.036,-0.102,-0.240,-0.219,-0.214,0.062
0.114,-0.208,0.074,-0.151,0.192,0.127,0.127,-0.137,0.182,0.203,0.089,0.094,-0.175,0.008,0.009,0.051,0.052,-0.316,-0.243,-0.224,0.060,0.005,-0.136,0.017,-0.099,0.089,-0.086,-0.026,-0.011,-0.009,0.039,-0.129,0.075,-0.063,0.008,0.034,0.175,0.039,-0.163,0.114,0.123,0.012,-0.147,-0.041,-0.028,-0.032,-0.020,0.043,-0.030,-0.157,-0.053,-0.059,-0.053,0.185,-0.068,0.176,-0.065,-0.218,-0.083,-0.221,-0.022,-0.244,-0.157,0.118,-0.010,-0.216,0.097,-0.003,0.297,0.295,-0.125,-0.150,-0.115,-0.110,0.362,0.019,0.028,-0.202,-0.009,-0.122,0.089,0.090,-0.102,-0.176
0.102,0.135,0.021,-0.081,0.068,0.171,0.077,-0.034,0.060,-0.014,0.116,-0.085,0.012,0.193,0.065,-0.197,-0.120,-0.007,0.268,-0.241,0.101,0.017,-0.043,-0.023,0.120,-0.228,-0.012,-0.038,0.015,-0.011,0.023,0.016,-0.024,-0.016,0.019,0.038,-0.231,-0.148,-0.171,0.078,-0.028,0.079,-0.006,-0.145,0.098,-0.067,-0.156,0.239,-0.105,0.069,-0.178,-0.187,0.131,-0.250,0.046,0.271,-0.172,-0.016,0.138,-0.121,0.035,-0.106,-0.021,-0.046,-0.026,-0.101,-0.108,0.015,-0.025,0.200,0.070,-0.150,0.324,-0.086,0.155,-0.028,-0.081,-0.112,0.019,-0.265,0.120,-0.023,-0.035,-0.208
0.164,0.040,0.159,0.243,0.158,-0.012,-0.086,0.251,0.147,0.122,-0.042,0.103,-0.179,0.098,0.146,-0.171,-0.136,-0.129,0.083,-0.119,-0.006,0.093,0.066,0.040,-0.074,0.047,0.152,-0.031,0.060,-0.039,0.089,0.097,0.041,-0.120,0.125,0.063,0.074,-0.017,0.062,0.050,-0.158,0.076,-0.172,0.040,-0.125,-0.054,-0.118,-0.185,-0.012,0.077,0.092,-0.097,0.066,0.164,-0.106,0.271,-0.005,0.173,0.240,0.077,0.006,-0.059,-0.146,-0.118,0.096,-0.153,-0.163,-0.140,0.033,0.018,0.142,0.141,0.078,0.013,0.033,-0.032,0.222,-0.128,-0.200,-0.278,-0.075,-0.069,-0.083,0.231
-0.207,-0.201,-0.169,-0.189,-0.028,-0.017,-0.172,-0.139,-0.044,-0.122,0.088,-0.202,-0.241,-0.015,-0.037,0.140,-0.107,0.084,0.158,0.186,0.067,-0.047,0.023,-0.027,0.103,-0.189,-0.133,0.040,-0.054,-0.115,-0.013,-0.022,-0.166,-0.058,-0.081,-0.060,-0.189,-0.002,-0.205,-0.088,-0.030,0.006,-0.086,-0.197,-0.141,-0.150,-0.192,-0.081,-0.179,-0.295,-0.118,0.155,-0.075,0.026,-0.206,0.119,-0.180,0.185,0.162,0.115,-0.198,-0.222,-0.217,-0.187,-0.268,-0.246,-0.263,-0.204,0.072,0.060,-0.251,-0.179,-0.143,0.146,-0.034,-0.123,0.145,-0.147,-0.289,-0.224,-0.196,-0.082,-0.258,-0.097
-0.322,-0.049,-0.261,-0.301,-0.289,-0.236,-0.080,-0.221,-0.311,0.094,0.089,-0.334,-0.328,-0.024,0.091,0.065,-0.103,0.128,0.060,0.075,-0.048,0.057,0.057,-0.051,-0.082,-0.048,-0.044,-0.138,0.050,-0.161,-0.043,0.139,-0.222,-0.211,-0.023,0.067,-0.081,-0.111,-0.048,-0.015,0.026,0.039,-0.335,-0.311,-0.329,-0.332,-0.290,-0.106,-0.312,-0.234,-0.262,-0.095,-0.161,0.139,-0.318,0.269,-0.259,-0.037,-0.023,-0.034,-0.225,-0.396,-0.351,-0.333,-0.315,-0.234,-0.344,-0.343,0.057,0.024,-0.102,-0.212,0.177,-0.150,-0.162,-0.315,0.079,-0.314,-0.118,-0.069,0.017,-0.180,-0.189,0.197
-0.054,0.136,0.229,-0.170,0.040,0.243,-0.109,-0.074,-0.125,0.122,0.014,0.013,-0.120,-0.034,-0.100,0.039,0.073,0.112,0.233,-0.198,-0.113,-0.086,0.092,0.103,0.005,-0.135,-0.046,0.172,-0.057,-0.108,0.045,0.158,0.198,0.263,-0.084,-0.123,-0.052,0.066,-0.035,-0.055,0.040,-0.051,-0.160,-0.148,-0.034,-0.061,-0.020,0.009,-0.163,-0.074,-0.057,0.158,0.023,-0.045,-0.016,0.238,-0.131,-0.146,0.116,-0.000,-0.043,0.057,-0.002,-0.131,-0.035,-0.107,-0.139,-0.042,0.086,0.266,0.020,-0.060,-0.046,0.175,0.098,0.078,-0.188,-0.183,0.037,0.129,0.159,-0.115,-0.026,-0.124
-0.001,-0.150,0.006,0.038,0.103,0.118,-0.111,0.035,0.103,-0.018,0.042,-0.089,-0.126,0.074,-0.123,0.012,0.103,0.070,0.002,-0.123,-0.077,-0.036,0.002,-0.077,-0.173,-0.082,-0.107,0.024,-0.039,0.077,-0.121,-0.085,0.082,-0.182,-0.056,0.028,0.109,-0.017,0.044,0.020,-0.001,0.114,-0.130,-0.008,0.066,0.060,-0.171,0.059,0.034,-0.032,0.057,0.007,-0.164,-0.140,0.068,-0.066,0.023,-0.154,0.019,-0.156,-0.128,0.081,-0.144,-0.016,-0.148,-0.135,-0.161,-0.131,0.061,-0.160,-0.171,-0.105,0.093,-0.135,-0.170,-0.128,-0.102,-0.132,0.062,-0.023,0.064,-0.110,-0.088,-0.084
0.190,-0.132,0.174,0.166,-0.195,0.152,0.166,-0.100,0.127,-0.042,0.039,-0.093,-0.046,0.129,-0.154,0.102,-0.073,-0.056,0.015,-0.081,0.031,0.017,0.053,0.105,0.045,0.075,0.052,0.010,0.077,0.098,-0.053,-0.024,-0.145,0.173,0.050,0.087,0.042,0.108,0.082,-0.013,-0.258,0.149,-0.112,-0.037,-0.061,-0.149,-0.208,-0.081,-0.196,-0.115,-0.155,-0.180,-0.122,0.120,-0.208,0.255,-0.011,0.136,0.074,0.034,-0.192,0.098,-0.151,-0.114,-0.026,-0.015,-0.149,-0.004,0.161,0.114,0.163,0.102,-0.088,-0.069,0.004,-0.055,0.141,0.244,-0.205,-0.093,0.030,-0.035,-0.014,0.254
-0.114,-0.177,0.022,-0.257,-0.272,-0.205,-0.122,-0.110,0.052,-0.319,0.175,-0.390,-0.428,-0.185,0.009,0.120,0.047,0.023,0.011,-0.005,0.071,0.069,0.186,-0.146,-0.138,-0.091,0.020,-0.099,0.104,0.003,0.114,-0.023,-0.101,-0.177,0.067,0.088,-0.011,-0.181,-0.093,-0.011,0.215,0.098,-0.152,-0.323,-0.243,-0.272,-0.283,-0.189,-0.296,-0.260,-0.267,0.129,-0.098,0.189,-0.287,-0.024,-0.276,0.144,0.015,-0.061,-0.279,0.060,-0.229,-0.421,-0.296,-0.382,-0.310,-0.414,-0.031,0.053,-0.235,-0.196,0.086,0.114,0.061,-0.174,0.153,-0.159,-0.013,-0.125,-0.099,-0.165,-0.297,-0.050
-0.194,-0.099,-0.154,-0.226,-0.067,-0.193,-0.212,-0.170,-0.065,-0.229,0.057,-0.247,-0.264,-0.003,-0.173,0.010,-0.006,0.147,0.187,0.084,0.037,0.023,-0.063,0.074,-0.183,-0.041,0.047,-0.051,-0.107,-0.016,-0.059,0.152,-0.168,-0.140,-0.055,0.091,-0.016,0.021,-0.051,0.010,-0.026,0.062,-0.128,-0.243,-0.213,-0.243,-0.172,-0.227,-0.260,-0.261,-0.261,0.173,-0.003,0.017,-0.276,0.084,-0.290,0.084,0.059,-0.093,-0.178,-0.233,-0.319,-0.253,-0.241,-0.164,-0.173,-0.162,-0.032,0.070,-0.275,-0.177,0.176,-0.072,0.039,-0.043,0.144,-0.135,-0.260,-0.009,-0.282,-0.264,-0.165,-0.121
-0.071,-0.128,-0.145,0.082,-0.141,-0.039,0.031,-0.124,0.039,0.020,0.082,-0.103,-0.030,0.069,-0.084,0.010,-0.120,0.061,-0.138,-0.164,0.053,-0.026,-0.120,0.013,-0.149,-0.164,-0.032,-0.162,-0.041,0.116,0.081,-0.145,-0.140,-0.058,-0.106,0.100,-0.176,0.073,0.066,-0.001,0.050,-0.172,0.037,0.014,-0.102,0.085,0.057,-0.057,0.035,-0.048,-0.011,0.021,0.032,-0.025,0.022,-0.117,-0.130,-0.155,-0.045,-0.170,0.069,-0.075,-0.146,-0.029,-0.150,0.046,0.086,-0.042,-0.054,-0.058,-0.038,-0.175,0.015,-0.100,-0.110,-0.134,-0.123,-0.016,-0.067,-0.124,-0.015,0.045,-0.035,-0.033
0.227,-0.242,0.166,-0.053,0.035,0.014,0.075,0.090,0.109,-0.015,0.074,-0.201,-0.196,0.023,0.163,0.117,-0.032,-0.107,0.120,-0.066,0.185,0.006,0.058,0.042,-0.182,0.061,0.012,0.290,0.081,-0.078,0.016,0.175,-0.199,0.421,-0.021,0.153,-0.018,0.141,0.222,0.198,0.127,0.154,0.159,-0.071,-0.127,-0.011,-0.167,0.226,-0.209,0.213,-0.002,0.028,0.135,-0.273,-0.186,-0.081,-0.010,0.251,0.278,0.112,-0.179,-0.193,-0.006,-0.128,-0.056,-0.133,-0.035,-0.142,-0.056,-0.106,-0.090,-0.063,0.082,0.175,0.009,-0.226,-0.083,0.117,0.197,0.245,-0.045,-0.124,-0.033,0.215
-0.117,-0.215,-0.041,-0.099,-0.029,-0.236,-0.354,-0.102,-0.114,-0.002,-0.086,-0.114,-0.306,0.177,-0.065,-0.056,-0.061,-0.090,0.215,0.129,-0.114,0.006,-0.052,-0.041,-0.291,-0.128,0.020,-0.213,-0.013,-0.058,0.036,-0.116,-0.131,-0.303,0.029,0.121,-0.001,-0.048,0.030,-0.104,0.032,0.008,-0.192,-0.129,-0.208,-0.174,-0.151,-0.241,-0.147,-0.240,-0.188,-0.070,-0.022,0.261,-0.147,-0.148,-0.222,0.211,0.124,0.149,-0.222,0.036,-0.262,-0.300,-0.282,-0.294,-0.243,-0.336,-0.179,0.212,-0.310,-0.301,-0.141,-0.067,-0.015,-0.277,-0.133,-0.010,-0.047,0.165,-0.026,-0.262,-0.246,-0.001
-0.034,-0.004,-0.112,-0.124,0.163,-0.100,-0.070,0.149,-0.056,0.006,-0.008,-0.125,0.175,-0.163,0.157,0.157,0.027,0.037,-0.107,0.002,-0.004,0.030,-0.079,0.161,0.133,-0.062,0.012,-0.114,0.011,0.144,-0.071,-0.006,0.043,0.164,-0.122,0.046,-0.032,-0.182,0.046,0.053,0.179,0.097,0.045,0.007,-0.044,-0.057,-0.131,0.006,-0.009,0.045,0.030,0.104,0.056,0.115,0.050,-0.143,-0.021,-0.051,-0.033,0.334,0.025,0.178,-0.009,-0.159,-0.163,0.057,-0.136,-0.129,-0.031,-0.144,0.089,-0.085,0.063,-0.011,-0.018,0.019,0.051,-0.073,0.087,0.002,-0.165,0.055,0.126,-0.110
-0.138,-0.076,-0.144,-0.242,-0.320,-0.008,-0.094,-0.123,-0.097,-0.199,-0.113,-0.128,-0.228,0.051,-0.004,-0.091,0.086,-0.197,-0.208,-0.203,0.018,-0.054,0.024,-0.092,-0.122,-0.069,0.037,-0.094,-0.039,-0.047,-0.024,-0.056,-0.125,-0.176,-0.041,-0.039,-0.116,-0.109,-0.100,-0.034,-0.224,-0.139,-0.208,-0.179,-0.136,-0.158,-0.124,-0.082,-0.203,-0.050,-0.164,0.164,-0.014,-0.311,-0.172,0.241,-0.124,-0.127,-0.071,0.172,-0.110,0.108,-0.130,-0.058,-0.135,-0.155,-0.136,-0.135,0.068,-0.171,-0.181,-0.071,0.054,0.167,0.203,-0.124,0.163,-0.152,-0.014,-0.087,-0.223,-0.130,-0.140,-0.171
-0.285,0.033,-0.313,-0.198,-0.210,-0.085,-0.373,-0.251,-0.062,0.174,-0.033,-0.110,-0.263,0.076,0.007,-0.175,-0.107,0.146,0.171,0.160,0.069,-0.129,0.011,-0.079,-0.080,-0.197,-0.020,-0.107,0.001,-0.101,-0.052,-0.064,-0.322,-0.313,-0.097,-0.020,-0.093,-0.106,0.046,0.044,0.021,-0.098,-0.117,-0.200,-0.218,-0.207,-0.187,-0.274,-0.207,-0.242,-0.203,-0.240,-0.142,0.120,-0.255,0.087,-0.215,0.145,0.196,0.248,-0.157,-0.264,-0.087,-0.296,-0.257,-0.259,-0.283,-0.307,0.107,0.164,-0.020,-0.191,-0.094,-0.107,0.011,-0.278,0.029,-0.388,-0.209,0.116,-0.022,-0.052,-0.266,-0.126
-0.011,0.057,0.124,0.164,0.214,0.045,0.184,0.219,0.102,-0.193,-0.023,-0.199,0.077,0.034,-0.017,-0.073,-0.094,-0.055,0.102,-0.009,-0.096,0.136,-0.033,0.130,0.156,-0.139,0.009,0.077,0.199,-0.072,-0.041,0.002,-0.081,-0.169,0.112,0.285,0.070,0.089,0.128,0.076,0.078,0.067,0.122,-0.048,0.041,-0.172,-0.064,-0.164,0.049,-0.011,-0.140,-0.304,-0.119,0.114,-0.076,0.176,-0.038,-0.155,-0.113,0.104,-0.143,0.067,-0.063,-0.094,-0.108,-0.016,0.026,-0.211,-0.001,-0.011,0.020,0.058,0.188,0.038,0.257,0.002,0.313,0.164,-0.124,-0.133,0.093,0.166,-0.090,0.086
0.078,-0.245,-0.163,-0.225,-0.167,-0.246,-0.261,-0.208,-0.140,-0.159,-0.069,-0.259,-0.052,-0.209,0.093,0.143,0.180,0.248,0.207,0.210,-0.003,0.007,0.052,0.018,0.090,0.005,0.150,0.115,0.039,0.023,0.103,0.076,0.244,-0.215,0.015,0.070,-0.011,0.096,0.056,-0.069,-0.069,-0.024,-0.223,-0.143,0.137,-0.219,0.080,-0.063,-0.253,-0.233,0.099,0.067,0.178,-0.125,-0.232,-0.040,-0.120,-0.104,-0.035,0.234,0.005,0.120,0.202,0.242,0.180,-0.192,-0.149,0.206,-0.021,0.043,-0.169,0.177,0.049,0.022,-0.084,0.123,-0.008,-0.081,0.175,0.241,-0.186,0.165,-0.180,-0.330
0.027,-0.014,0.034,-0.230,-0.118,-0.067,-0.028,-0.112,-0.029,-0.102,-0.064,-0.279,-0.344,-0.187,0.132,0.037,0.073,0.105,-0.266,0.020,-0.044,-0.024,-0.049,-0.078,-0.212,-0.087,-0.035,-0.065,-0.079,-0.155,-0.131,0.010,-0.309,-0.333,-0.117,-0.040,-0.247,-0.131,-0.042,-0.034,0.023,-0.049,-0.219,-0.163,-0.197,-0.189,-0.183,0.136,-0.142,-0.233,-0.192,0.161,0.011,0.334,-0.186,-0.225,-0.233,-0.075,-0.260,-0.275,-0.167,-0.247,-0.198,-0.346,-0.167,-0.414,-0.317,-0.347,-0.155,-0.153,-0.080,-0.101,0.200,-0.051,-0.441,-0.339,0.038,-0.083,-0.053,0.108,0.065,-0.026,-0.376,-0.010
-0.139,-0.004,-0.269,-0.088,-0.027,0.054,0.174,-0.196,-0.019,-0.021,-0.011,-0.247,-0.283,-0.156,0.174,0.078,-0.205,0.047,-0.001,-0.076,0.014,-0.150,0.085,-0.125,-0.046,-0.199,-0.040,-0.151,-0.024,-0.128,-0.148,0.038,-0.231,-0.212,-0.186,-0.015,-0.168,-0.153,0.144,-0.049,0.165,-0.134,-0.251,-0.227,-0.167,-0.174,-0.186,-0.086,-0.162,-0.180,-0.192,0.075,0.110,0.268,-0.187,0.130,-0.182,-0.181,0.138,-0.170,-0.190,-0.228,-0.221,-0.232,-0.076,-0.290,-0.238,-0.221,0.092,-0.077,0.008,-0.153,0.140,0.054,-0.184,-0.333,0.071,-0.065,0.045,0.145,-0.120,-0.007,-0.248,-0.086
0.180,0.030,0.100,0.196,-0.199,0.227,0.189,0.107,0.045,-0.030,-0.092,-0.172,0.160,0.151,-0.059,0.050,0.020,-0.035,-0.097,-0.167,0.097,0.140,-0.065,0.070,0.062,0.182,0.156,-0.016,0.156,-0.023,0.033,-0.033,0.118,-0.156,0.114,0.108,-0.037,0.010,-0.018,0.022,0.103,0.080,0.021,0.106,-0.198,0.013,0.132,-0.126,-0.024,-0.022,0.033,-0.231,0.108,0.156,-0.005,-0.185,0.067,0.221,0.067,-0.099,-0.002,-0.038,0.260,-0.132,-0.181,-0.046,0.057,-0.166,0.112,-0.043,-0.184,-0.161,-0.033,-0.053,0.098,-0.204,0.300,-0.047,-0.020,-0.256,-0.001,-0.150,0.056,-0.014
0.074,0.090,0.079,0.255,0.145,-0.028,0.007,0.191,-0.183,0.048,0.110,-0.160,-0.137,0.211,0.146,-0.016,0.031,-0.041,0.229,-0.113,0.096,0.002,0.100,0.029,-0.188,0.169,0.188,-0.037,0.104,0.079,0.113,0.140,0.039,0.055,-0.204,0.149,-0.209,0.243,0.089,0.185,0.096,0.127,-0.040,-0.163,-0.233,-0.040,-0.224,-0.014,-0.023,-0.185,-0.035,0.111,0.163,0.039,0.002,0.136,-0.229,0.011,-0.011,-0.079,-0.248,-0.036,-0.194,0.137,-0.113,0.064,0.122,0.135,0.049,0.075,0.114,0.030,-0.124,-0.080,-0.038,-0.131,-0.088,0.030,-0.137,-0.251,-0.134,0.166,-0.130,0.104
-0.133,0.253,-0.076,-0.192,0.022,-0.030,-0.038,-0.220,0.011,-0.085,-0.133,-0.203,0.010,-0.212,-0.037,0.329,0.077,0.239,0.284,0.215,-0.038,0.188,0.076,0.131,0.074,0.109,-0.016,0.069,0.168,0.081,0.035,-0.117,0.095,0.070,0.071,0.112,-0.020,0.020,-0.099,0.021,-0.050,0.092,-0.254,-0.215,-0.223,0.018,-0.173,-0.161,-0.221,0.118,0.040,-0.191,0.073,0.147,-0.115,0.202,-0.053,-0.091,0.007,0.025,-0.038,0.032,0.131,0.080,0.116,0.152,0.141,-0.157,-0.177,-0.233,0.273,0.245,0.018,0.048,0.010,-0.049,-0.088,0.097,0.087,0.134,0.206,0.123,0.211,0.017
-0.222,-0.018,-0.148,-0.348,-0.225,-0.132,-0.001,-0.199,-0.257,-0.032,-0.062,-0.303,-0.394,-0.354,0.042,-0.143,-0.012,-0.063,0.091,0.050,0.003,0.068,0.008,-0.011,-0.107,-0.147,-0.138,-0.070,0.076,-0.027,-0.040,0.102,-0.263,-0.103,0.093,0.053,-0.257,-0.033,0.060,-0.046,0.049,0.050,-0.155,-0.191,-0.227,-0.238,-0.226,0.025,-0.240,-0.291,-0.233,0.143,-0.097,0.184,-0.259,0.244,-0.228,-0.260,-0.043,0.095,-0.209,-0.190,-0.253,-0.348,-0.226,-0.280,-0.284,-0.281,0.034,0.034,-0.069,-0.256,0.110,0.141,-0.176,-0.332,0.150,-0.116,0.099,0.078,-0.258,-0.179,-0.192,0.112
0.116,-0.067,0.151,0.092,0.009,0.048,-0.073,0.063,0.152,0.270,0.083,0.000,0.061,0.071,-0.038,-0.316,-0.220,0.050,-0.040,0.084,0.059,-0.065,-0.046,-0.081,-0.135,0.036,0.050,-0.073,-0.025,-0.029,0.084,-0.037,0.242,0.109,-0.001,-0.216,-0.037,-0.072,0.091,-0.167,-0.174,0.005,-0.123,-0.015,-0.195,-0.176,-0.153,-0.142,0.001,-0.014,-0.078,0.320,-0.168,0.110,-0.119,-0.153,-0.087,-0.055,0.264,-0.173,-0.113,-0.122,-0.026,-0.074,-0.149,-0.071,-0.155,-0.104,0.188,0.200,-0.050,-0.170,0.026,-0.166,0.101,0.071,-0.228,0.005,-0.125,-0.023,-0.198,-0.157,-0.100,-0.088
-0.104,-0.285,-0.077,-0.075,0.009,-0.111,0.050,-0.073,0.009,-0.320,-0.065,-0.142,-0.221,-0.228,0.093,-0.038,-0.010,-0.012,-0.214,0.010,0.178,-0.063,-0.060,0.027,-0.223,-0.059,-0.174,-0.127,-0.062,0.056,0.048,0.017,-0.055,-0.049,0.010,-0.155,-0.106,-0.025,-0.064,-0.026,-0.095,-0.197,-0.132,-0.112,-0.210,-0.186,-0.142,0.031,-0.157,-0.068,-0.136,0.163,-0.090,0.189,-0.206,-0.040,-0.128,-0.031,-0.174,-0.047,-0.223,-0.077,-0.011,-0.198,-0.225,-0.154,-0.120,-0.176,-0.073,0.111,-0.086,-0.156,0.008,0.139,0.117,-0.190,0.103,0.095,0.080,0.125,-0.048,-0.033,-0.162,0.033
-0.102,-0.221,-0.026,-0.080,0.171,-0.092,-0.156,-0.178,0.012,0.036,-0.083,-0.193,-0.100,-0.120,0.128,0.064,-0.130,-0.124,-0.143,-0.189,0.117,-0.057,0.002,-0.095,-0.025,-0.086,0.005,-0.136,-0.114,-0.170,0.084,0.019,-0.136,-0.142,-0.026,-0.057,-0.019,-0.174,-0.155,0.089,-0.040,-0.023,-0.171,-0.184,-0.135,-0.098,-0.106,-0.167,-0.113,-0.142,-0.094,-0.156,-0.146,0.029,-0.150,0.083,-0.195,0.195,0.041,0.013,-0.214,0.210,0.060,-0.151,-0.109,-0.126,-0.107,-0.155,-0.096,-0.094,-0.144,-0.095,-0.280,0.166,0.146,-0.029,-0.093,0.023,0.168,0.097,-0.085,-0.167,-0.068,-0.189
-0.257,-0.239,-0.299,-0.246,-0.046,-0.193,-0.143,-0.360,-0.075,0.083,-0.065,-0.253,-0.256,-0.082,0.193,0.161,0.139,-0.034,0.180,0.025,0.091,0.051,0.033,-0.015,0.088,-0.119,0.088,-0.200,0.062,-0.092,-0.097,0.123,-0.249,-0.352,-0.081,0.083,-0.203,-0.165,-0.335,-0.140,-0.236,0.058,-0.153,-0.317,-0.291,-0.344,-0.392,-0.042,-0.361,-0.182,-0.346,-0.061,-0.149,-0.115,-0.342,0.195,-0.329,0.235,0.088,0.193,-0.359,-0.102,-0.350,-0.269,-0.220,-0.268,-0.245,-0.240,-0.062,0.138,-0.265,-0.194,0.083,0.156,0.093,-0.138,0.163,0.018,-0.152,-0.132,-0.317,-0.323,-0.286,-0.218
-0.004,0.027,0.123,0.078,-0.028,0.278,0.212,-0.155,-0.091,-0.209,-0.013,-0.005,-0.102,-0.079,0.093,-0.138,0.138,-0.143,-0.163,-0.030,0.041,-0.069,-0.023,-0.018,-0.136,0.218,-0.059,0.116,0.048,0.056,-0.115,0.142,0.069,-0.093,-0.004,0.193,0.021,0.080,-0.088,-0.054,-0.008,-0.063,-0.009,-0.007,0.012,-0.066,0.037,-0.058,-0.120,-0.049,0.088,-0.275,0.021,0.002,-0.004,-0.051,0.038,0.194,0.249,0.152,0.077,0.199,0.144,-0.039,-0.092,-0.181,-0.104,-0.166,0.245,0.059,-0.038,-0.148,0.098,-0.172,0.030,0.005,0.257,0.067,0.028,-0.094,-0.016,-0.105,-0.096,-0.080
-0.068,0.084,0.019,-0.083,-0.069,-0.052,0.126,-0.197,0.102,0.026,-0.011,-0.113,0.036,-0.136,0.275,0.128,0.159,0.159,-0.355,-0.049,0.183,-0.042,0.030,0.085,0.116,-0.082,0.096,0.024,0.065,-0.079,0.102,0.160,-0.076,-0.047,0.120,-0.021,-0.128,-0.110,0.181,0.057,0.161,0.021,0.175,-0.135,-0.157,-0.075,-0.079,-0.142,-0.137,-0.044,-0.107,0.146,-0.070,-0.289,0.020,0.051,-0.187,-0.057,0.240,-0.018,-0.143,0.045,-0.211,-0.031,0.021,-0.033,-0.160,-0.178,-0.197,0.241,-0.106,-0.021,-0.091,0.063,-0.016,0.012,-0.035,-0.079,-0.129,0.054,0.068,-0.085,-0.080,0.223
-0.107,-0.026,-0.112,-0.151,0.013,0.236,0.220,0.048,0.161,0.060,-0.165,0.023,0.078,0.059,0.251,-0.064,0.037,-0.082,-0.057,-0.106,0.190,0.142,0.006,0.089,-0.062,-0.176,-0.008,0.104,0.049,-0.004,0.012,0.056,-0.091,-0.075,0.002,0.105,-0.084,0.227,0.197,0.251,0.218,0.108,-0.161,0.023,-0.001,0.024,0.037,-0.137,-0.052,-0.153,-0.195,0.044,-0.168,-0.344,-0.169,0.026,0.027,0.019,0.132,0.037,-0.134,0.122,0.038,-0.169,0.002,-0.163,-0.144,-0.203,-0.095,0.075,0.123,-0.155,0.207,-0.067,-0.144,-0.076,0.076,-0.132,-0.135,0.145,0.128,-0.021,-0.023,0.195
-0.161,0.026,-0.157,0.083,-0.040,0.148,-0.105,0.095,0.124,0.208,-0.070,0.124,-0.003,0.177,-0.142,-0.044,0.036,-0.218,0.127,0.112,-0.009,0.030,-0.160,-0.033,0.092,0.099,-0.019,0.060,-0.004,-0.077,0.161,-0.149,0.131,-0.158,-0.057,-0.012,0.142,0.051,-0.206,0.004,-0.115,0.049,-0.039,0.000,-0.150,-0.171,-0.002,-0.141,-0.223,0.124,-0.182,0.160,-0.098,0.213,-0.090,0.050,-0.174,-0.191,-0.101,-0.341,-0.172,-0.165,0.033,0.042,0.063,-0.138,0.009,-0.050,0.043,0.216,0.008,-0.174,0.037,-0.116,0.238,0.287,0.083,-0.109,0.091,-0.030,-0.183,-0.108,-0.013,0.095
-0.156,-0.269,-0.058,-0.168,-0.082,-0.082,-0.041,-0.193,-0.122,-0.259,-0.076,-0.191,-0.255,-0.044,0.111,0.054,-0.116,-0.032,0.001,-0.021,0.117,0.033,0.008,-0.044,-0.069,-0.122,0.096,-0.069,-0.071,-0.043,0.117,-0.126,-0.038,-0.163,-0.023,0.077,-0.102,-0.125,-0.236,-0.197,-0.242,-0.257,-0.072,-0.161,-0.205,-0.182,-0.190,0.015,-0.187,-0.221,-0.166,0.129,-0.175,0.096,-0.259,0.098,-0.258,-0.031,-0.066,0.209,-0.182,0.010,-0.155,-0.235,-0.207,-0.133,-0.153,-0.143,-0.109,0.041,-0.183,-0.237,-0.060,0.162,0.105,-0.128,0.190,-0.151,-0.110,-0.029,0.049,-0.183,-0.240,0.120
-0.009,-0.157,-0.046,-0.158,-0.012,-0.167,-0.062,-0.138,-0.056,-0.029,0.032,-0.218,-0.288,-0.220,0.065,0.006,0.092,0.003,-0.273,-0.101,0.084,-0.053,-0.117,-0.029,-0.142,-0.135,-0.066,-0.142,-0.137,-0.164,-0.023,0.014,-0.130,-0.295,-0.070,-0.025,-0.078,-0.106,0.063,0.032,0.154,-0.014,-0.075,-0.172,-0.094,-0.132,-0.166,-0.096,-0.063,-0.074,-0.122,0.028,0.061,0.222,-0.194,0.038,-0.067,0.060,-0.228,-0.230,-0.085,-0.182,-0.173,-0.247,-0.219,-0.238,-0.231,-0.279,-0.158,-0.142,0.024,-0.168,0.192,0.162,-0.183,-0.224,-0.142,0.019,0.094,0.059,-0.025,-0.106,-0.352,0.046
0.200,0.048,0.233,0.078,0.169,0.078,0.109,0.170,0.172,0.085,0.141,-0.049,0.082,0.012,0.086,-0.163,-0.007,-0.096,-0.139,-0.013,-0.066,-0.003,0.035,0.120,-0.116,0.069,-0.045,0.085,0.092,0.030,0.084,0.179,-0.140,0.018,0.026,-0.101,-0.023,0.066,0.126,-0.001,0.031,-0.041,-0.085,-0.045,-0.167,-0.012,-0.042,-0.111,-0.033,-0.031,-0.080,-0.031,0.149,-0.207,-0.112,0.116,-0.176,0.090,0.266,0.182,-0.024,-0.071,-0.003,-0.043,0.050,0.027,0.024,-0.080,0.115,-0.044,-0.022,0.035,0.260,0.049,0.064,-0.187,0.107,0.081,0.054,0.266,-0.091,-0.066,-0.110,0.212
0.113,-0.029,-0.058,-0.058,0.184,-0.057,0.078,0.106,0.079,-0.201,-0.126,-0.069,-0.078,-0.044,0.020,-0.135,-0.092,0.111,-0.132,-0.027,-0.242,-0.112,-0.149,0.021,0.269,-0.137,-0.035,-0.078,-0.012,-0.025,-0.051,0.004,-0.126,0.090,0.033,0.110,-0.057,-0.019,0.290,0.128,0.068,-0.053,-0.009,-0.076,-0.183,0.033,0.021,-0.188,-0.068,0.084,-0.139,-0.092,-0.084,0.093,0.028,-0.215,-0.087,-0.201,0.152,0.141,0.014,0.095,-0.137,0.065,-0.026,-0.132,-0.134,0.044,0.183,0.100,-0.113,-0.160,0.059,0.123,0.067,-0.020,0.263,-0.135,-0.098,0.075,-0.053,-0.060,-0.053,-0.057
-0.008,-0.075,0.052,-0.280,0.213,-0.217,-0.110,-0.294,0.085,0.023,0.008,-0.214,-0.230,-0.009,0.023,0.298,-0.029,-0.065,0.073,-0.136,-0.319,-0.006,-0.044,-0.053,-0.104,-0.195,0.022,-0.251,-0.212,-0.037,-0.108,0.157,-0.175,-0.292,0.045,-0.057,-0.122,-0.092,-0.022,0.071,-0.063,-0.029,-0.263,-0.259,-0.290,-0.301,-0.291,-0.352,-0.208,-0.268,-0.310,-0.009,-0.157,-0.096,-0.275,-0.258,-0.224,0.196,0.069,0.161,-0.169,0.054,-0.082,-0.228,-0.222,-0.181,-0.245,-0.233,-0.197,-0.080,-0.278,-0.212,0.220,-0.018,0.160,-0.107,-0.129,0.118,-0.018,-0.305,-0.308,-0.201,-0.205,0.221
-0.043,-0.138,-0.166,-0.241,-0.054,-0.106,-0.122,-0.028,-0.150,0.096,-0.040,-0.269,-0.209,0.037,0.017,-0.167,-0.116,-0.058,0.062,-0.185,-0.006,0.024,0.057,-0.140,-0.085,-0.246,0.081,-0.194,0.011,-0.088,0.039,-0.018,0.075,-0.165,-0.006,-0.030,-0.194,-0.173,0.075,0.133,0.210,-0.059,-0.208,-0.192,-0.193,-0.256,-0.218,-0.226,-0.222,-0.190,-0.227,-0.010,-0.029,0.137,-0.195,0.029,-0.215,-0.109,0.149,-0.257,-0.196,-0.065,0.073,-0.248,-0.084,-0.227,-0.293,-0.290,-0.355,-0.313,-0.070,-0.148,0.060,0.082,0.058,-0.250,-0.161,0.024,0.076,-0.049,0.099,-0.153,-0.127,-0.146
-0.015,0.154,-0.098,0.138,-0.134,0.045,0.063,-0.036,-0.181,-0.067,-0.076,0.133,-0.165,-0.087,-0.087,0.152,0.169,0.048,0.031,-0.084,0.077,0.069,-0.087,0.071,-0.015,-0.045,0.045,-0.037,0.068,-0.176,0.067,-0.147,-0.027,-0.024,-0.159,0.087,0.031,-0.134,-0.075,0.071,0.151,0.074,-0.082,0.059,-0.017,0.038,0.070,-0.178,0.080,-0.227,0.087,-0.022,-0.011,-0.012,0.022,-0.141,0.032,0.012,-0.058,0.001,0.092,-0.058,0.023,-0.030,0.056,-0.142,-0.044,-0.123,-0.080,-0.156,-0.082,-0.169,-0.147,-0.035,-0.128,-0.045,0.225,-0.050,-0.033,-0.074,-0.069,-0.108,-0.045,-0.004
-0.068,-0.059,-0.255,-0.339,-0.179,-0.108,-0.115,-0.154,-0.175,-0.178,0.021,-0.250,-0.327,-0.111,-0.122,0.155,0.040,0.038,0.010,0.114,-0.049,0.044,0.185,-0.079,-0.251,-0.188,0.009,-0.237,0.069,0.027,-0.015,0.009,-0.254,-0.273,0.032,0.084,-0.033,-0.197,0.017,0.059,0.048,0.045,-0.315,-0.286,-0.238,-0.225,-0.243,-0.083,-0.224,-0.180,-0.225,0.069,-0.016,0.169,-0.234,-0.127,-0.193,0.126,0.180,0.089,-0.236,-0.262,-0.275,-0.280,-0.363,-0.328,-0.266,-0.274,-0.046,0.104,-0.045,-0.330,-0.010,0.126,0.046,-0.257,0.010,0.026,-0.012,-0.078,-0.005,-0.075,-0.243,0.032
-0.023,-0.141,-0.047,-0.225,-0.100,-0.257,-0.048,-0.185,0.039,0.089,0.031,-0.222,-0.315,-0.193,0.060,0.167,-0.063,0.124,0.215,0.063,0.190,-0.029,0.016,-0.014,-0.002,-0.064,0.044,-0.117,-0.046,-0.188,-0.009,0.081,-0.200,-0.293,0.034,0.064,-0.134,-0.125,-0.018,-0.019,-0.186,0.053,-0.213,-0.316,-0.348,-0.329,-0.329,-0.054,-0.338,-0.371,-0.308,0.033,0.035,0.119,-0.332,0.124,-0.348,0.061,0.056,0.092,-0.282,0.100,-0.363,-0.367,-0.375,-0.353,-0.326,-0.382,-0.198,-0.010,-0.204,-0.405,0.085,-0.030,-0.001,-0.225,0.062,-0.284,-0.081,0.113,-0.252,-0.158,-0.210,0.075
-0.095,-0.114,0.061,-0.062,-0.079,-0.043,0.222,-0.118,-0.090,-0.093,-0.096,-0.205,-0.127,0.066,0.238,0.128,0.073,0.078,-0.132,-0.062,0.124,0.027,-0.023,-0.027,0.025,0.043,-0.015,0.045,-0.101,-0.034,0.023,-0.053,0.097,0.146,-0.024,0.090,-0.002,0.083,-0.004,0.130,0.381,0.185,-0.072,0.044,-0.146,-0.176,-0.023,0.039,-0.131,-0.010,-0.102,0.021,-0.025,-0.158,-0.061,-0.213,-0.048,-0.001,0.320,0.218,-0.044,0.139,-0.154,-0.035,-0.177,0.021,0.011,-0.177,-0.197,0.106,-0.108,-0.093,0.159,-0.021,-0.127,-0.031,-0.122,0.030,0.151,0.313,-0.029,0.103,0.122,-0.010
0.009,0.146,-0.158,-0.247,-0.017,-0.093,0.097,-0.078,0.017,-0.188,-0.033,-0.082,-0.210,-0.117,-0.008,-0.171,0.083,0.097,0.156,0.149,-0.059,-0.040,0.084,-0.062,-0.288,-0.175,-0.080,-0.005,-0.075,-0.069,0.026,0.144,-0.194,-0.224,-0.097,-0.013,0.030,-0.167,0.064,-0.047,-0.113,-0.030,-0.100,-0.196,-0.135,-0.128,-0.142,-0.221,-0.120,-0.158,-0.138,-0.074,-0.041,0.150,-0.161,-0.205,-0.139,-0.004,-0.188,-0.040,-0.080,-0.206,-0.199,-0.126,-0.182,-0.160,-0.201,-0.132,0.139,-0.000,0.040,-0.266,0.188,0.040,-0.259,-0.148,-0.189,-0.316,0.064,-0.044,-0.142,-0.067,-0.090,0.144
-0.134,-0.161,-0.129,-0.312,-0.084,-0.219,-0.229,-0.196,0.004,-0.011,-0.158,-0.186,-0.238,0.081,-0.218,0.141,0.163,-0.021,0.092,0.033,-0.081,0.042,-0.036,-0.034,-0.070,-0.103,-0.119,-0.085,-0.015,-0.050,-0.166,-0.032,-0.311,-0.119,-0.109,-0.067,-0.104,-0.196,-0.210,0.040,-0.173,-0.041,-0.303,-0.241,-0.189,-0.222,-0.213,-0.160,-0.243,-0.100,-0.236,0.088,-0.077,-0.369,-0.193,0.127,-0.175,0.186,0.190,0.187,-0.188,0.070,-0.295,-0.155,-0.195,-0.191,-0.231,-0.142,-0.109,0.146,-0.230,-0.232,-0.031,-0.047,0.262,-0.159,0.134,-0.007,-0.131,-0.200,-0.297,-0.252,-0.204,0.035
-0.042,-0.220,-0.074,-0.402,-0.097,-0.164,-0.187,-0.366,-0.153,-0.191,-0.126,-0.378,-0.360,-0.221,0.170,0.042,-0.150,0.005,-0.071,-0.096,0.206,-0.046,-0.210,-0.172,-0.046,-0.063,0.022,-0.115,-0.208,-0.163,-0.093,-0.176,0.008,-0.101,0.001,0.092,-0.136,-0.151,0.056,0.172,-0.116,0.019,-0.280,-0.288,-0.244,-0.268,-0.285,-0.108,-0.288,-0.282,-0.285,0.153,-0.167,0.087,-0.290,0.266,-0.280,0.145,-0.182,0.091,-0.201,0.108,0.011,-0.324,-0.315,-0.321,-0.262,-0.302,-0.163,-0.372,-0.293,-0.123,0.044,0.041,0.094,-0.161,0.107,-0.137,-0.101,-0.158,0.086,-0.201,-0.210,0.124
0.160,-0.081,0.285,-0.119,-0.160,0.153,0.143,0.210,-0.184,0.135,0.096,-0.037,-0.170,0.057,0.032,0.094,-0.000,-0.243,0.005,-0.263,-0.184,0.013,0.145,0.144,-0.174,-0.095,0.040,-0.160,0.001,0.138,0.020,-0.149,0.021,-0.099,-0.052,0.120,-0.129,-0.116,0.107,0.125,0.144,0.114,-0.038,-0.021,-0.182,-0.049,-0.113,-0.147,-0.105,-0.080,-0.032,-0.089,0.029,0.000,-0.083,0.212,0.072,0.121,-0.124,0.106,-0.151,0.117,-0.182,-0.072,-0.054,-0.065,-0.072,-0.105,0.228,0.175,0.014,-0.082,0.013,-0.109,-0.155,-0.071,0.112,-0.191,-0.187,-0.038,-0.030,-0.038,0.095,0.039
-0.191,0.070,-0.076,0.053,-0.013,0.017,-0.044,-0.041,-0.172,0.125,-0.098,0.031,-0.182,0.011,0.173,0.106,0.001,0.025,-0.022,0.059,-0.156,0.075,0.067,-0.017,0.054,-0.081,-0.028,-0.061,-0.075,-0.063,-0.096,-0.036,-0.137,0.062,-0.103,-0.160,-0.165,-0.018,-0.024,-0.129,0.018,-0.011,0.023,-0.086,-0.136,-0.084,-0.151,0.093,-0.143,-0.030,-0.179,0.082,-0.037,-0.087,-0.086,0.061,-0.017,-0.191,-0.164,-0.081,-0.074,-0.122,-0.019,-0.125,-0.097,0.033,0.019,-0.095,0.076,-0.113,-0.049,-0.000,0.094,0.008,-0.095,-0.194,0.155,-0.173,0.061,-0.058,0.013,-0.034,-0.156,-0.070
0.117,-0.056,0.121,-0.076,-0.007,-0.141,0.114,-0.100,-0.032,-0.181,0.126,0.052,0.005,-0.052,-0.165,0.086,0.129,0.007,0.220,0.190,-0.178,0.014,0.067,0.045,-0.106,-0.112,0.048,0.065,-0.002,0.033,0.059,-0.140,-0.075,-0.086,-0.050,-0.192,-0.071,-0.028,-0.007,-0.192,0.122,-0.100,-0.061,-0.002,0.054,0.072,-0.132,-0.099,0.030,-0.062,0.057,-0.200,-0.021,-0.187,0.008,0.209,-0.062,-0.092,0.006,-0.179,-0.124,0.186,0.094,-0.151,-0.156,0.006,-0.042,-0.031,0.195,-0.192,-0.096,0.013,0.077,-0.017,-0.149,-0.145,0.080,0.013,0.111,0.276,-0.022,-0.108,-0.044,0.014
0.233,0.108,0.144,0.253,-0.022,0.210,0.014,-0.177,0.029,-0.108,0.099,-0.161,-0.138,0.058,0.088,0.053,-0.038,0.097,0.047,0.163,0.043,0.021,0.193,0.123,0.194,0.009,0.080,0.084,0.131,0.107,-0.148,0.098,0.182,-0.219,-0.181,0.033,0.073,0.175,0.202,0.055,0.117,0.143,0.058,0.062,0.038,0.025,-0.179,0.027,0.050,0.003,-0.174,-0.166,0.137,-0.185,0.022,-0.107,-0.094,0.006,-0.072,0.224,0.040,0.085,0.094,-0.166,-0.062,-0.199,-0.062,-0.122,0.193,0.115,-0.011,-0.134,0.226,-0.142,0.106,-0.060,0.192,0.142,-0.022,0.257,0.075,-0.120,-0.100,-0.070
-0.090,-0.000,-0.115,-0.251,-0.079,-0.095,-0.240,-0.169,-0.140,0.052,-0.145,-0.364,-0.325,-0.256,0.099,0.057,0.066,-0.207,-0.245,-0.020,0.038,-0.055,0.055,-0.013,-0.171,-0.121,-0.042,-0.307,-0.045,-0.212,-0.067,-0.132,-0.294,-0.141,-0.093,0.014,-0.194,-0.108,-0.071,-0.032,-0.064,0.011,-0.247,-0.165,-0.163,-0.231,-0.233,0.019,-0.237,-0.009,-0.160,0.129,0.154,0.316,-0.215,0.125,-0.164,-0.279,-0.040,-0.249,-0.205,-0.262,-0.269,-0.343,-0.377,-0.199,-0.229,-0.290,0.166,-0.192,-0.232,-0.193,0.153,-0.038,-0.443,-0.336,0.063,-0.077,0.083,0.176,0.077,-0.087,-0.297,-0.036
-0.175,0.007,-0.094,-0.142,0.157,0.031,0.057,0.213,0.037,0.196,0.178,0.251,0.231,0.174,0.037,0.141,0.099,0.101,0.195,-0.044,0.116,0.020,0.017,-0.090,0.037,0.079,0.025,0.007,0.010,0.102,-0.155,-0.123,-0.088,-0.123,0.003,0.114,0.064,-0.004,-0.004,0.125,0.005,0.107,-0.172,-0.023,0.006,-0.077,-0.030,0.001,0.014,0.055,0.023,-0.034,0.057,0.121,-0.213,0.092,-0.090,-0.078,-0.169,-0.222,-0.081,0.095,-0.056,-0.183,0.060,-0.127,0.112,-0.122,0.075,0.165,0.004,-0.055,-0.007,0.179,0.225,-0.097,0.152,0.113,-0.132,-0.096,-0.056,-0.032,-0.147,0.040
-0.140,-0.056,-0.194,-0.235,-0.200,-0.036,0.001,-0.103,-0.027,-0.295,0.135,-0.274,-0.204,-0.186,0.015,-0.015,0.039,-0.095,0.179,0.033,0.099,-0.020,0.023,-0.031,0.004,-0.164,-0.109,-0.044,-0.051,-0.127,0.086,0.126,-0.178,-0.137,-0.056,-0.159,-0.004,-0.084,-0.017,0.025,-0.164,0.071,-0.147,-0.228,-0.140,-0.198,-0.234,-0.108,-0.174,-0.260,-0.193,0.155,-0.054,-0.077,-0.187,0.118,-0.236,-0.070,-0.031,0.078,-0.183,0.035,-0.220,-0.119,-0.158,-0.120,-0.174,-0.075,0.159,-0.130,-0.211,-0.122,0.087,-0.076,0.142,-0.172,0.189,-0.065,-0.038,-0.073,-0.099,-0.213,-0.137,0.051
-0.085,-0.033,-0.012,-0.107,-0.094,-0.086,-0.018,-0.118,-0.142,-0.056,0.096,-0.144,-0.154,0.002,0.001,-0.072,0.027,-0.069,0.139,-0.144,0.028,-0.172,0.047,-0.203,-0.019,-0.200,-0.088,-0.184,-0.140,0.007,0.012,-0.163,-0.120,-0.180,0.052,-0.155,-0.223,0.014,0.039,0.154,0.063,-0.164,-0.146,-0.154,-0.191,-0.033,-0.112,-0.164,-0.066,-0.024,-0.081,-0.161,-0.060,0.358,-0.091,-0.137,-0.191,-0.023,0.042,-0.208,-0.017,-0.144,-0.092,-0.243,-0.078,-0.153,-0.241,-0.294,-0.134,0.023,0.023,-0.036,-0.219,-0.180,-0.311,-0.148,-0.254,-0.009,0.013,0.134,0.053,-0.046,-0.181,0.069
-0.000,-0.107,-0.183,0.041,-0.118,0.029,0.031,-0.032,0.010,0.163,0.164,0.183,0.224,0.186,0.121,0.091,-0.047,0.096,-0.093,-0.008,0.108,0.067,0.063,0.035,0.119,-0.039,0.025,0.074,0.048,0.138,0.048,-0.151,-0.029,0.040,0.120,0.151,0.073,0.080,-0.022,-0.103,-0.100,0.132,0.012,-0.179,-0.110,-0.091,-0.188,-0.218,-0.150,-0.132,-0.193,0.218,-0.003,0.102,-0.165,-0.221,-0.126,0.345,-0.141,0.132,-0.087,-0.127,-0.177,-0.109,0.127,-0.056,-0.020,0.024,0.158,-0.349,-0.054,0.156,0.050,-0.051,-0.125,0.092,-0.034,0.146,0.190,0.001,-0.168,0.105,0.205,-0.053
0.068,-0.029,-0.004,-0.182,0.078,-0.045,0.174,-0.140,0.197,0.110,0.171,-0.208,-0.185,-0.037,0.123,0.103,0.083,0.123,-0.052,-0.048,0.163,-0.019,-0.050,0.147,-0.031,0.029,0.086,0.011,0.023,0.112,0.058,0.086,-0.136,0.018,0.148,0.028,-0.072,0.320,-0.031,-0.063,-0.212,0.018,-0.160,-0.060,-0.125,-0.192,-0.066,-0.083,-0.160,-0.188,-0.093,0.305,-0.077,0.077,-0.042,0.314,-0.013,-0.118,0.230,-0.061,-0.031,-0.015,-0.050,0.040,-0.150,0.164,-0.091,-0.138,-0.074,0.086,0.130,0.199,-0.194,-0.053,-0.234,0.183,-0.335,0.097,-0.136,-0.114,0.199,0.140,0.017,0.025
0.137,-0.086,0.127,0.104,0.104,-0.094,0.192,0.221,0.109,-0.281,0.030,0.011,0.133,0.016,-0.147,-0.074,0.014,-0.226,0.078,0.098,-0.114,-0.113,-0.034,-0.047,0.126,-0.010,-0.050,-0.124,-0.015,-0.070,-0.103,-0.015,0.096,0.166,-0.040,0.081,0.088,-0.094,0.069,0.060,0.139,0.031,0.060,-0.040,-0.049,-0.094,-0.167,0.295,0.038,0.169,-0.028,-0.147,0.123,0.144,0.039,0.204,-0.114,0.011,-0.015,-0.014,0.004,-0.059,-0.139,-0.207,-0.214,-0.186,-0.180,-0.145,-0.046,0.234,-0.149,-0.163,0.106,-0.126,0.319,-0.053,0.133,-0.063,-0.041,0.053,0.151,0.040,-0.104,0.039
0.043,-0.000,0.011,-0.244,0.013,-0.036,0.084,-0.282,0.107,-0.069,-0.092,-0.177,-0.305,0.119,-0.016,-0.063,-0.066,0.051,0.034,-0.066,-0.135,0.009,-0.036,-0.035,-0.324,-0.158,0.060,-0.030,-0.034,-0.057,-0.003,-0.074,-0.382,-0.217,0.027,0.003,-0.244,0.005,0.121,0.177,0.169,0.023,-0.260,-0.187,-0.274,-0.212,-0.202,-0.261,-0.191,-0.240,-0.266,0.009,0.029,0.144,-0.237,-0.406,-0.236,0.146,-0.076,0.255,-0.171,-0.083,-0.084,-0.223,-0.123,-0.334,-0.274,-0.293,-0.402,0.174,-0.114,-0.077,0.081,0.050,0.131,-0.253,-0.237,-0.217,0.073,0.100,-0.049,-0.186,-0.203,0.119
-0.008,0.133,0.038,-0.130,-0.008,-0.073,-0.034,0.228,-0.166,-0.202,0.148,-0.100,-0.132,-0.041,0.254,0.223,0.237,0.166,0.098,0.135,0.001,0.115,0.097,0.209,0.149,0.103,0.089,-0.134,-0.019,0.130,0.020,0.164,0.044,0.115,0.190,0.083,0.019,0.122,0.064,0.003,0.042,0.107,-0.225,-0.167,-0.055,-0.230,-0.258,-0.212,-0.167,-0.196,-0.179,-0.033,0.034,0.083,-0.232,0.077,-0.188,0.204,-0.035,0.234,-0.185,-0.239,0.104,0.077,0.207,0.280,0.226,0.035,-0.037,-0.159,0.234,0.214,-0.246,0.059,-0.077,0.214,-0.065,0.107,0.048,0.139,0.089,0.266,0.052,-0.060
-0.162,0.228,-0.128,-0.189,0.009,0.166,0.064,-0.169,0.117,-0.144,-0.166,-0.209,-0.205,0.110,-0.032,0.231,0.160,0.240,0.083,0.239,-0.001,0.058,0.128,0.007,0.072,0.238,0.212,-0.169,0.030,0.124,0.131,0.020,-0.142,0.318,0.175,0.069,0.226,-0.205,0.115,-0.006,-0.083,0.101,0.207,-0.018,-0.197,0.048,0.021,0.226,0.038,-0.132,-0.080,-0.074,0.056,-0.090,-0.124,0.181,0.078,-0.246,-0.056,-0.254,0.019,-0.065,0.024,-0.162,-0.243,-0.082,-0.224,-0.211,-0.140,0.073,-0.150,-0.223,0.087,-0.081,0.130,-0.028,-0.168,0.146,-0.046,-0.034,-0.027,-0.188,0.118,0.166
-0.185,0.187,-0.122,-0.091,0.068,-0.121,-0.031,0.077,0.047,0.056,-0.157,-0.146,-0.156,0.242,0.035,-0.038,0.048,0.082,-0.187,-0.139,0.090,0.074,0.079,0.099,0.102,0.072,0.027,0.096,-0.043,0.075,-0.013,-0.006,0.225,0.174,-0.012,-0.004,0.259,-0.089,-0.016,0.037,-0.030,-0.034,-0.162,-0.063,-0.046,-0.090,-0.022,-0.160,-0.036,-0.068,-0.078,0.083,0.038,0.003,-0.169,-0.006,-0.069,0.343,0.207,0.292,-0.091,0.334,-0.031,-0.184,-0.193,-0.183,-0.108,-0.197,0.108,-0.178,-0.074,-0.047,0.107,-0.069,-0.368,-0.054,-0.060,0.281,0.317,0.227,-0.167,0.040,-0.072,0.217
0.168,0.082,0.110,-0.173,-0.028,-0.167,-0.099,-0.180,-0.023,0.165,0.041,-0.013,-0.119,0.109,-0.068,-0.162,-0.118,-0.234,-0.230,-0.030,0.102,0.059,0.067,-0.090,0.085,0.199,0.069,-0.041,-0.184,-0.109,0.035,0.063,0.105,-0.072,-0.002,-0.073,0.026,0.043,0.228,0.107,-0.190,0.042,-0.166,-0.146,0.038,-0.113,-0.107,0.064,-0.121,-0.175,-0.044,-0.076,0.171,0.077,-0.146,-0.043,-0.016,-0.126,0.037,-0.118,-0.121,-0.144,0.105,-0.039,0.146,-0.065,-0.141,0.023,0.093,0.326,-0.108,0.048,0.037,0.149,0.182,-0.148,0.220,-0.102,-0.087,0.006,-0.096,-0.071,-0.067,-0.031
-0.071,0.037,-0.071,-0.157,0.086,-0.137,-0.066,-0.052,-0.029,-0.258,-0.143,-0.255,-0.294,0.069,-0.096,-0.019,0.069,0.007,-0.064,0.018,-0.296,0.119,-0.005,-0.027,-0.022,-0.017,-0.092,-0.075,-0.095,-0.020,-0.156,0.179,-0.212,-0.142,-0.118,0.095,-0.099,0.066,-0.194,-0.250,-0.037,0.067,-0.100,-0.213,-0.193,-0.215,-0.118,0.011,-0.169,-0.041,-0.167,0.197,-0.044,0.024,-0.208,-0.045,-0.139,0.117,-0.000,-0.310,-0.163,-0.131,-0.241,-0.195,-0.088,-0.132,-0.210,-0.099,0.039,-0.101,-0.207,-0.155,0.120,0.165,0.038,-0.035,0.217,-0.032,-0.267,0.058,-0.140,-0.212,-0.106,-0.248
-0.022,0.156,0.085,0.075,-0.101,-0.098,-0.062,-0.106,0.068,-0.039,0.146,0.142,-0.146,-0.142,0.007,0.129,-0.036,0.002,0.156,0.217,-0.056,-0.047,-0.071,-0.139,0.180,-0.053,0.152,-0.146,0.144,0.257,0.050,0.169,0.068,-0.068,0.121,-0.144,-0.184,0.077,-0.167,-0.042,-0.121,0.151,-0.195,-0.042,-0.197,-0.046,-0.082,0.017,-0.162,-0.004,-0.116,-0.009,-0.139,0.124,-0.198,0.051,-0.082,0.233,0.013,0.077,-0.015,-0.007,0.254,-0.087,-0.036,-0.110,-0.058,-0.133,-0.088,-0.202,0.169,0.020,-0.164,0.158,-0.032,-0.063,0.028,0.147,-0.104,0.083,-0.044,0.056,-0.011,0.088
0.004,-0.198,-0.120,-0.244,0.011,-0.118,-0.108,-0.222,0.040,0.083,0.079,-0.274,-0.205,-0.005,-0.090,0.087,-0.153,0.097,-0.007,-0.004,0.076,-0.019,-0.183,0.008,-0.158,0.063,0.092,0.007,-0.066,-0.023,-0.220,-0.163,-0.096,-0.105,-0.041,0.036,0.019,-0.003,-0.220,-0.109,0.053,0.028,-0.167,-0.161,-0.178,-0.097,-0.121,0.043,-0.120,-0.216,-0.118,0.176,0.140,0.162,-0.143,0.148,-0.105,0.157,0.054,0.069,-0.151,-0.168,-0.180,-0.245,-0.116,-0.212,-0.232,-0.290,-0.256,0.015,-0.157,-0.156,0.072,-0.132,-0.038,-0.208,0.090,-0.146,-0.168,0.076,-0.248,-0.216,-0.204,-0.048
0.062,0.035,-0.056,0.038,-0.007,0.111,0.060,-0.168,0.021,-0.083,0.157,-0.183,-0.160,0.013,-0.106,0.147,-0.112,-0.015,-0.077,0.065,-0.106,-0.024,0.087,0.057,-0.056,-0.061,-0.048,-0.039,-0.023,-0.036,0.005,0.166,-0.049,0.097,0.114,0.008,-0.116,-0.030,0.064,-0.053,0.028,0.102,0.074,-0.068,-0.023,0.085,0.075,-0.044,-0.142,-0.046,0.093,0.010,0.106,-0.038,-0.056,0.064,0.056,0.041,0.110,-0.003,-0.027,0.084,0.088,0.018,0.009,-0.040,-0.073,-0.162,-0.065,-0.091,-0.014,0.026,0.028,-0.021,0.041,-0.098,0.079,0.054,-0.015,0.089,0.012,0.009,-0.164,-0.013
0.062,-0.095,0.047,0.037,-0.012,-0.089,-0.005,-0.143,-0.077,0.098,0.121,-0.078,-0.165,-0.182,-0.019,0.109,-0.138,-0.166,-0.184,-0.154,-0.130,-0.134,0.050,0.028,-0.152,-0.102,-0.071,-0.170,-0.084,-0.053,-0.032,-0.003,-0.151,-0.207,-0.126,-0.144,-0.107,-0.161,0.017,-0.041,-0.008,-0.008,-0.138,0.013,-0.178,-0.020,-0.095,-0.036,-0.008,0.022,-0.123,-0.134,0.155,0.255,-0.053,-0.018,-0.040,-0.019,-0.124,0.025,-0.141,0.021,-0.167,-0.039,-0.114,0.017,-0.039,-0.062,-0.235,0.004,-0.166,-0.071,-0.160,0.143,-0.151,-0.032,-0.219,0.042,0.223,0.141,-0.004,-0.048,-0.088,0.160
0.011,-0.128,0.072,0.144,0.031,-0.136,0.113,-0.108,-0.063,0.190,0.079,0.058,-0.120,-0.042,0.147,0.110,0.004,0.032,0.100,0.033,0.058,0.050,0.006,-0.052,-0.067,-0.042,0.139,0.027,-0.043,-0.119,0.190,0.058,-0.012,-0.136,0.136,-0.008,0.031,0.016,0.097,-0.068,0.242,0.231,-0.089,-0.063,-0.088,0.014,-0.082,-0.016,-0.097,0.020,-0.021,0.317,-0.058,-0.041,-0.066,0.022,-0.131,0.027,0.052,0.082,-0.019,-0.033,-0.032,-0.119,-0.068,0.124,0.069,0.093,0.150,0.107,0.231,-0.068,0.143,-0.176,-0.008,0.082,0.007,-0.117,0.041,-0.036,0.030,0.166,-0.112,-0.043
-0.218,0.100,-0.228,-0.164,-0.088,0.100,-0.193,0.166,-0.050,-0.008,-0.153,-0.007,-0.022,0.082,0.100,0.018,0.001,0.055,0.111,0.063,0.079,0.074,0.086,0.089,0.152,-0.124,0.074,-0.154,0.086,0.106,0.220,-0.119,-0.197,-0.197,0.192,0.112,-0.130,-0.229,0.067,0.093,0.082,0.067,-0.180,0.085,-0.094,-0.078,0.024,0.211,0.068,0.108,0.131,-0.087,0.017,-0.337,-0.189,-0.137,0.047,0.260,-0.099,0.102,0.073,0.058,-0.008,-0.130,-0.190,-0.154,-0.188,-0.041,0.232,-0.195,-0.138,-0.193,0.265,0.099,0.063,-0.124,-0.175,0.041,-0.080,0.191,0.234,-0.094,-0.071,0.036
-0.094,0.020,-0.216,-0.067,-0.163,-0.130,0.003,-0.219,-0.201,-0.327,-0.167,-0.287,-0.278,-0.201,0.045,-0.008,0.059,-0.128,-0.190,-0.026,0.146,-0.008,-0.123,-0.070,0.019,0.050,-0.020,-0.041,0.062,-0.103,-0.027,-0.061,-0.179,-0.067,-0.079,-0.036,0.054,-0.004,-0.012,-0.005,-0.024,-0.044,-0.229,-0.154,-0.189,-0.162,-0.176,0.014,-0.216,-0.245,-0.184,0.306,0.136,0.036,-0.233,0.212,-0.206,-0.336,-0.273,-0.317,-0.243,-0.097,-0.187,-0.199,-0.197,-0.176,-0.265,-0.204,0.216,-0.383,-0.091,-0.230,-0.050,-0.137,-0.020,-0.189,0.131,0.161,-0.162,0.262,-0.323,-0.074,-0.249,-0.362
